54 256
12 -0.10688668 0.1179045 0.018635815 0.028725274 0.019022545 0.010820726 0.027456328 -0.0050649988 0.017561339 -0.010911539 -0.03701222 0.03774866 -0.010427931 -0.013940295 -0.02623604 0.012533251 -0.00022428598 -0.001057234 0.014911905 -0.013348307 0.0033539326 0.0040308707 -0.016805716 0.041472226 0.0028448808 -0.007461249 -0.024889832 -0.03419028 -0.00800345 -0.0020495239 -0.0006695611 -0.04587887 0.021533474 -0.04119401 -0.03352881 0.038196016 0.014895034 0.021304876 -0.053706706 0.0012901914 -0.005301184 0.02269937 0.006382365 0.020428956 -0.043456253 0.053041685 0.015947605 -0.017754152 -0.033765063 -0.03455698 0.015458666 0.0044851685 -0.016468385 0.022101488 -0.02664952 0.021739975 -0.079421885 -0.022913214 0.019247942 0.104445755 0.034109104 -0.0471147 0.016233042 0.021133328 -0.071952455 -0.0008745166 0.03035985 -0.059472267 -0.030028014 -0.03250661 -0.053106047 0.09314623 -0.013733128 0.015434483 0.03614819 0.04933063 0.0697511 -0.044277575 -0.013856083 0.104229644 0.052982483 0.118787184 -0.12258733 -0.06424251 -0.00037231878 -0.059185624 0.01495705 -0.058170836 -0.072922595 0.05005018 0.002397884 -0.075493924 -0.04483379 -0.016873108 -0.008685122 -0.069949135 -0.082414694 -0.056500528 0.111967 0.10034991 0.054763816 -0.08083356 -0.14694747 0.01658684 0.028083269 0.0026471112 0.06664322 -0.025457393 0.115317196 -0.03202293 -0.10758146 0.027368134 -0.019682448 0.03544405 0.06706908 0.038524333 0.062042184 0.061572567 -0.039679267 -0.08736026 0.098382935 0.054918922 0.1358015 -0.11178445 -0.008305082 0.15462694 0.023692345 -0.0024047901 -0.072515264 -0.121560514 0.021355247 0.075639874 0.009759999 -0.068833865 0.053555906 0.009074444 0.05153724 -0.023697514 0.016545162 -0.029386615 0.005818861 -0.035103995 -0.106492415 0.019165382 0.029642705 0.009889192 -0.00829344 0.038630445 -0.06705133 0.01587041 -0.033678915 -0.04419199 4.9170925e-05 0.012659717 -0.045029353 0.01636071 0.0019963288 0.04324558 0.029383633 0.042940225 -0.02086336 -0.008107615 -0.090996474 -0.026099803 -0.0013718648 0.028064977 0.003488523 -0.079259634 0.07766732 -0.026949015 0.017120887 0.10260035 0.05065867 0.019019896 0.0072420556 0.02009365 -0.00879848 0.041683406 0.034679376 0.08220265 0.027505578 -0.024935797 -0.034561653 0.009612123 -0.014105574 -0.07348234 0.07062502 0.11008622 -0.008692741 -0.014861591 0.04784004 -0.08047039 -0.092821725 -0.05444223 -0.000677488 -0.07228532 -0.07128597 -0.012658472 -0.012368127 -0.062298745 0.08817518 -0.07516417 -0.059593983 -0.14223392 0.005343152 -0.038217485 -0.034086317 -0.10764127 -0.09410613 0.04525889 -0.009540344 -0.04519952 0.0063440436 -0.023508253 0.024082549 -0.04226493 -0.02219063 0.09140889 -0.01409308 0.051015932 -0.0604732 0.0413311 0.015039874 -0.0047624134 -0.0062284814 -0.05615552 0.0015793102 -0.034278307 -0.029671991 0.017178206 0.10453887 0.030919211 -0.057148445 -0.057769947 -0.010840141 0.019603642 -0.010198357 0.032121 -0.04277503 0.07613422 -0.04592222 0.0065174936 -0.016166283 -0.022591852 0.012151064 0.011247814 -0.033660714 0.012953844 0.01806523 0.023133902 0.016665952 0.03784279 0.032963 0.052654322 -0.034154788 -0.0700488
1 -0.023137849 0.024974046 -0.0058052805 0.004462225 0.06256319 0.03632404 0.05423284 -0.010826906 0.052502774 -0.041561183 -0.11799133 0.08715477 -0.03886816 -0.009837705 -0.078829765 0.012514857 0.03395661 -0.020661833 0.05307468 -0.032607693 -0.00018715879 0.021227319 -0.038268935 0.11401883 -0.0012909211 -0.018757679 -0.06691533 -0.07442069 -0.00815332 -0.006299489 -0.016303703 -0.06470168 0.059236012 -0.048708204 -0.040732738 0.046999432 0.012099669 0.016932685 -0.050373044 0.006443608 -0.002480338 0.054555364 -0.004540889 0.024260864 -0.04144602 0.039709456 0.01830449 -0.011092124 -0.038991712 -0.036903087 0.020708214 0.03663992 -0.017869163 0.022702489 -0.014829819 0.04388671 -0.07185747 -0.010176994 0.010590654 0.104495965 0.032893937 -0.043853715 0.020903165 0.0153115215 -0.04763099 -0.0021517708 0.015891092 -0.0326104 -0.020547053 -0.033464354 -0.041151445 0.08177233 -0.014884191 0.010319934 0.025233766 0.029286927 0.057073433 -0.04998984 -0.02503349 0.08417106 0.04956609 0.10061119 -0.09022482 -0.052481484 0.0040946724 -0.040367167 0.020464683 -0.054893903 -0.05703346 0.038633958 -0.0035671757 -0.0526029 -0.045712966 -0.026481807 -0.009750969 -0.055059034 -0.072356224 -0.043484498 0.1129579 0.0829855 0.054601666 -0.07634569 -0.12679583 0.010589037 0.016308388 0.007596824 0.047645614 -0.024317138 0.099238016 -0.034294497 -0.096881546 0.024057724 -0.016378026 0.031290017 0.071592115 0.024460021 0.059664745 0.059152856 -0.036482897 -0.08907776 0.10453686 0.053591497 0.13032569 -0.111280024 0.0034361845 0.13411522 0.0065720063 0.0017833968 -0.044513892 -0.110273704 0.03929471 0.07125909 0.007746747 -0.048881326 0.043698147 0.009327563 0.053954747 -0.034328144 0.018598383 -0.035430662 -0.0030469252 -0.029670484 -0.07601763 0.019477941 0.027985156 0.023728056 -0.016259212 0.031409122 -0.05706036 0.012924528 -0.026508633 -0.025738334 0.012970089 0.022077026 -0.04398745 0.016747575 -0.0005607063 0.04808767 0.024883464 0.02149465 -0.015616142 -0.022079403 -0.0753332 -0.020111833 0.009557976 0.023041954 0.010286665 -0.061768096 0.057581384 -0.028530056 0.0013511779 0.08511778 0.06297379 -0.0054392666 0.015343184 0.011196041 0.0122810155 0.044421207 0.031077985 0.09048656 0.02411565 -0.037228663 -0.056846205 0.009596227 -0.014838492 -0.08856573 0.07590468 0.1044267 -0.016185269 -0.004176376 0.034366596 -0.056544732 -0.08862871 -0.04523665 -0.010057278 -0.066505276 -0.053894244 -0.0076920083 -0.0094404835 -0.04195947 0.07377996 -0.049161416 -0.040913213 -0.09974503 -0.008428411 -0.028262882 -0.035026375 -0.10274906 -0.09179199 0.05022608 -0.011713666 -0.044831883 0.020918515 -0.031609535 0.02644287 -0.0441312 -0.015393799 0.08496578 -0.013757141 0.04652205 -0.078067824 0.0529758 0.025965469 -0.007839967 -0.0026668587 -0.07586046 -0.005284048 -0.05306292 -0.041444506 0.036353774 0.1138245 0.029062659 -0.05413763 -0.055885937 0.0010083826 0.020227762 -0.017694728 0.023840064 -0.04283552 0.06121812 -0.027104497 0.016843285 -0.020883502 -0.036648344 0.02433498 0.022319661 -0.020724986 0.030743126 0.020044068 0.023916349 0.008459724 0.03554742 0.029123431 0.030779254 -0.03612237 -0.055133976
3 -0.053383403 0.026762713 0.0073346156 0.010999541 0.06532696 0.024639327 0.047425985 -0.015894437 0.057879142 -0.02623467 -0.12692896 0.088859454 -0.014792908 -0.020532403 -0.07003112 0.0046544787 0.023485444 -0.0107674785 0.026440425 -0.032249082 -0.004698066 0.01874045 -0.023794277 0.10024904 0.0034816803 -0.016681455 -0.07437259 -0.06499317 -0.0041905 0.003848204 -0.008513007 -0.0809442 0.05251951 -0.048976883 -0.04178452 0.06216016 0.012748039 0.017098585 -0.0710831 0.008588003 -0.012366486 0.053844225 -0.0023822382 0.028161801 -0.05367049 0.06874663 0.015647959 -0.011359622 -0.03913414 -0.058787573 0.024089875 0.024451852 -0.012322418 0.016975611 -0.026938675 0.039998546 -0.09401326 -0.026975619 0.019968433 0.12094934 0.043441415 -0.05560347 0.013697334 0.017738912 -0.080482885 0.0050303475 0.042661086 -0.05710618 -0.036038745 -0.04550639 -0.048922952 0.095300235 -0.011895383 0.009488522 0.04879753 0.037534416 0.08872422 -0.055211555 -0.03577346 0.10953724 0.06615497 0.1307374 -0.13843043 -0.06132791 0.002369376 -0.055424735 0.022822924 -0.05698042 -0.07343741 0.07140499 0.012072945 -0.07571555 -0.050673015 -0.023629261 -0.0054392065 -0.07172558 -0.07719381 -0.04697036 0.13581814 0.097094916 0.064583674 -0.08832385 -0.15463212 0.02224966 0.021937098 -0.0041173003 0.06870039 -0.030890906 0.086833194 -0.02789058 -0.089276865 0.014673479 -0.006541149 0.021492945 0.071992 0.03451844 0.055133652 0.04243837 -0.049039856 -0.0736173 0.09465089 0.043481186 0.13043894 -0.1050973 0.0050977524 0.12404768 0.025450213 0.008355621 -0.043862257 -0.100474745 0.022698015 0.056625385 0.0041397326 -0.060494762 0.056481175 0.008176837 0.05270419 -0.024267089 0.013926884 -0.039489705 6.924199e-05 -0.021901716 -0.089220405 0.017665984 0.025717583 0.02132824 -0.028745204 0.02950924 -0.05574006 0.019376425 -0.034888472 -0.02997356 -0.0054263296 0.011731193 -0.038197193 0.009978254 -0.0015829792 0.027428204 0.030059379 0.028446909 -0.022562638 -0.01350097 -0.07613148 -0.023646953 -0.006384808 0.0190263 0.007378913 -0.07875336 0.062788896 -0.030657347 0.020227676 0.10232556 0.044088267 0.004180244 -0.0018314595 0.018114012 -0.009759528 0.03325463 0.03094456 0.07130451 0.022796465 -0.020016182 -0.036916677 0.0022845159 -0.0049573556 -0.082425565 0.08245575 0.08338742 -0.0035254476 -0.0027283786 0.029813513 -0.04716416 -0.06801328 -0.048784815 0.0002694597 -0.059925415 -0.060401604 -0.014102367 -0.016837046 -0.038511608 0.06934308 -0.050885484 -0.037907794 -0.09479471 0.0006043322 -0.03356435 -0.03761627 -0.091580994 -0.08588025 0.049874276 -0.017859781 -0.03859084 0.016674858 -0.031952187 0.017163174 -0.046252903 -0.00927364 0.08177786 0.005877165 0.046121866 -0.06373323 0.050837368 0.011733754 0.004341778 -0.0072865104 -0.05670898 -0.01813173 -0.045093812 -0.040436067 0.011727114 0.10841274 0.033469826 -0.053787164 -0.056447245 -0.0031566718 0.01788162 -0.020202834 0.031952664 -0.047841217 0.07191193 -0.037301045 0.009103714 -0.012552495 -0.030559834 0.013678355 0.01626066 -0.03327764 0.022691496 0.008542508 0.02473769 0.0008981767 0.04108802 0.020738414 0.04790806 -0.032861687 -0.04591354
19 -0.101476066 0.09335345 0.0025583652 0.024761336 0.05122849 0.021078229 0.033181116 -0.020434616 0.04545499 -0.021975586 -0.10273277 0.07408461 -0.024516355 -0.012626411 -0.051673174 0.003240732 0.01720179 -0.010377272 0.010401209 -0.025458425 -0.0066246204 0.011729597 -0.021712653 0.06078137 0.0023039314 -0.01368287 -0.06133179 -0.02868262 0.0030565867 0.0009570882 -0.0020806775 -0.042320188 0.034664918 -0.013421244 -0.025965026 0.03703857 0.02339326 0.009829241 -0.043492135 0.0057568173 -0.0023187702 0.03183346 0.00034069305 0.013279865 -0.033745915 0.038115356 -0.0028137984 -0.0053200987 -0.02665687 -0.052674368 0.02188293 0.015080116 -0.016217327 0.0074796504 -0.016717223 0.025596546 -0.057226337 -0.017645873 0.014217473 0.06503033 0.033895634 -0.050958894 0.006837267 0.0065301917 -0.05947401 0.004059809 0.035630487 -0.04035215 -0.029744815 -0.0359593 -0.039049443 0.07343914 -0.011649906 -0.0036273291 0.0321305 0.03292537 0.060859933 -0.026084943 -0.015115222 0.07397137 0.04936857 0.087485865 -0.10499973 -0.050832745 0.013513703 -0.035618313 0.02101815 -0.03848326 -0.042949386 0.051973008 0.023307774 -0.05965617 -0.03206215 -0.022149414 -0.005425405 -0.05587129 -0.047851846 -0.01903928 0.09654819 0.070807844 0.037031066 -0.065305784 -0.10930052 0.026564334 0.016870951 0.0039425716 0.04837862 -0.020738712 0.0929232 -0.023722814 -0.08514108 0.027784124 -0.005210301 0.030635368 0.0712047 0.036207337 0.05392875 0.04626952 -0.050528683 -0.06489401 0.09330897 0.037346914 0.11785098 -0.10492002 0.0021947515 0.13597876 0.02985426 0.0030844044 -0.061456483 -0.11626496 0.036173113 0.06637134 0.0027831136 -0.066419035 0.05609958 0.005757602 0.060115542 -0.037989303 0.013348572 -0.031396482 -0.0007244813 -0.03323389 -0.10420627 0.028560095 0.026295789 0.0133629525 -0.026554897 0.0343534 -0.06445081 0.03522017 -0.037957896 -0.039240338 0.0034303304 0.019118031 -0.06072265 0.020215884 0.0033511429 0.028517883 0.03759927 0.0417076 -0.020400265 -0.016506411 -0.08599163 -0.026363017 -0.0039085387 0.017939834 0.014562866 -0.09284845 0.0784155 -0.035169326 0.012616477 0.10534074 0.05430978 0.0004822472 0.009713805 0.0144108245 -0.008187699 0.040633976 0.03437745 0.09440075 0.032106534 -0.01565099 -0.04415297 -0.00033034076 -0.0032990165 -0.11012765 0.09278476 0.12810571 -0.0011790269 -0.006543328 0.041229133 -0.06492311 -0.089028634 -0.055486254 -0.0061717043 -0.07462789 -0.058473878 -0.020636812 -0.019462012 -0.044693224 0.0766543 -0.049781322 -0.049234316 -0.11298257 -0.001988671 -0.042065904 -0.0395895 -0.11481271 -0.09426387 0.056381773 -0.018621428 -0.031885315 0.0056234016 -0.039798774 0.031915963 -0.038522366 -0.0023730497 0.091825046 -0.0059440928 0.054090653 -0.10342039 0.07960426 0.021185124 -0.0048574116 -0.0036750347 -0.094272085 -0.010921244 -0.07572681 -0.04239212 0.022318173 0.15446764 0.040286895 -0.07250516 -0.075728804 0.0020876317 0.017766383 -0.014594497 0.04891827 -0.06738895 0.10251827 -0.052750554 0.013388414 -0.03249983 -0.04820556 0.027650762 0.01774976 -0.0495807 0.04155908 0.020256886 0.032338556 0.0044885664 0.0626427 0.02922272 0.06122954 -0.038000338 -0.05980708
2 -0.021864768 0.0012742273 0.007391086 0.008002169 0.078988016 0.034375325 0.06905574 -0.02741056 0.07200539 -0.055985518 -0.16040726 0.11732226 -0.04124337 -0.019808225 -0.091823585 0.014385084 0.044140894 -0.025375666 0.04540017 -0.05222493 -0.010234312 0.030923435 -0.04476511 0.13797563 -0.0072727953 -0.021804275 -0.07959869 -0.093094856 -0.013015147 -0.0029023336 -0.023275387 -0.086028576 0.06412158 -0.053071544 -0.0404928 0.078026235 -0.0021041294 0.007821151 -0.0636193 0.006719613 -0.012958206 0.068334036 -0.0041162344 0.030362297 -0.06013638 0.07753165 0.03292741 -0.01915764 -0.0514772 -0.056094512 0.036050886 0.03799351 -0.023457518 0.022611443 -0.038395587 0.038767893 -0.11546742 -0.020855505 0.021660414 0.16361274 0.04428928 -0.04602429 0.027814487 0.03501864 -0.0746919 -0.000120767196 0.0321068 -0.05503611 -0.019687483 -0.030642582 -0.042394605 0.084373936 -0.027694644 0.014400737 0.03871557 0.030247787 0.064907245 -0.058724627 -0.024306173 0.09945159 0.046524685 0.093328975 -0.08212449 -0.052383393 -0.008432269 -0.049580786 0.02108221 -0.04371886 -0.066524595 0.057061747 0.011361053 -0.060404014 -0.0571629 -0.0134735275 -0.0111413235 -0.060769763 -0.0823892 -0.06509235 0.12942581 0.08805542 0.07607374 -0.08301335 -0.14522178 0.00046532715 0.018486097 -0.001106839 0.0700437 -0.029963614 0.08716662 -0.022681108 -0.09483078 0.01357526 -0.008619018 0.023567578 0.07486405 0.04904513 0.057951275 0.038948257 -0.042357374 -0.088561 0.08896391 0.0490702 0.12152714 -0.11639971 -0.004158388 0.12402649 -0.004525864 -0.0060073636 -0.029773884 -0.10219564 0.03408483 0.06649275 -0.0010208244 -0.042310677 0.040467974 0.016039144 0.036058255 0.0064944313 0.024568114 -0.034518316 -0.003763916 -0.02641622 -0.068444066 0.028053109 0.02756295 0.02528019 -0.025700446 0.021468282 -0.05015606 0.013187713 -0.02236865 -0.014960569 -0.0067854095 0.0039327275 -0.022694537 -0.011042092 -0.010410886 0.030383496 0.017999671 0.01661596 -0.016670082 -0.017538676 -0.061909184 -0.0049728593 -0.0076492503 0.026215544 0.005223988 -0.029487254 0.053833187 -0.01944131 0.016975813 0.061639514 0.05491045 0.004065905 0.0013147753 0.015517537 -0.00181354 0.03648489 0.029969975 0.073592365 0.01323361 -0.046110045 -0.04272458 0.01488549 -0.011559023 -0.063725986 0.0881173 0.076634 -0.011605851 0.0062094163 0.033306185 -0.045867395 -0.06246698 -0.034034982 -0.0040813554 -0.0579167 -0.0553971 -0.0005034589 -0.0069903405 -0.049045596 0.067732304 -0.037500046 -0.025669292 -0.09844926 0.0028928644 -0.04228674 -0.04075966 -0.10140122 -0.09555105 0.044957448 -0.012519849 -0.059987355 0.041198164 -0.01979389 0.01509482 -0.047756173 -0.010103186 0.07355192 -0.012306475 0.05261216 -0.06949459 0.038153835 0.030196026 0.0038974476 -0.013248631 -0.06741556 -0.019477231 -0.045369647 -0.06403123 0.03275113 0.119081676 0.03362847 -0.06429718 -0.05654678 -0.004903981 0.03501977 -0.037803557 0.029627005 -0.05082709 0.078619905 -0.037241384 0.01838313 -0.019239051 -0.043221004 0.015484214 0.022259908 -0.03168716 0.025163256 0.012218689 0.033587582 0.012353195 0.035991717 0.034833785 0.039287247 -0.045840543 -0.054346483
18 -0.053538393 0.07509188 0.007793455 0.02163806 0.049712703 0.033382535 0.03742912 0.00036297838 0.051542632 -0.027943889 -0.1105983 0.07031446 -0.037719786 -0.0011858973 -0.07862703 0.00071134936 0.03681261 -0.019771151 0.027276894 -0.029503556 -0.011946918 0.01775029 -0.026837943 0.116798334 0.0040738857 -0.024170637 -0.057765834 -0.046172306 -0.0027154067 -0.0027342194 -0.013273138 -0.07785721 0.058646023 -0.04191292 -0.037784427 0.05139552 0.0069121066 0.020982778 -0.03738959 0.017999327 -0.009617681 0.05443315 -0.0017590136 0.0066214446 -0.031162556 0.046115637 0.002557719 -0.015786398 -0.043084905 -0.0575296 0.031430997 0.056100618 -0.013467764 0.009966338 -0.018373588 0.04683182 -0.09602863 -0.009385051 0.0004656935 0.09394444 0.020403963 -0.089068465 0.017052304 0.016610099 -0.07451174 0.0014843171 0.03990588 -0.05714984 -0.030958932 -0.041121125 -0.028184343 0.06236844 -0.015230217 0.001261987 0.012800947 0.016609553 0.056201167 -0.045440156 -0.034587536 0.07784166 0.03851487 0.08606137 -0.082273066 -0.03971877 0.022832775 -0.028507581 0.016746236 -0.033369057 -0.038744524 0.055806853 0.012255952 -0.04369901 -0.022970168 -0.03414291 0.0011996197 -0.043702897 -0.04949481 -0.004658071 0.078366645 0.055490118 0.034810785 -0.05359325 -0.09906946 0.025736064 0.0050685033 0.0031179101 0.023951063 -0.021015372 0.08200434 -0.03025885 -0.093811184 0.012972159 0.0035931324 0.031153802 0.08511193 0.027299426 0.059306823 0.053784836 -0.0459351 -0.07191682 0.10130282 0.055161607 0.1255987 -0.09918385 0.0022059137 0.11693597 0.012046582 0.01596042 -0.052257154 -0.09673755 0.03702457 0.066547506 -0.00084813766 -0.059919734 0.051902495 0.010389858 0.052936677 -0.05237738 0.0012420841 -0.04048053 -0.0070566484 -0.03053886 -0.09929465 0.030343605 0.0065992847 0.017112948 -0.019966422 0.027295325 -0.06696344 0.029810518 -0.037244607 -0.032268755 0.017384827 0.025092335 -0.05944059 0.04008629 0.0005378123 0.051630173 0.038107764 0.033241082 -0.02202609 -0.03379872 -0.10116556 -0.031019146 0.013303836 0.019746259 0.016694851 -0.10538899 0.091758035 -0.040804215 -0.013138191 0.13415322 0.07128641 -0.004353315 0.005387537 0.008013487 0.012657796 0.05231356 0.02996924 0.08956667 0.043632817 -0.016332889 -0.062317617 0.006528164 -0.006976063 -0.12604909 0.08405836 0.12335342 -0.015523292 -0.015643602 0.026564404 -0.037951656 -0.08770381 -0.056286957 -0.013336185 -0.06519547 -0.03644679 -0.006191553 -0.016015088 -0.038845178 0.069891796 -0.038422726 -0.039779603 -0.08511291 -0.0045400704 -0.031110395 -0.028961075 -0.1019183 -0.077111706 0.060392126 -0.016279725 -0.031553112 0.011135371 -0.044597946 0.029440928 -0.052796893 -0.006924455 0.0744058 -0.0031724027 0.03844235 -0.09281354 0.07555359 0.013740316 -0.0038076346 0.017511044 -0.087202474 -0.011305567 -0.07134188 -0.05796664 0.03270664 0.16096611 0.035948653 -0.052416306 -0.065506436 0.0025812127 0.022603318 -0.001047966 0.032821592 -0.06804805 0.0655661 -0.033702463 0.022980733 -0.026257802 -0.049385548 0.01740293 0.0064366153 -0.018869884 0.032026667 0.025869135 0.025548367 -0.0038366476 0.05455086 0.012827687 0.03990692 -0.026009586 -0.039597947
33 -0.014521466 0.019434325 0.0063940044 0.010634709 0.048851818 0.027643265 0.04343297 -0.013387728 0.042662017 -0.04252951 -0.104369015 0.081632376 -0.043580607 -0.0039556944 -0.07536012 0.00843661 0.033744518 -0.02089207 0.029600983 -0.03237103 -0.00888419 0.019920701 -0.030935174 0.09877764 -0.0072080726 -0.018623592 -0.045986846 -0.05964546 -0.011209453 -0.0034124474 -0.022668602 -0.06019727 0.04346115 -0.033958293 -0.034239758 0.054807387 -0.0003418836 -0.0023824163 -0.036410645 0.008138838 -0.0027852203 0.04450095 -0.0017609217 0.01882044 -0.02624488 0.04004579 0.022096692 -0.01716071 -0.032837354 -0.033968665 0.022389825 0.027603121 -0.013802321 0.01391948 -0.020634912 0.016730325 -0.06409289 -0.006500795 0.0044114063 0.09422543 0.017566536 -0.024320321 0.017470853 0.017831745 -0.035137463 -0.0005600751 0.006774973 -0.02155244 -0.015370072 -0.021592034 -0.032185275 0.06566181 -0.032617807 0.007587525 0.018537166 0.028200047 0.05891303 -0.058855347 -0.019181447 0.09952917 0.04778045 0.090582706 -0.080289744 -0.06196941 0.0012180653 -0.04838401 0.019148936 -0.04785221 -0.068971746 0.053439125 0.0019472383 -0.05292715 -0.053472914 -0.022677938 -0.009486598 -0.057569604 -0.08154617 -0.05263857 0.11192072 0.08852676 0.06521451 -0.085129045 -0.14461008 0.010278775 0.016476557 0.005038829 0.053057656 -0.030925417 0.09450421 -0.03060847 -0.11279132 0.019311095 -0.006522802 0.038944088 0.091411985 0.043127235 0.06764408 0.052511826 -0.037963144 -0.08938584 0.09941915 0.060666487 0.13491751 -0.12348917 -0.0024549852 0.15189455 -0.0064222026 -0.0005702359 -0.05561455 -0.13228607 0.047344655 0.08712291 0.0021150683 -0.05859639 0.05118782 0.019295016 0.046530336 -0.018961076 0.020105358 -0.036377553 -0.0022370147 -0.03682248 -0.096471936 0.035985265 0.018596139 0.01763868 -0.016495258 0.026046906 -0.062303603 0.016184438 -0.025143463 -0.028461859 0.0039987206 0.011493863 -0.036385227 0.012499946 -0.00986029 0.043363973 0.023617053 0.019231472 -0.016914183 -0.03106737 -0.07715484 -0.009366814 0.0070158048 0.024195815 0.00968499 -0.047105335 0.07619156 -0.025567949 0.005598514 0.0845314 0.0735703 0.008741419 0.01368009 0.01237451 0.008407387 0.052319568 0.033549767 0.099461995 0.022015542 -0.04669996 -0.06270176 0.018046468 -0.015409467 -0.09681551 0.091952346 0.117539436 -0.01661759 -0.0051944195 0.047121294 -0.058246974 -0.09827073 -0.03744367 -0.008931743 -0.071485095 -0.057980467 -0.00089238863 -0.005504612 -0.060136355 0.084283166 -0.044063564 -0.037506763 -0.117637426 -0.004165396 -0.041894637 -0.04556771 -0.12131656 -0.105644934 0.053959522 -0.015205635 -0.064306855 0.036906708 -0.03291955 0.024033442 -0.05051978 -0.01663952 0.08880947 -0.01796119 0.06406425 -0.088028304 0.056642305 0.025304524 0.00011758343 -0.009293211 -0.092323735 -0.016536698 -0.053039216 -0.07136751 0.048118196 0.14120089 0.02652287 -0.0671322 -0.05988438 -0.009132214 0.031532057 -0.024950996 0.028713286 -0.06292063 0.076887675 -0.032313608 0.024143727 -0.021986209 -0.041703377 0.018258778 0.01571413 -0.020654444 0.031517405 0.01709498 0.027995441 0.01367998 0.03374073 0.029505756 0.030927066 -0.040211678 -0.04988256
26 -0.057956062 0.104195625 0.017625198 0.034779493 0.026332108 0.026708223 0.05633129 -0.013299145 0.042464055 -0.04511369 -0.0860321 0.07427025 -0.07154256 0.0001780511 -0.09041451 0.024665656 0.049413327 -0.04089111 0.04294136 -0.040700372 -0.0142110335 0.02240958 -0.052082147 0.14384638 -0.0046116095 -0.036004893 -0.04944675 -0.08090043 -0.009634981 -0.013171896 -0.02209505 -0.059482254 0.043408614 -0.046034236 -0.038093127 0.052400652 0.0026118727 0.018256187 -0.038814835 0.0005022884 -0.0070069516 0.038349096 0.012899166 0.0039625647 -0.045451827 0.05901896 0.018748563 -0.031057965 -0.05001241 -0.054886922 0.034182902 0.03321361 -0.02751876 0.016509535 -0.04190478 0.030957801 -0.1290398 -0.009933766 0.01799667 0.1437597 0.02009588 -0.077293664 0.021843666 0.035878405 -0.08149515 -0.006421721 0.021963771 -0.06458205 -0.02177078 -0.016823415 -0.027736245 0.06431884 -0.025440095 0.020254932 0.0095089935 0.042745627 0.028996956 -0.038063943 -0.0020084246 0.0709882 0.016322969 0.0432593 -0.043216612 -0.036381736 0.008843589 -0.042110447 0.00328277 -0.03636601 -0.047418132 0.03240437 0.0057036807 -0.047140133 -0.03397211 -0.009262576 -0.011494577 -0.048536975 -0.06556032 -0.04619358 0.078050695 0.07208706 0.051610578 -0.062401347 -0.11774973 0.0048610456 0.012968446 0.0019342157 0.041520327 -0.016770598 0.11282051 -0.029506775 -0.110206135 0.026569212 -0.0044531375 0.04009776 0.07876345 0.054185566 0.06515033 0.050727464 -0.030715091 -0.083357975 0.076347396 0.061274122 0.10983776 -0.10816866 -0.023653036 0.141434 -0.009851346 0.0024547738 -0.07170371 -0.110254236 0.039688844 0.08260383 -0.0011369215 -0.054126404 0.038490865 0.017585468 0.032256745 -0.007849797 0.0034034704 -0.019608969 -0.0057111173 -0.04496528 -0.083567545 0.041095108 0.020528153 0.0072974097 -0.005895011 0.037530046 -0.05429098 0.014796509 -0.019946463 -0.026335174 0.015203884 0.0011376091 -0.031089773 0.011686355 -0.0084780585 0.042942103 0.011957818 0.02934784 -0.009754291 -0.021704758 -0.077575214 -0.0035017254 0.007916896 0.029030852 0.013635506 -0.037248883 0.08337261 -0.019207463 -0.0014867063 0.07114978 0.06812849 0.018785983 0.008027469 0.008380546 0.0060940534 0.03999369 0.01931399 0.077190235 0.024767516 -0.03668477 -0.04135965 0.02188161 -0.012771278 -0.072197184 0.058198072 0.10821634 -0.014667712 -0.012947479 0.03202698 -0.053022716 -0.06298107 -0.022906123 -0.004520463 -0.049919005 -0.041156463 0.0021806536 -0.002425411 -0.06685177 0.06266777 -0.03642344 -0.042829607 -0.11481696 0.004123795 -0.049181536 -0.043201495 -0.1264099 -0.09228553 0.049110945 -0.0043186145 -0.050383016 0.026812717 -0.013352859 0.033418972 -0.03782672 -0.025635034 0.07412178 -0.032271218 0.053060047 -0.08873694 0.050854158 0.040793147 -0.0034875774 0.005305568 -0.101188414 0.0068404665 -0.060242914 -0.06586167 0.055032887 0.16046877 0.021195192 -0.07921252 -0.06740044 -0.010844537 0.048919935 -0.012083851 0.027734008 -0.06587699 0.08448182 -0.040459227 0.021086214 -0.029023165 -0.04391368 0.010895102 -0.004627681 -0.031306643 0.0190762 0.03259263 0.022699388 0.021469947 0.04103835 0.04026071 0.046065904 -0.03359103 -0.07375389
5 -0.091589354 0.13777709 0.021094276 0.035668045 0.015576212 0.019777674 0.0196974 -0.008298292 0.016961524 -0.02742759 -0.038346436 0.04349631 -0.045407817 0.005291839 -0.06721122 0.01493192 0.034592096 -0.022330604 0.03407111 -0.028646523 -0.0011426784 0.018231101 -0.028695723 0.08210405 3.9900828e-05 -0.017277354 -0.03488742 -0.04782471 -0.0075948965 -0.0060636858 -0.0110633345 -0.050963003 0.034041513 -0.029642615 -0.034182236 0.034237362 0.004141185 0.013393604 -0.031792767 0.0028179516 -0.00019147132 0.032831345 0.006482777 0.014638626 -0.023581514 0.024354441 0.015560459 -0.013253818 -0.029403264 -0.02828936 0.009027981 0.02281823 -0.011271888 0.01442902 -0.019842329 0.018045714 -0.06202477 -0.004601634 0.0016716028 0.08140179 0.020632567 -0.06115233 0.021257056 0.02655539 -0.0573806 0.0049371 0.008181023 -0.04739637 -0.029182578 -0.031266034 -0.053546254 0.09299147 -0.02359373 0.013466886 0.014896227 0.043690275 0.046327606 -0.048009872 -0.0068953936 0.09542504 0.042167168 0.08826581 -0.075874425 -0.057558496 0.016639754 -0.0487015 0.0132301245 -0.05602106 -0.058859136 0.0315579 -0.009808308 -0.05462997 -0.039369904 -0.021765351 -0.009504333 -0.04894575 -0.07611032 -0.04533798 0.08588536 0.08596083 0.04969138 -0.063952155 -0.13094749 0.021044223 0.0145033905 0.011061321 0.048660804 -0.02948419 0.11918704 -0.041806012 -0.13107944 0.036688566 -0.017410986 0.04025242 0.08590922 0.034919597 0.07331908 0.07061218 -0.031671293 -0.102232315 0.109061785 0.07925102 0.14067511 -0.11792878 -0.006767822 0.16460398 -0.007064719 0.0014395361 -0.08235654 -0.1373237 0.051608484 0.0876005 0.0059894114 -0.06223941 0.04664384 0.01343086 0.038729742 -0.04199424 0.0035576704 -0.03152895 -0.00075534545 -0.037836015 -0.10538744 0.03814014 0.017966282 0.016498474 -0.001789879 0.031704072 -0.07116106 0.020964669 -0.027625093 -0.034485687 0.028420215 0.02654852 -0.05398981 0.025387038 -0.0012002478 0.054694995 0.022477657 0.033910863 -0.015527845 -0.03253392 -0.093682915 -0.012848909 0.016133001 0.027800364 0.0084133465 -0.0698346 0.090366304 -0.03052179 -0.005642766 0.09741079 0.07045295 0.011610648 0.02827324 0.013177911 0.011291831 0.054152977 0.021017458 0.08961964 0.028174259 -0.03388284 -0.059270144 0.030340688 -0.018226681 -0.08547121 0.067431934 0.12257834 -0.015856806 -0.01197154 0.04353094 -0.07212328 -0.10644555 -0.041381814 -0.01211025 -0.064884245 -0.051005233 0.003222873 -0.0067408886 -0.06103149 0.07932172 -0.05223642 -0.050239656 -0.11917646 -0.004188515 -0.03739009 -0.035825923 -0.10728028 -0.07642493 0.04150607 -0.004105674 -0.04508776 0.023448221 -0.025729388 0.03200925 -0.036289643 -0.014836217 0.063802406 -0.021310892 0.0428878 -0.08480213 0.06191741 0.025808828 -0.013727152 0.0061546494 -0.08082756 0.0063805925 -0.056637548 -0.050414424 0.054056156 0.13795608 0.018099869 -0.06316249 -0.059455752 -0.021707239 0.030197343 -0.011168824 0.028558241 -0.06322619 0.07861191 -0.029625455 0.022417782 -0.023168817 -0.044143133 0.013662404 0.010510346 -0.01341739 0.023106238 0.0386775 0.019521235 0.014047969 0.035434637 0.030981619 0.037445463 -0.033622336 -0.058575395
13 -0.07198154 0.051935766 -0.0024831183 0.020045556 0.066423245 0.026659003 0.038778838 -0.017876295 0.0561114 -0.025467305 -0.121432744 0.06902802 -0.02116605 -0.007290121 -0.079523966 -0.005226526 0.028377807 -0.018806135 0.019340048 -0.027813222 -0.008750615 0.027326012 -0.025328586 0.10549606 -0.003622302 -0.01262075 -0.07307942 -0.060848832 0.007814947 0.0030867336 -0.017452825 -0.08911558 0.06611871 -0.048651163 -0.037111457 0.06782877 0.015653912 0.02131935 -0.054618828 0.016672615 -0.01058769 0.059428852 -0.014281286 0.017973574 -0.047838096 0.052216273 0.012238106 -0.013085448 -0.033876322 -0.05845578 0.03382408 0.046952777 -0.016095322 0.002164428 -0.01966097 0.050890658 -0.08110522 -0.0223484 0.013640162 0.10450455 0.029120823 -0.07480498 0.01684095 0.016237304 -0.06983538 0.0043533854 0.04402443 -0.058963686 -0.028044049 -0.055443127 -0.04814386 0.08349134 -0.012787926 0.0059567736 0.043915603 0.023453899 0.06919212 -0.04386386 -0.040448114 0.07060639 0.048884634 0.09446702 -0.09450595 -0.031741556 0.014968456 -0.029485 0.02634807 -0.03315665 -0.050576594 0.058791026 0.019038226 -0.04249138 -0.03881541 -0.035980813 -0.0003836364 -0.05057391 -0.052370932 -0.02161425 0.10437279 0.06253087 0.04386847 -0.064536124 -0.11475584 0.021448435 0.020498922 -0.005808201 0.04605244 -0.023083275 0.07370447 -0.021074807 -0.060866084 0.011590636 0.012293727 0.016029377 0.063019305 0.02550016 0.046005536 0.029156905 -0.047664598 -0.05784289 0.089576416 0.040272478 0.1028858 -0.08316409 0.007219838 0.108338736 0.020915633 0.01025382 -0.031687 -0.08085472 0.03550802 0.060087286 0.0011548706 -0.055025894 0.050458927 0.006535237 0.064897284 -0.033005722 0.010967301 -0.040581558 -0.008624452 -0.028219383 -0.0780994 0.020785868 0.013476162 0.020540606 -0.035698432 0.02956968 -0.064306684 0.030387826 -0.036706656 -0.025942178 0.0007831808 0.016014168 -0.05562426 0.022589367 0.00500061 0.041187927 0.03381231 0.034376506 -0.01710005 -0.029342288 -0.09118317 -0.0250506 0.0050284555 0.024584385 0.024372388 -0.10785401 0.07966494 -0.039919406 0.004587889 0.12347306 0.06214068 -0.0070096697 0.0041539157 0.0183884 -0.0015371931 0.04513822 0.0337086 0.092124745 0.037028134 -0.023495603 -0.051642805 0.0042498065 -0.008689937 -0.11249156 0.09795348 0.10792776 -0.005324624 -0.0106771095 0.02496709 -0.051544044 -0.08260448 -0.0613613 -0.008970854 -0.07047869 -0.062183823 -0.015127944 -0.015785158 -0.04930392 0.08586136 -0.057003114 -0.04123668 -0.108631946 0.0022037232 -0.041001547 -0.04880814 -0.124151625 -0.107169576 0.07032872 -0.019015603 -0.04789932 0.021820374 -0.047575176 0.031242227 -0.0543185 -0.006060995 0.09677155 0.0022927348 0.051084664 -0.09947928 0.069234096 0.0223794 -0.0010014012 0.006543691 -0.081190385 -0.016691258 -0.07146903 -0.05759562 0.028505085 0.15552601 0.049809135 -0.066789865 -0.07322911 0.013098779 0.018787166 -0.017387236 0.042957153 -0.066908754 0.08626375 -0.045959964 0.024227075 -0.03431821 -0.0539195 0.026747733 0.023306409 -0.038750675 0.039544825 0.024799075 0.034967665 -0.01827601 0.061327636 0.03448032 0.058453325 -0.04875403 -0.062335674
7 -0.096637875 0.15574163 0.044775058 0.045453005 0.028975472 0.025850309 0.026455926 0.015119747 0.043104496 -0.0141367605 -0.05730446 0.0411701 -0.032538004 -0.006333865 -0.10150194 0.031135453 0.04334278 -0.023360278 0.037362505 -0.04093717 -0.009283779 0.015805416 -0.019912465 0.12400923 0.010277156 -0.026730662 -0.04274303 -0.07084911 -0.014696717 -0.002445467 -0.013971292 -0.102804326 0.055782013 -0.068349555 -0.054865923 0.04558581 -0.001993221 0.032769524 -0.058259577 0.01727608 -0.009740858 0.03712439 0.013900274 0.014125276 -0.027150208 0.049133163 0.004987715 -0.023655286 -0.044429563 -0.046812616 0.012109412 0.055347543 0.0025719986 0.009771028 -0.03297748 0.045504507 -0.12506086 -0.025745321 -0.007139793 0.12239047 0.013564682 -0.10228346 0.020398144 0.042069327 -0.09679978 0.017274734 0.04722466 -0.08490381 -0.041085158 -0.030969512 -0.03913513 0.049054626 -0.016318195 0.017858861 0.0059491987 0.009426113 0.045669816 -0.048593268 -0.014043562 0.091950834 0.033639964 0.0945672 -0.07299888 -0.039257377 0.025658203 -0.045351844 0.015310862 -0.041897275 -0.04309493 0.047146782 -0.011777998 -0.049932722 -0.002989943 -0.022763617 0.005952675 -0.03219547 -0.046173695 -0.015289029 0.03009816 0.042674195 0.013208058 -0.02122755 -0.065000266 0.025535522 -0.009355106 0.0055018067 0.026503459 -0.019664735 0.073455244 -0.036537927 -0.11099236 0.017632471 -0.0012294569 0.025980555 0.066129744 0.01675221 0.0631353 0.07015985 -0.024461795 -0.0684344 0.104923576 0.07986334 0.13118808 -0.08649411 -0.0041748695 0.14025249 0.0096074 0.022976195 -0.09226808 -0.09499621 0.019819286 0.0659081 0.00597466 -0.08767902 0.068988234 0.021964991 0.044177465 -0.075538725 -0.010673674 -0.03557453 -0.004081332 -0.027024817 -0.15080641 0.023858244 0.0134120025 0.026797123 0.003361919 0.041604925 -0.085144214 0.022604201 -0.04360899 -0.053720925 0.036196668 0.040088866 -0.0708338 0.049429044 -0.009289738 0.081200086 0.05282176 0.042884346 -0.031142285 -0.032199133 -0.15294373 -0.04350699 0.017051114 0.02245485 0.009236487 -0.14907284 0.12082619 -0.05654608 -0.014337798 0.19089758 0.059835717 0.017291185 -0.0068639116 0.025353743 0.0059309998 0.051232167 0.016855542 0.076308906 0.043690734 -0.0016842607 -0.052207105 0.02431014 -0.025781594 -0.12052956 0.07396064 0.116317034 -0.021173935 -0.026078947 0.03669228 -0.036026638 -0.09283793 -0.052440822 -0.01192492 -0.045705963 -0.03144243 0.0059121763 -0.02085932 -0.047060054 0.05223206 -0.043913126 -0.038108602 -0.06077349 0.0040936903 -0.028056743 -0.015870295 -0.0759578 -0.053764187 0.04782231 -0.0035992314 -0.042083237 0.018233227 -0.038728174 0.022757553 -0.051538955 -0.014407049 0.06188552 -0.0021957464 0.032787446 -0.06199355 0.06897872 -0.0014338975 -0.00571717 0.02789397 -0.05448311 0.0064223222 -0.049017806 -0.053216778 0.029182602 0.16300641 0.03556914 -0.039837256 -0.07709533 -0.02303035 0.016818024 0.012523862 0.030301128 -0.06519527 0.059376176 -0.03334139 0.0140557615 -0.0047247866 -0.046709217 -0.012152587 0.0072392514 0.010758099 0.013124896 0.025958689 0.01862853 0.012832255 0.03940906 -0.011347142 0.031518392 -0.010709639 -0.016751288
32 -0.09315576 0.10136874 0.016139299 0.02697992 0.02205603 0.01247431 0.024106883 -0.0002441021 0.029267713 -0.0029585327 -0.041287567 0.021714289 -0.028190661 -0.019266931 -0.08273945 0.032489587 0.03028897 -0.024952767 0.047685955 -0.02923287 -0.006515661 0.018297117 -0.030550268 0.114645585 0.0034316168 -0.016495584 -0.06707673 -0.08733449 -0.0016851197 -0.009186744 -0.011068027 -0.08799239 0.053834487 -0.06809129 -0.04670734 0.04397985 0.012045327 0.03457617 -0.07629845 0.007715034 -0.0033304235 0.040692914 0.007871987 0.023206873 -0.044510193 0.053393837 0.008528992 -0.026306873 -0.053412084 -0.045128558 0.012724407 0.030321307 -0.01361982 0.023280611 -0.026994193 0.051527817 -0.113895066 -0.034130823 0.01836413 0.13795693 0.04029686 -0.083368905 0.020149933 0.043654166 -0.08933994 0.009804389 0.047728196 -0.086557016 -0.03461127 -0.037497688 -0.058328964 0.07753142 -0.007252093 0.021441888 0.030203035 0.031756558 0.056808546 -0.041870464 -0.01914283 0.0954104 0.05120931 0.12193414 -0.10918199 -0.051669702 0.0063509536 -0.054038417 0.017538331 -0.05830491 -0.06127987 0.051317982 -0.0066189105 -0.063734 -0.030184817 -0.013623982 -0.003139988 -0.05768978 -0.074039824 -0.045215055 0.087498665 0.08622402 0.03351449 -0.05702368 -0.11880515 0.018951468 0.016440393 0.006299056 0.0637164 -0.026583415 0.061158355 -0.021072533 -0.06533543 0.014840957 -0.009358122 0.010670753 0.021405328 0.003780153 0.032339405 0.04508598 -0.015536485 -0.04636679 0.07561496 0.041655116 0.0927548 -0.053148586 0.007283339 0.1005629 0.024434747 0.011951652 -0.056564517 -0.068979666 0.008663531 0.046554282 0.0070747416 -0.07865807 0.055993058 0.018310696 0.059704073 -0.046515882 0.007965028 -0.020141585 0.00781341 -0.023766806 -0.10484291 0.0004094278 0.028512096 0.016298924 -0.00763378 0.047612216 -0.06019525 0.009374847 -0.02870902 -0.04063205 0.014568579 0.022934148 -0.05247821 0.021223191 -0.006011998 0.06262537 0.045442805 0.041456856 -0.020066109 -0.010531803 -0.12140633 -0.040012337 0.011517078 0.0223835 0.010123638 -0.11968636 0.08156962 -0.037909895 0.009285496 0.14090808 0.044943966 0.018488845 -0.00019875131 0.027980667 -0.0060102264 0.032719433 0.032763172 0.08264531 0.02682672 -0.010764825 -0.03414211 0.0035774114 -0.027568687 -0.09184295 0.07162343 0.108262286 -0.008581224 -0.016621651 0.042041883 -0.066807136 -0.085484244 -0.056649286 -0.009749012 -0.057633687 -0.06692223 -0.01240257 -0.022198834 -0.05931934 0.07295572 -0.067025 -0.049681626 -0.10659064 0.0032605554 -0.03364986 -0.027117401 -0.09993843 -0.09593627 0.052253533 -0.010118263 -0.05551021 0.008487645 -0.036097314 0.022397954 -0.039853998 -0.022965726 0.103012025 -0.005410472 0.04776185 -0.0505723 0.039418403 0.0163938 -0.009026143 0.0062650996 -0.039888907 0.0053891777 -0.032510392 -0.030259047 0.024763629 0.11917719 0.04276341 -0.05277152 -0.07743573 -0.00094058184 0.008750709 -0.0032730275 0.03956477 -0.043940246 0.07406626 -0.04157102 0.009591611 -0.009573851 -0.03248277 0.01038193 0.021314895 -0.02017241 0.018623075 0.018652696 0.025693081 0.014835362 0.041767742 0.016825931 0.043181077 -0.033878557 -0.050302118
11 -0.05972195 0.09199691 -0.0036368438 0.01989653 0.037580084 0.031035002 0.03433179 0.0015178795 0.033921435 -0.02903874 -0.07981691 0.06035028 -0.050067145 -0.0026433782 -0.074372366 0.021427982 0.03719864 -0.024264108 0.05513342 -0.027692586 -0.0041975984 0.011865529 -0.041944105 0.11106559 0.0011584974 -0.021230245 -0.0544339 -0.054656263 -0.0018405116 -0.016775312 -0.013877705 -0.053338088 0.053691614 -0.044537157 -0.040349916 0.02928898 0.015076227 0.027408993 -0.04186272 0.003081969 0.0025016265 0.048914704 0.007994538 0.009330425 -0.037176415 0.030932939 0.002386521 -0.0123832505 -0.05194688 -0.0375016 0.013825833 0.0399999 -0.01772873 0.028473197 -0.01027706 0.05722352 -0.093017705 -0.0015010112 0.0109198205 0.10145332 0.04028607 -0.08801461 0.020386335 0.028732937 -0.07085037 -0.003580713 0.027200503 -0.054237757 -0.029356794 -0.034922134 -0.038580798 0.08162237 -0.0089511685 0.016220495 0.008788839 0.03214085 0.045355372 -0.0418334 -0.018672343 0.08072159 0.039761122 0.09712148 -0.08390207 -0.055130545 0.017124578 -0.03450586 0.015877351 -0.05604174 -0.040879812 0.036189385 -0.00947641 -0.054618012 -0.032181405 -0.026130144 -0.0032919724 -0.05659639 -0.066798106 -0.026925486 0.09416987 0.08321984 0.03717649 -0.06655685 -0.12277364 0.016723841 0.0056903446 0.018704185 0.038954373 -0.021903077 0.09659885 -0.03908593 -0.09928956 0.031777542 -0.023449734 0.0353463 0.06034282 0.017180441 0.053168762 0.06808025 -0.03113283 -0.07986463 0.10069396 0.052178707 0.114538476 -0.094562195 0.0008898697 0.120484285 0.010614916 0.009524718 -0.058565076 -0.10153712 0.03255651 0.0637205 0.0056862375 -0.055249542 0.038673382 0.0032680472 0.04589397 -0.05398348 0.009702623 -0.025620518 -0.00076816115 -0.032331955 -0.086101025 0.023856502 0.029231427 0.013977071 -0.0068862657 0.04227192 -0.058094677 0.015759515 -0.023943452 -0.033441722 0.026561167 0.033354487 -0.05870844 0.03232998 -0.0017134902 0.059692033 0.039197475 0.02868598 -0.016321562 -0.021067414 -0.093310766 -0.033068564 0.021331977 0.022323951 0.01355215 -0.08229536 0.06953323 -0.03464783 -0.008186788 0.104105785 0.069295004 -0.0039459546 0.019473283 0.009514825 0.021132594 0.041698165 0.03020572 0.09349135 0.028458131 -0.02206666 -0.05726547 0.010176503 -0.020334622 -0.10250804 0.06394513 0.12620601 -0.017117117 -0.015387968 0.033362065 -0.05912795 -0.10258353 -0.05695514 -0.015397091 -0.069883026 -0.059987172 -0.011054054 -0.01757239 -0.05107905 0.07707523 -0.05704668 -0.05662469 -0.11676184 -0.010124063 -0.021023076 -0.021975536 -0.10171345 -0.084638186 0.050625697 -0.010521416 -0.032854583 0.002289075 -0.033948954 0.03273631 -0.037804026 -0.017910399 0.08687468 -0.018659892 0.037990607 -0.07347341 0.052513506 0.023328368 -0.016249526 0.009652251 -0.078690805 0.005938151 -0.055885587 -0.034801647 0.04095136 0.12499947 0.023857119 -0.05371414 -0.065889806 -0.0008170216 0.016888227 0.001114484 0.029401192 -0.045251917 0.062530875 -0.026131047 0.012025834 -0.02397628 -0.038895994 0.027500965 0.0151213305 -0.021970132 0.029671807 0.028416602 0.019574678 0.012882414 0.043601107 0.030865986 0.039865125 -0.03602168 -0.061630424
28 -0.11178423 0.15611306 0.018536352 0.041159097 0.0038484735 0.016865509 0.0108853085 0.0062980433 0.018428685 -0.007795784 -0.01993832 0.0029357034 -0.04820393 -0.0024598953 -0.10192805 0.03514485 0.047575396 -0.03424653 0.053008173 -0.033147264 -0.012329093 0.028236177 -0.030741679 0.14546007 -0.0002633645 -0.019154502 -0.06428763 -0.09222306 0.0061695413 -0.012628679 -0.020556023 -0.115276165 0.07170103 -0.08401424 -0.04969044 0.05895194 0.009603272 0.051717006 -0.07566882 0.010968571 -0.004306393 0.062462933 0.009889778 0.016053837 -0.039555278 0.04773738 0.0092445 -0.030962741 -0.06708241 -0.045015838 0.017889323 0.056240343 -0.017601956 0.022496177 -0.0257303 0.06612932 -0.13833635 -0.027440852 0.011653583 0.15544263 0.034775395 -0.13306788 0.03406593 0.06595586 -0.11027129 0.012134617 0.056511763 -0.11267096 -0.040404305 -0.04925507 -0.0659569 0.08933484 -0.012594074 0.027697904 0.020915756 0.035679657 0.054066043 -0.05111869 -0.02318175 0.10396288 0.04197449 0.11638093 -0.08776481 -0.047139205 0.026225053 -0.05101392 0.017549843 -0.058673456 -0.059005544 0.046810944 -0.014809005 -0.056504548 -0.024508286 -0.02541158 0.0019105832 -0.05184082 -0.07993629 -0.035712335 0.07907034 0.08438502 0.026497934 -0.045828477 -0.12796353 0.025369516 0.01225155 0.012849833 0.051927425 -0.030928394 0.06580131 -0.026995098 -0.08067991 0.015018264 -0.0061855167 0.01658848 0.03142288 0.0053871917 0.037706297 0.05741194 -0.016546099 -0.055302255 0.08903268 0.06789958 0.09423806 -0.051367328 0.005707501 0.09294953 0.0125845 0.010227707 -0.06318984 -0.06639426 0.017458884 0.050567728 0.0022003844 -0.07538753 0.046511944 0.014157261 0.045750074 -0.055601705 -0.0056677954 -0.02070749 0.0029718014 -0.026856387 -0.09898428 0.01810243 0.010239046 0.012384239 8.508896e-05 0.043198016 -0.062379345 0.015954291 -0.024681682 -0.0346611 0.025332622 0.03244565 -0.059787035 0.036199983 -0.0010293709 0.07541654 0.043038428 0.046127703 -0.012983219 -0.024963144 -0.12988047 -0.039527774 0.029432425 0.024063941 0.019089704 -0.12925366 0.097579926 -0.04035015 -0.0103778 0.1471685 0.054639388 0.015507967 0.015378839 0.025250427 0.0064155213 0.040267117 0.02332925 0.07916798 0.033319812 -0.009374754 -0.040368997 0.018266892 -0.029907217 -0.09499477 0.05745607 0.11146928 -0.010121628 -0.02642805 0.031170545 -0.059706308 -0.08687722 -0.052892976 -0.011416026 -0.049877025 -0.055995304 -0.002394902 -0.018022832 -0.061547976 0.069636434 -0.062589124 -0.04479028 -0.0988363 0.0025900642 -0.02528121 -0.02224582 -0.07981685 -0.07307933 0.040466495 -0.004296584 -0.04628148 0.007926016 -0.033250406 0.02645073 -0.03416595 -0.016544688 0.07148744 -0.0062466906 0.025903346 -0.042539906 0.0346502 0.01499627 -0.015674984 0.025692184 -0.03798908 0.009198262 -0.032414414 -0.03611692 0.03937206 0.11980741 0.033657733 -0.04333743 -0.0688548 -0.004542976 0.009695223 0.007926712 0.037426673 -0.0480904 0.056004096 -0.028710265 0.018632757 -0.013720158 -0.039070956 0.012301429 0.013976206 -0.008563698 0.016793814 0.032020226 0.02121971 0.0070470506 0.03634578 0.01851523 0.034504246 -0.036311917 -0.044246368
0 -0.11625701 0.15154125 -0.0071448754 0.030458314 0.016820593 0.01910658 0.02067207 0.007459656 0.019727707 -0.01931642 -0.05227884 0.04303667 -0.056604996 -0.01175466 -0.044632662 0.035976533 0.023368496 -0.021977227 0.06022934 -0.012106188 -0.008400537 0.0007319387 -0.04050103 0.09615381 -0.004086961 -0.022199342 -0.047490936 -0.039911103 0.006789597 -0.024263699 -0.0034296534 -0.022994196 0.038331427 -0.036692068 -0.027235005 0.014086352 0.016199991 0.03295374 -0.043815564 -0.009479984 0.006615772 0.03745169 0.02685401 0.009706827 -0.031134363 0.037088357 0.00039041764 -0.01621076 -0.07839039 -0.037829082 0.0129780555 0.021043476 -0.032966338 0.04464573 -0.009530999 0.05624663 -0.100561455 -0.008247366 0.020102764 0.10496529 0.052554898 -0.07900562 0.016274123 0.038301904 -0.06928582 -0.011340259 0.030755509 -0.05635521 -0.020636363 -0.010406595 -0.021863353 0.05991401 -0.0033082662 0.01810502 -0.002932014 0.0411864 0.036393974 -0.020727584 -0.008885955 0.085008465 0.038309272 0.09267505 -0.09180494 -0.0657056 0.0026829636 -0.03981152 0.007928249 -0.05667121 -0.041320205 0.029810965 -0.013008797 -0.062118214 -0.031658906 -0.0034898105 -0.009600827 -0.05812268 -0.06475205 -0.031405296 0.09399174 0.09309907 0.02927699 -0.060402375 -0.12195487 0.00869463 0.0041159415 0.022255778 0.040804412 -0.018531289 0.074131094 -0.029064622 -0.07994314 0.027691016 -0.036838986 0.03506508 0.033047117 0.023034325 0.019184606 0.059984278 -0.020018296 -0.045760773 0.055226814 0.024997426 0.07707401 -0.07130593 0.0027482437 0.1099902 0.0287126 0.0027979864 -0.056851197 -0.108613074 0.014065933 0.07072189 0.0042004376 -0.060423218 0.03184138 -0.0024550671 0.032508798 -0.033197187 0.012970258 -0.00061772397 0.006271042 -0.03975814 -0.10205382 0.023165196 0.042659793 -0.0074718646 -0.004254442 0.06045875 -0.047331765 0.01262513 -0.020984007 -0.03974775 0.007409937 0.023855628 -0.052811142 0.023925735 -0.012790476 0.052205566 0.038149755 0.041988503 -0.0136401905 -0.004010807 -0.08245797 -0.038687542 0.021056557 0.013150597 0.0047365823 -0.069792636 0.06238439 -0.02238195 0.004143056 0.08679527 0.053829443 0.012427091 0.019014008 0.016110182 0.009106936 0.027229186 0.032746803 0.09451231 0.024569688 -0.014529689 -0.031875096 -0.0013868064 -0.020315811 -0.09802416 0.053319734 0.13434157 -0.00275372 -0.018898392 0.04548433 -0.0857109 -0.10280114 -0.055512454 -0.008405177 -0.07592846 -0.08648736 -0.025984447 -0.016367603 -0.069380425 0.09005675 -0.072620824 -0.060480207 -0.15864354 -0.013989739 -0.03137769 -0.023825547 -0.118317425 -0.11297027 0.04414908 -0.017056571 -0.043514125 -0.013986564 -0.03222907 0.033765394 -0.029279795 -0.028709399 0.10802227 -0.022470256 0.04638718 -0.08425022 0.061187137 0.03532977 -0.022890333 -0.002964806 -0.1030492 0.00052483886 -0.063373715 -0.038181882 0.039801355 0.15228581 0.03982792 -0.091172665 -0.10811485 -0.0027208007 0.026658466 0.000716288 0.058331188 -0.055507477 0.09158613 -0.0439352 0.007000766 -0.029598327 -0.03752148 0.046830203 0.011697279 -0.056542173 0.040112026 0.022836624 0.028500566 0.03250979 0.05449583 0.04999031 0.059789397 -0.049753726 -0.0850626
6 -0.04505931 0.0970433 0.004697553 0.019042676 0.032763343 0.031370603 0.035850614 0.013079585 0.040882267 -0.032046176 -0.07919676 0.05078657 -0.05635945 0.0057162223 -0.07323423 0.021084959 0.03471139 -0.022982525 0.05779353 -0.016754411 0.0014392181 0.009810201 -0.021513222 0.10807067 -0.00095394277 -0.018401997 -0.034181103 -0.055598386 -0.005809618 -0.012540315 -0.012963203 -0.05653394 0.04421652 -0.053488918 -0.031850673 0.023643086 0.004076652 0.031080741 -0.035419516 0.0027299603 -0.0042457026 0.045612477 0.006398271 0.009633246 -0.020338489 0.019745419 0.009502995 -0.014280718 -0.042337194 -0.016853973 0.0063554156 0.046992235 -0.0105840545 0.028353084 0.0025529948 0.03661172 -0.07021348 -0.00127436 -0.0050859624 0.07395138 0.007577105 -0.061293755 0.024292283 0.024048137 -0.03687012 -0.0034511986 0.011187606 -0.033878617 -0.022868972 -0.02240432 -0.035593994 0.06816172 -0.016116554 0.01126007 0.0015392774 0.034179393 0.05869771 -0.053573314 -0.028867284 0.10287495 0.043451495 0.10642277 -0.088951945 -0.062717505 0.021122314 -0.04334849 0.016075062 -0.06314878 -0.060219422 0.03490069 -0.021462059 -0.05045436 -0.024882812 -0.025868502 -0.004093242 -0.041339464 -0.07116906 -0.02402532 0.07294263 0.06625899 0.03422095 -0.05620502 -0.10856301 0.019662766 0.0055397567 0.015448454 0.022507895 -0.027678933 0.08431887 -0.038605772 -0.11058164 0.017590582 -0.023689177 0.044586454 0.071234286 0.024116728 0.05847754 0.08039299 -0.027396409 -0.08369714 0.11241573 0.069829255 0.12847993 -0.09227259 0.008365498 0.13728273 0.009442255 0.0038301619 -0.06953271 -0.12259218 0.03266587 0.08728853 0.007112372 -0.059877038 0.04223391 0.012485568 0.047227632 -0.06124164 0.0058723674 -0.034135137 0.0018889342 -0.038592614 -0.11791421 0.033450373 0.018293208 0.012892901 0.0057422593 0.046055187 -0.07055213 0.014115405 -0.02492011 -0.038984556 0.029546939 0.03719601 -0.060195453 0.042543083 0.0026251555 0.07567541 0.03240542 0.031390093 -0.019180395 -0.037599098 -0.10333671 -0.04535744 0.028039718 0.01994903 0.015125256 -0.08565382 0.082774416 -0.031506225 -0.016291322 0.11843731 0.07939322 0.0060168635 0.022790583 0.011895437 0.021802302 0.054572918 0.035319872 0.10884411 0.038584 -0.02764388 -0.066833735 0.01604301 -0.022517428 -0.11692093 0.06717672 0.13277723 -0.024189536 -0.02644603 0.048369415 -0.06369664 -0.12889867 -0.06338235 -0.012714575 -0.075184025 -0.066383086 -0.0060851416 -0.014280413 -0.05955628 0.09008199 -0.06985094 -0.055600483 -0.12547667 -0.017737485 -0.022549778 -0.03389049 -0.098591775 -0.09126479 0.04704303 -0.007178598 -0.044147715 0.0055959113 -0.038448546 0.027543215 -0.048234463 -0.025404591 0.09196439 -0.017613502 0.0396831 -0.08230831 0.060190193 0.018618254 -0.017010028 0.011727899 -0.08662018 -0.00026409896 -0.055704158 -0.05534508 0.052305896 0.14280881 0.028736051 -0.052128855 -0.074060395 -0.0029624617 0.020142745 0.0046898667 0.028897164 -0.05949027 0.06040224 -0.023140952 0.026962036 -0.019093921 -0.04258227 0.031836815 0.019665549 -0.012714309 0.03198582 0.030456755 0.024236154 0.018951438 0.043173343 0.024952022 0.022847598 -0.039099466 -0.053196024
9 -0.08688988 0.09567596 0.008041587 0.02385169 0.049863007 0.029124122 0.03465795 0.0061668823 0.0570082 -0.01597033 -0.11143909 0.06413275 -0.032640483 -0.016189257 -0.06705392 0.011922264 0.024905352 -0.016359627 0.031815507 -0.022472162 -0.014628046 0.007814027 -0.031908058 0.10191687 0.0028488657 -0.025520513 -0.059051532 -0.043920755 -0.0061855735 -0.0088694 -0.012203278 -0.069881156 0.06203603 -0.04397994 -0.045043357 0.038248792 0.018628186 0.028254738 -0.057043266 0.013660666 -0.0010639122 0.04572162 0.005095637 0.008091967 -0.03492348 0.053188443 -0.011568066 -0.021283498 -0.06054222 -0.06494077 0.030334381 0.06098048 -0.019295674 0.023499904 -0.01998425 0.06767931 -0.12849483 -0.020400438 0.009828823 0.11796626 0.038722754 -0.09462339 0.014626678 0.025846813 -0.07731397 -0.002236963 0.056111053 -0.0604636 -0.0210669 -0.02829812 -0.015751142 0.032223813 -0.0055113356 -0.004028074 0.00023780929 0.007662315 0.05072672 -0.029459264 -0.026100488 0.07166323 0.04501657 0.09749243 -0.091947645 -0.04591386 0.012671055 -0.028413707 0.022079734 -0.03279202 -0.025717128 0.055744004 0.012970627 -0.049265597 -0.014900511 -0.025970757 0.0033996743 -0.05385292 -0.04372555 0.0020582064 0.06946164 0.05322462 0.01729137 -0.04723422 -0.079497255 0.020880666 -0.0020353522 0.009277576 0.025404286 -0.013740046 0.05007999 -0.01911513 -0.06197988 0.014430069 -0.0026038785 0.027266718 0.05151598 0.0095832385 0.036937006 0.0544391 -0.03922332 -0.03846992 0.08143412 0.023740573 0.10115176 -0.07778477 0.015319147 0.10510232 0.03686742 0.0210944 -0.05516749 -0.082047746 0.0145786265 0.05669747 0.0014462475 -0.07709486 0.062755495 0.011868918 0.07005569 -0.06336687 0.01447616 -0.022848606 -0.0032773858 -0.032110862 -0.11878811 0.0125166 0.023085887 0.00817544 -0.01714806 0.046950493 -0.06784888 0.021095563 -0.038475826 -0.047786932 0.013077185 0.027148388 -0.07050771 0.04262651 -0.006189311 0.0622227 0.06324243 0.04301754 -0.025115825 -0.016175753 -0.12530877 -0.054062836 0.011387658 0.010621351 0.015853424 -0.14002581 0.08690291 -0.04847024 -0.0093374355 0.16006696 0.06398096 -0.004907352 -0.008835734 0.01364355 0.007718989 0.047782708 0.046709187 0.10739105 0.041912355 -0.003205957 -0.05468093 -0.0090630865 -0.020450266 -0.15395665 0.09591052 0.14657019 -0.012726254 -0.017557306 0.04265526 -0.048554804 -0.10075248 -0.07138647 -0.017048065 -0.07633975 -0.059988692 -0.025120705 -0.028778216 -0.04826017 0.07667338 -0.05705237 -0.054723196 -0.10581978 -0.0038494624 -0.031526696 -0.017791424 -0.10839611 -0.09338395 0.06673019 -0.022981828 -0.03713293 -0.0037080587 -0.05589185 0.02572545 -0.046516087 -0.010599454 0.10430838 -0.004704199 0.051717576 -0.08344352 0.07201847 0.0069324556 -0.008227758 0.009747611 -0.08163488 -0.0065443176 -0.066964395 -0.046898376 0.015381764 0.1570479 0.05188133 -0.05052937 -0.08798062 0.009535283 0.0076510436 0.011337249 0.049550038 -0.058816016 0.06730294 -0.047299124 0.008261834 -0.026091684 -0.04491736 0.02092242 0.01736402 -0.027629184 0.03746211 0.010684475 0.03166925 0.009002114 0.0641344 0.008633116 0.05153783 -0.029233815 -0.05409566
14 -0.00763693 -0.03459847 2.2706292e-05 0.0052628852 0.050966132 0.027801996 0.030184023 -0.012351316 0.053496536 -0.01836629 -0.12172845 0.062090527 -0.007713112 -0.012443492 -0.070451975 -0.0062084566 0.03062016 -0.020314032 0.021796733 -0.033226337 -0.013874034 0.029027738 -0.03099581 0.113878585 0.0003305154 -0.010763028 -0.07117527 -0.07728129 -0.0019718304 0.0034746027 -0.017251177 -0.08478666 0.06084864 -0.044093277 -0.04269633 0.051994566 0.0019102765 0.014762448 -0.045942012 0.020279083 -0.009905127 0.055565696 -0.021544728 0.019679427 -0.03443322 0.0482756 0.009466718 -0.015535418 -0.028678192 -0.037790652 0.037377443 0.049075026 -0.009614904 0.0015782816 -0.02490604 0.0412767 -0.0842989 -0.018478813 0.011448735 0.10929148 0.017895533 -0.04330143 0.016877932 0.022520183 -0.045521732 0.004705709 0.04041083 -0.046410404 -0.0123240845 -0.042194437 -0.035601716 0.03892702 -0.01859922 0.00822092 0.03149383 0.005496871 0.062068254 -0.053062133 -0.03166479 0.07137466 0.050694108 0.098725244 -0.08465853 -0.02986867 -0.0012562483 -0.035511423 0.022014111 -0.031709414 -0.046243794 0.06136718 0.0127071915 -0.040875427 -0.035348613 -0.03224634 -0.0056207413 -0.054971598 -0.06462385 -0.03977665 0.10638506 0.06699436 0.046436314 -0.061863758 -0.1128871 0.013321081 0.018292371 0.0006227157 0.05058981 -0.021463394 0.066535726 -0.016958851 -0.06399642 0.0017061264 0.010079445 0.01337339 0.05427272 0.02407784 0.0557638 0.0332221 -0.046254564 -0.060696904 0.09912003 0.04903678 0.11609292 -0.09501021 0.006685292 0.11167448 0.016909672 0.012553528 -0.022343324 -0.062567025 0.024571232 0.049189117 -0.0007857694 -0.060047124 0.04920929 0.019152729 0.07218608 -0.026702687 0.019863829 -0.037913047 -0.0051666307 -0.027810324 -0.074832976 0.0077017406 0.018601883 0.033307746 -0.034994956 0.025470283 -0.05845029 0.012159903 -0.02575872 -0.02219884 0.0021644507 0.019279309 -0.042105306 0.018407525 -0.007473542 0.056037895 0.042827133 0.026912615 -0.0148460055 -0.023024525 -0.113025196 -0.0295856 0.008343598 0.033951733 0.021588473 -0.115130566 0.07876928 -0.045447424 0.00430557 0.14431325 0.07431026 -0.0064254603 -0.009413086 0.02445893 0.0036321883 0.047353648 0.036520887 0.106679305 0.032937065 -0.03606559 -0.059670746 -0.00182985 -0.021783654 -0.117710724 0.10839118 0.11636222 -0.0152985 -0.013245722 0.033905163 -0.056196187 -0.099412 -0.0697808 -0.017584706 -0.08136021 -0.062319756 -0.0058914474 -0.023150593 -0.04904849 0.089191735 -0.05135964 -0.037091076 -0.09982909 0.00736715 -0.044316024 -0.04530061 -0.14243981 -0.12748417 0.0781186 -0.017816765 -0.07360658 0.038704615 -0.054379087 0.028045623 -0.06406434 -0.011988965 0.116571635 -0.005463727 0.060169097 -0.09099859 0.056144282 0.030542962 0.004345025 0.002960743 -0.079134 -0.011722538 -0.05653619 -0.064168476 0.032949228 0.14484355 0.057387277 -0.053035296 -0.07885759 0.015964983 0.022135254 -0.01886317 0.04086267 -0.0579569 0.06390787 -0.045750227 0.019550862 -0.03096547 -0.054006208 0.018524041 0.026848277 -0.036259245 0.042668086 0.010803148 0.03549878 -0.005653024 0.056082867 0.026985902 0.042261887 -0.042592917 -0.06511509
20 -0.1440603 0.19113095 0.016093468 0.04019574 0.02665608 0.02316304 0.01849398 0.013658065 0.044175915 -0.010980488 -0.058792453 0.03470682 -0.036519542 -0.0063583464 -0.059445996 0.025094103 0.023175094 -0.020535395 0.040198 -0.014536013 -0.0071507352 0.0037047078 -0.018556444 0.07646843 0.0069002947 -0.015772661 -0.03627888 -0.034059256 -0.002746537 -0.0134057 0.003873577 -0.048244413 0.04075094 -0.04554383 -0.033534944 0.010924401 0.015385928 0.039253898 -0.051682074 0.004128533 4.0530722e-07 0.024371957 0.010772314 0.0027673254 -0.0249575 0.024166297 -0.018885614 -0.014915455 -0.04823739 -0.03462269 0.009119667 0.044713598 -0.010354879 0.023650337 -0.0040062102 0.050048605 -0.099005416 -0.01927515 0.0037479212 0.07628987 0.023558244 -0.10166291 0.01766553 0.02895985 -0.07867456 0.002975213 0.049681503 -0.06869646 -0.03905557 -0.030397391 -0.03821696 0.056872327 -0.00051059376 0.004044529 0.0015069401 0.02875109 0.04608917 -0.022379396 -0.018399375 0.082817435 0.041170847 0.100433186 -0.099573806 -0.052956194 0.024529498 -0.034739643 0.017312841 -0.050626487 -0.029845767 0.039614394 -0.0020621552 -0.05538084 -0.002629672 -0.018806877 0.0014749097 -0.04157331 -0.039209932 0.0034982848 0.04143651 0.047550213 0.0041910456 -0.0292652 -0.061900243 0.028002203 -0.0031217707 0.016334457 0.024550768 -0.01611264 0.05947565 -0.029296886 -0.06659349 0.019173501 -0.018004747 0.033489943 0.030311802 0.0090434635 0.035034906 0.065434285 -0.023589386 -0.0407536 0.08409323 0.040249895 0.09185245 -0.061072037 0.008427701 0.108276196 0.040283192 0.012281307 -0.07215348 -0.08209881 0.012380998 0.06097795 0.0024320316 -0.06338809 0.043998238 0.0065637142 0.050257217 -0.0741349 -0.0003684269 -0.015411631 0.0043384978 -0.024905426 -0.11884969 0.01655436 0.025786275 -0.0011242676 0.004153381 0.048280403 -0.06373628 0.016262744 -0.032525778 -0.045400467 0.030153867 0.033683892 -0.07114755 0.043589637 -0.0025647948 0.065294474 0.051336728 0.044289347 -0.027296955 -0.019653752 -0.11980287 -0.058879882 0.012701326 0.01107945 0.013974442 -0.12506257 0.08760404 -0.038549308 -0.017943382 0.13973072 0.054585926 0.00831305 0.0072314646 0.019223241 0.005714309 0.04135954 0.03256014 0.09465139 0.04484484 0.00498435 -0.04606476 -0.0001992032 -0.024618048 -0.12976761 0.06387198 0.13726863 -0.015142706 -0.030610068 0.049188796 -0.0653782 -0.123271815 -0.074997514 -0.015387907 -0.0830807 -0.06377597 -0.023482911 -0.029283797 -0.059843406 0.08240792 -0.07401014 -0.06917638 -0.122058846 -0.00644628 -0.032201286 -0.016442554 -0.10105692 -0.0850915 0.055898335 -0.011122876 -0.03156402 -0.014240593 -0.04733646 0.02836495 -0.03900453 -0.017031478 0.09425417 -0.014533704 0.04162252 -0.08337276 0.07386696 0.010842581 -0.0173623 0.016347539 -0.07324157 0.013885163 -0.06502917 -0.031766668 0.02216077 0.1585121 0.042496096 -0.04758697 -0.089429 0.0032049178 0.0072505856 0.02323473 0.045350842 -0.059000857 0.07207634 -0.047156855 0.011495517 -0.02447385 -0.04864421 0.023561453 0.012355086 -0.022401176 0.03123997 0.025264854 0.025787108 0.016774876 0.062078487 0.010576352 0.048641454 -0.03044496 -0.05714403
41 -0.092000164 0.12594648 0.016046608 0.020854106 0.039939087 0.026666887 0.042963266 0.014082376 0.038573876 -0.022784302 -0.070559956 0.056475416 -0.03880373 -0.018060304 -0.07217097 0.03386776 0.030565372 -0.01685255 0.06580471 -0.019900091 0.00041799972 0.009455988 -0.0347522 0.10780069 0.0061986684 -0.02544288 -0.055066325 -0.0718322 -0.014333444 -0.014986838 -0.008752503 -0.0728676 0.055681758 -0.074651025 -0.05074057 0.039077114 0.011245849 0.03789703 -0.076500304 0.0026445398 0.0011658089 0.045300424 0.01730967 0.02313335 -0.045510273 0.053542495 0.00914423 -0.026265303 -0.063954145 -0.04495605 0.013434275 0.03772238 -0.020142373 0.043028053 -0.019274667 0.05951529 -0.12346343 -0.025784798 0.015698347 0.14284797 0.050211884 -0.08960037 0.02636991 0.04203659 -0.09336005 0.0018439686 0.045048457 -0.0788511 -0.040078122 -0.031734165 -0.051180948 0.09059089 -0.0056480183 0.020602427 0.014759884 0.038785595 0.063510105 -0.051184114 -0.025595304 0.12316625 0.056478392 0.14078283 -0.12317409 -0.07485009 0.008044624 -0.05961029 0.017418396 -0.07276386 -0.067699134 0.04570003 -0.019457724 -0.07718457 -0.034698565 -0.017067857 -0.0029218355 -0.067611165 -0.084804155 -0.045242738 0.10062945 0.09809762 0.042147197 -0.06794333 -0.1306623 0.013966379 0.009138063 0.011326254 0.057320904 -0.024202518 0.07629135 -0.036873065 -0.08914283 0.018790679 -0.030867737 0.023290329 0.042744655 0.007106352 0.040004525 0.07258049 -0.019667404 -0.06573089 0.08411047 0.04502373 0.11214299 -0.076669455 0.0073598074 0.11548011 0.023658916 0.014580995 -0.06317895 -0.09641839 0.011458325 0.06260126 0.013908513 -0.06787562 0.050729264 0.007288181 0.040772095 -0.049708992 0.009135918 -0.019993242 0.0023820405 -0.024510298 -0.102218896 0.005757178 0.033496946 0.0073585804 0.0034936226 0.046013936 -0.054660406 0.0020613978 -0.02803868 -0.04127695 0.014807404 0.02246304 -0.047729112 0.02805386 -0.008057632 0.05741526 0.035647724 0.03354988 -0.020095302 -0.0046909293 -0.09496439 -0.040182237 0.015388773 0.012157641 -0.0053902552 -0.08914941 0.05948033 -0.029329894 -0.0021078354 0.10989687 0.040769976 0.011551326 0.0077528437 0.016780004 0.0030846542 0.034420356 0.03184798 0.075123586 0.025981603 -0.010160163 -0.0363319 0.0070154388 -0.026811069 -0.08839786 0.052615646 0.10240557 -0.014118982 -0.013069856 0.03907795 -0.059961542 -0.09004671 -0.05350314 -0.010301001 -0.06146755 -0.06768761 -0.014067372 -0.017584046 -0.055833757 0.07495205 -0.07233418 -0.058498435 -0.111614466 -0.005969375 -0.020417402 -0.012905198 -0.07942818 -0.07653972 0.04088467 -0.013842103 -0.0402764 -0.0025768585 -0.027673723 0.016822364 -0.03736549 -0.027688857 0.07799631 -0.006884424 0.034517955 -0.036469147 0.04074518 0.007907518 -0.015001354 0.0018748203 -0.041727036 0.004345104 -0.030790403 -0.021004446 0.017853165 0.0957495 0.028437411 -0.043606102 -0.06529105 -0.011789962 0.0079302285 0.005769103 0.029709313 -0.029409233 0.048153963 -0.026451383 0.0029710976 -0.00055799296 -0.016463742 0.009699612 0.015444461 -0.0073413793 0.0098589 0.013937986 0.014344967 0.02385336 0.028017977 0.011867962 0.03798333 -0.02512363 -0.051102057
17 -0.104332715 0.1060294 -0.010467105 0.023552533 0.027809195 0.015956815 0.0085037025 -0.0058592986 0.013566332 -0.010724222 -0.036826834 0.01785374 -0.023041984 -0.0067913993 -0.030233635 0.017986212 0.0050624833 -0.0048834723 0.031347267 -0.015043177 -0.008034269 0.007128217 -0.025300074 0.06150029 -0.00979673 -0.0005103056 -0.04145 -0.03616811 0.014132737 -0.014777144 -0.006737303 -0.040090553 0.03685965 -0.03367479 -0.02126424 0.025187697 0.019569792 0.018340291 -0.03925338 0.0007776432 -0.0018036468 0.03803024 0.0017275225 0.013900284 -0.037899703 0.037852336 0.003295406 -0.0094622485 -0.054643884 -0.024760101 0.009366003 0.018721439 -0.025086949 0.026042372 -0.004554837 0.044136766 -0.067402385 -0.014284582 0.01954494 0.08835114 0.032460142 -0.04921696 0.012437251 0.022588894 -0.043025162 -0.0042496435 0.02085263 -0.041297525 -0.017532652 -0.033576798 -0.04718356 0.0741188 -0.009370068 0.012486548 0.024467818 0.03493721 0.06283078 -0.037704285 -0.017658329 0.095134504 0.06216928 0.12407271 -0.12153155 -0.06993223 0.0026034834 -0.047107182 0.023362812 -0.06268514 -0.06273671 0.051232178 0.00015193172 -0.062380172 -0.04425826 -0.017978989 -0.009365338 -0.068180844 -0.081466965 -0.03859138 0.11609162 0.10176818 0.042110756 -0.07958346 -0.14882937 0.0150280055 0.025487477 0.023672726 0.061201096 -0.031705115 0.08134057 -0.026312577 -0.07323781 0.026029712 -0.019686764 0.03350721 0.03388666 0.01913135 0.03410333 0.05004856 -0.028335549 -0.057829265 0.094199 0.035225343 0.10476481 -0.08326385 0.00948913 0.11991178 0.03267272 -0.004138138 -0.053099517 -0.10581554 0.026716555 0.067407854 -0.0039109453 -0.06329499 0.04294159 0.007259423 0.06396756 -0.041320514 0.024386222 -0.016868707 0.011783113 -0.030107247 -0.0974641 0.017952008 0.03346995 0.0041771596 -0.017082572 0.042857613 -0.056639694 0.019718455 -0.02693688 -0.03953325 -0.0025794466 0.026897883 -0.056962956 0.024771685 -0.0010926195 0.048313525 0.047107577 0.03554791 -0.014698189 -0.010760555 -0.09081845 -0.035942014 0.011529495 0.025670953 0.014938005 -0.08505056 0.06570663 -0.030222641 0.010249167 0.1045448 0.06443636 0.012095209 0.01627527 0.027748346 0.004363372 0.038627572 0.03690869 0.100041814 0.024852725 -0.021821808 -0.047029108 -0.007135193 -0.020008806 -0.09406739 0.076461755 0.12855923 -0.006997435 -0.018946262 0.049728002 -0.088803366 -0.11442422 -0.07071168 -0.005519977 -0.08828488 -0.08393156 -0.021115385 -0.01806302 -0.0652424 0.10032335 -0.07452285 -0.0547609 -0.15518947 -0.0028362537 -0.03409216 -0.029943638 -0.116588905 -0.11911904 0.052311573 -0.0129715465 -0.052642886 -0.0028060067 -0.042286236 0.029249111 -0.042725105 -0.015189044 0.11885161 -0.015569564 0.050566237 -0.0715141 0.044146504 0.027270138 -0.0078637805 -0.0011610375 -0.07828956 -0.003706939 -0.047447152 -0.03248363 0.027666481 0.119699374 0.044510514 -0.06237647 -0.07712711 0.010394358 0.0109557165 -0.012357811 0.048561476 -0.048678167 0.08377229 -0.04566414 0.008126777 -0.032054394 -0.041495577 0.046070877 0.02072345 -0.047445208 0.041946765 0.017305128 0.03326206 0.019677721 0.054884054 0.046328053 0.04772586 -0.055848554 -0.073042855
25 -0.1506449 0.17430352 0.03568541 0.053280015 0.014405984 0.013425234 0.0123777315 -0.0054765125 0.025914222 -0.008570642 -0.03804559 0.01363419 -0.02167 -0.002716782 -0.07209908 0.014055192 0.03314505 -0.021983527 0.015253428 -0.03949249 -0.01455505 0.028306063 -0.026094995 0.08828183 0.0016219678 -0.007807642 -0.044072412 -0.06266107 -0.0057826904 -0.0039870082 -0.013729264 -0.08959749 0.047901172 -0.051074672 -0.04100439 0.05309263 0.0009487878 0.020019352 -0.050816584 0.01914209 -0.0056958497 0.033560317 -0.010176068 0.009358462 -0.042990312 0.05485229 0.0023850484 -0.03046645 -0.033634577 -0.044770196 0.027378576 0.04547532 -0.011291717 -0.0006056122 -0.037642222 0.03631529 -0.122544795 -0.028820006 0.013142138 0.13999784 0.02234031 -0.10511404 0.028437411 0.050784763 -0.10435615 0.012374606 0.05523379 -0.10069236 -0.035908666 -0.047377426 -0.06673235 0.07551418 -0.025059167 0.018310385 0.0284545 0.020983236 0.04440985 -0.043600928 -0.011405777 0.07755089 0.03342153 0.08232208 -0.06830964 -0.029288052 0.01898988 -0.04088108 0.016904632 -0.034588564 -0.04049091 0.048482724 0.014708413 -0.044190034 -0.01865181 -0.026006907 -0.0024862671 -0.051463444 -0.06430642 -0.037928984 0.06436294 0.060828723 0.030874794 -0.040386282 -0.09588482 0.016665168 0.017560989 0.007153357 0.060042724 -0.027020477 0.0835535 -0.02390165 -0.080961324 0.014137398 0.0053002723 0.01772446 0.04691143 0.02284671 0.063597225 0.043304402 -0.032439865 -0.07293952 0.10352209 0.06468252 0.111202106 -0.08002389 -0.005461719 0.13357845 0.012277176 0.010840417 -0.071555205 -0.075976 0.031111002 0.058698427 -0.004408277 -0.07303892 0.05462402 0.027706325 0.061802175 -0.041976135 0.0044133575 -0.033208065 -0.0005339358 -0.030073946 -0.10691084 0.020578487 0.0168126 0.022870861 -0.010013239 0.028138177 -0.07807735 0.023676546 -0.036526583 -0.039191395 0.021855565 0.02424433 -0.06264379 0.0323686 -0.00090412976 0.06840997 0.04707078 0.04334042 -0.02174381 -0.024088072 -0.14105184 -0.029428368 0.006727548 0.04047141 0.016833158 -0.12750767 0.11110629 -0.049960654 -0.005810837 0.15816034 0.06410258 0.014644359 -0.00092256744 0.024024198 -0.0024783544 0.050006736 0.02525266 0.083114944 0.034928158 -0.020404365 -0.049138196 0.013361524 -0.024119442 -0.09116588 0.08210114 0.11210499 -0.019556116 -0.020798692 0.040442582 -0.05546286 -0.08559226 -0.05773099 -0.016861316 -0.06279166 -0.041004132 0.0036153 -0.019303104 -0.058784727 0.07385956 -0.05321318 -0.04798831 -0.0947399 0.01819203 -0.042761184 -0.025316179 -0.10364361 -0.07492326 0.054412935 -0.0042036795 -0.051773436 0.02380715 -0.030303448 0.02654577 -0.046687953 -0.010389238 0.07574398 -0.016985046 0.03823182 -0.07289449 0.046726167 0.018958693 -0.003290429 0.016225236 -0.052044895 0.014495631 -0.048681606 -0.04532448 0.033910874 0.15303737 0.04210856 -0.045470886 -0.06417682 0.0024046884 0.0175417 -0.0047268313 0.031078033 -0.065359645 0.08006695 -0.05418305 0.021207722 -0.023356715 -0.058090582 -0.0009566082 0.010864426 -0.013103061 0.017171903 0.03240086 0.028381756 0.007896233 0.055050448 0.014245845 0.042829324 -0.033224884 -0.056432597
4 -0.111638665 0.117269404 -0.0030309663 0.025651574 0.036808293 0.022813542 0.025102833 -0.0060028005 0.035167564 -0.012763306 -0.06860217 0.037577175 -0.031188423 -0.011027952 -0.043218713 0.013514395 0.012106496 -0.014818189 0.041163743 -0.010096034 -0.003885815 0.009429397 -0.023157453 0.0737552 -0.0028842664 -0.008080494 -0.04979658 -0.046528894 0.0039922544 -0.010069836 -0.0041430937 -0.04258988 0.042095765 -0.04122598 -0.028745282 0.022915944 0.025221238 0.034443837 -0.056396976 -0.0011654787 -0.0053257253 0.039737374 -0.00047329985 0.012738419 -0.04393883 0.035057392 -0.005370212 -0.012596506 -0.046654332 -0.034554996 0.012771437 0.03253401 -0.022121888 0.027328243 -0.00092435366 0.052345663 -0.08726367 -0.018385123 0.019603131 0.09701055 0.035937738 -0.06994104 0.01735668 0.024967177 -0.053454373 -0.004275379 0.037646633 -0.05013413 -0.024650048 -0.03929095 -0.04695582 0.07491998 -0.0002738996 0.0065237544 0.024679726 0.040271934 0.06459988 -0.029365214 -0.023125282 0.08265538 0.055660315 0.10937845 -0.110294804 -0.05473435 0.011180159 -0.042238746 0.021488832 -0.056525752 -0.04825752 0.03659611 -0.0017877033 -0.059922725 -0.02913767 -0.02032926 -0.006083156 -0.05920235 -0.06893103 -0.026428431 0.09537369 0.07968348 0.032673936 -0.061453667 -0.11849015 0.019877287 0.01896219 0.011391771 0.0463814 -0.024568934 0.074081026 -0.024848381 -0.060385652 0.021983065 -0.01898472 0.029687343 0.032886177 0.018529356 0.036929697 0.05538891 -0.03189433 -0.04786461 0.08892672 0.034068093 0.094000846 -0.07065431 0.015859652 0.11731322 0.03988846 0.0032724289 -0.05775321 -0.095693156 0.017539266 0.063691184 0.0024043613 -0.05795733 0.041961137 0.003681695 0.063568376 -0.048232507 0.014324147 -0.018228952 0.0035567535 -0.030378599 -0.08890894 0.016289571 0.03203706 0.0035667694 -0.008033028 0.045655325 -0.055867195 0.012934413 -0.024217864 -0.03506715 0.010103573 0.024638748 -0.056919076 0.02650836 0.0066140657 0.048739206 0.040245973 0.036412206 -0.0143417865 -0.014165443 -0.08887551 -0.042403337 0.011422478 0.017064022 0.016767845 -0.094316594 0.060464874 -0.030015744 -0.0005695868 0.106180474 0.054935757 0.00039508715 0.0125645185 0.023647757 0.0047157193 0.03680363 0.03795786 0.094529144 0.03032293 -0.012215115 -0.039605014 -0.0047198455 -0.016859382 -0.095363945 0.06651887 0.11468297 -0.006842711 -0.020545138 0.04612152 -0.076072514 -0.10938454 -0.070869416 -0.009124421 -0.07990728 -0.08342185 -0.028403657 -0.024642732 -0.058400236 0.0908104 -0.079416096 -0.06436025 -0.14080659 -0.005131954 -0.034531046 -0.03646011 -0.11743473 -0.11439673 0.056596786 -0.015231516 -0.043068778 -0.008324248 -0.043880753 0.02916138 -0.039634515 -0.019451676 0.11067517 -0.014652273 0.04953792 -0.08467141 0.05440633 0.025349665 -0.01572607 -0.0014003783 -0.07691754 0.003825163 -0.060932994 -0.031050572 0.029043028 0.1265565 0.043175865 -0.05988733 -0.08397205 0.012719423 0.009992165 -0.0010075095 0.04766223 -0.054324206 0.078658 -0.046298508 0.011888191 -0.033821955 -0.043936476 0.041289583 0.024049677 -0.04629741 0.03770237 0.023396408 0.028754564 0.012812395 0.059982892 0.04109929 0.05463788 -0.05392301 -0.088642925
16 -0.014494914 0.023294568 -0.0030659486 0.0010185057 0.05999423 0.03530511 0.051869903 0.0016768293 0.05329974 -0.032893486 -0.12210772 0.08630243 -0.03712674 -0.010883982 -0.06703681 0.012207557 0.03046289 -0.015484296 0.0524257 -0.024206854 0.0010147494 0.007073065 -0.03464837 0.11258712 0.002939841 -0.021490274 -0.057457957 -0.060530305 -0.009966461 -0.009759225 -0.012205506 -0.05376694 0.050631713 -0.04701364 -0.039277904 0.032285724 0.012490874 0.023068542 -0.045504604 0.0039280755 -0.0071552694 0.052964054 0.0056005917 0.016905218 -0.04437008 0.047097974 0.0114972275 -0.009535687 -0.047138475 -0.041992776 0.012714453 0.03908938 -0.012768244 0.03181091 -0.0093845595 0.05469139 -0.090037666 -0.0041994783 0.010714561 0.10560718 0.037060987 -0.050741393 0.015955342 0.01254539 -0.05178317 -0.008027719 0.02054556 -0.031993598 -0.021614922 -0.029646028 -0.028171763 0.07465323 -0.008479311 0.011070586 0.015323588 0.026432976 0.07215498 -0.0541253 -0.03447043 0.09810596 0.05400427 0.122964665 -0.11143628 -0.06495897 0.0082907425 -0.043159615 0.020697234 -0.061158463 -0.05853276 0.049556695 -0.009711565 -0.06459209 -0.040564064 -0.02678391 -0.0036137372 -0.062093362 -0.076382704 -0.03364564 0.11636476 0.087413006 0.054047223 -0.08162187 -0.13812655 0.015327434 0.008872681 0.008661358 0.041162744 -0.025645016 0.0903636 -0.039079007 -0.10211143 0.02368436 -0.026385838 0.032013666 0.07439289 0.025066933 0.05756021 0.06720937 -0.039511625 -0.08534554 0.104485326 0.045151755 0.12892981 -0.103121296 0.00685151 0.12887943 0.013677245 0.009550199 -0.049792517 -0.11146348 0.025628602 0.066174254 0.0076658907 -0.05078278 0.042680655 0.003485403 0.045713153 -0.045462746 0.015297665 -0.034768812 -0.00064132863 -0.027311595 -0.081304125 0.018404124 0.027448852 0.020365827 -0.010656661 0.03777249 -0.053732257 0.010487191 -0.0242699 -0.030516066 0.015955599 0.029175162 -0.04415304 0.025675355 0.0016363104 0.05209677 0.034571476 0.018153235 -0.021442201 -0.0205818 -0.074181765 -0.031630628 0.0133865 0.016174141 0.008073347 -0.06697728 0.051451623 -0.029461734 0.0022371146 0.09641764 0.067681134 -0.0067763003 0.009622445 0.009386459 0.018640423 0.04067653 0.037802007 0.09066348 0.027087804 -0.025890293 -0.057756033 0.0074961497 -0.012715491 -0.09786226 0.07064005 0.10778795 -0.01730286 -0.009651775 0.03242381 -0.047371037 -0.09499772 -0.057135317 -0.009828707 -0.06426695 -0.06284641 -0.011485585 -0.015594421 -0.039265625 0.071078904 -0.054788347 -0.04862184 -0.10198917 -0.01246229 -0.017349286 -0.027350128 -0.08950119 -0.08402086 0.048076548 -0.013394597 -0.032723274 0.0052883276 -0.034660798 0.024011934 -0.046464004 -0.019825608 0.08759056 -0.011338714 0.040779818 -0.066439584 0.047470953 0.013996379 -0.00992852 -0.0014737961 -0.0698758 -0.006640406 -0.04864935 -0.037711 0.030138223 0.10522281 0.022507107 -0.04494904 -0.056357358 -0.0018721237 0.018271405 -0.0067435014 0.021690438 -0.040780947 0.054153886 -0.021276534 0.012559665 -0.015164823 -0.028016014 0.022200806 0.019757416 -0.02067587 0.027306253 0.016538834 0.016764896 0.010490099 0.036257803 0.022129087 0.03304154 -0.028667795 -0.048071958
27 -0.04909043 0.044372592 -0.009526251 0.0096918335 0.040884443 0.026213534 0.0253221 0.0017422093 0.040966354 -0.019633746 -0.09211531 0.05909172 -0.030274227 -0.016104326 -0.0649877 0.020059632 0.02817377 -0.017455157 0.045544796 -0.021896739 -0.012563558 0.011174965 -0.034183405 0.11224796 0.0020557554 -0.01996353 -0.06820536 -0.058536027 0.0048265075 -0.011751961 -0.008958787 -0.059912074 0.058280922 -0.046900194 -0.04209977 0.031323597 0.019169018 0.030859277 -0.055304393 0.0043259948 0.0008646895 0.05550687 0.010086975 0.018686205 -0.034947768 0.043053392 -0.0026126904 -0.0143312 -0.06456466 -0.04572598 0.019680707 0.03824456 -0.020443836 0.03328679 -0.014981828 0.06973979 -0.10435877 -0.014177762 0.015041183 0.11170798 0.04610248 -0.07647478 0.0152664315 0.028019508 -0.073938 -0.0018886763 0.04312584 -0.055239808 -0.024881478 -0.03121298 -0.028352136 0.05314336 -0.003003909 0.012845867 0.009560937 0.017073842 0.053565234 -0.035648525 -0.024825444 0.0833437 0.04830119 0.10919235 -0.10189558 -0.05489333 0.0063665784 -0.036302872 0.017225878 -0.047067735 -0.036170997 0.047393672 -0.0031586448 -0.055060517 -0.030281935 -0.023708723 -0.0017795332 -0.059711892 -0.05761253 -0.022098707 0.104530446 0.08390479 0.030544184 -0.061833393 -0.119274855 0.017805431 0.003829431 0.01534561 0.04129597 -0.02043535 0.060628936 -0.025926413 -0.068599336 0.018591428 -0.016911443 0.021308027 0.037734356 0.011251465 0.029887088 0.053957403 -0.030639231 -0.045673113 0.076922365 0.030117687 0.09410581 -0.07522857 0.009932128 0.09511641 0.030011076 0.011980208 -0.041779637 -0.08083752 0.013861741 0.04847184 0.003913068 -0.0654165 0.04666399 0.0014675007 0.051068384 -0.04829513 0.01453989 -0.016423335 0.0008084335 -0.026327474 -0.08585199 0.010256917 0.033260174 0.011188781 -0.017265446 0.04553426 -0.04649666 0.013458947 -0.025623245 -0.035382498 0.008431198 0.031361558 -0.05287444 0.028695483 -0.008307472 0.058577824 0.05165982 0.037017625 -0.019722221 -0.010100968 -0.10192338 -0.042891335 0.017583821 0.015642203 0.011109266 -0.10863597 0.06768402 -0.036680613 0.0036568611 0.1299307 0.05655447 -0.0020641866 0.008001572 0.020333048 0.009636458 0.034411855 0.037329424 0.09939106 0.030938555 -0.0115328645 -0.04829887 -0.00502914 -0.02031963 -0.12019111 0.075413816 0.13057865 -0.007263767 -0.015733324 0.03338978 -0.064370364 -0.09752911 -0.0655816 -0.011587177 -0.074387856 -0.07034632 -0.021794884 -0.021754242 -0.048106857 0.07918077 -0.058809172 -0.049194492 -0.11184917 -0.007916775 -0.025282899 -0.022812696 -0.10960963 -0.10509575 0.05627881 -0.01788701 -0.04232383 0.0014648614 -0.047234282 0.03159007 -0.04325704 -0.015075249 0.105622984 -0.0080822045 0.048157543 -0.07037321 0.05733181 0.018668184 -0.011821952 0.0055249226 -0.07657394 -0.002935985 -0.054004826 -0.028604979 0.019857276 0.12521288 0.041555975 -0.05717071 -0.08467223 0.0040500304 0.01303421 -0.00030911522 0.046609364 -0.043855228 0.060606107 -0.03489965 0.003599917 -0.020792497 -0.034858692 0.028665774 0.016720064 -0.035487957 0.037927248 0.010714924 0.023295883 0.010669213 0.04753607 0.025033042 0.050978497 -0.03713548 -0.057286892
52 -0.050062332 0.08836912 0.01954924 0.03176927 0.026129184 0.02813979 0.052728444 -0.0018745066 0.042253666 -0.041701183 -0.08626192 0.069369495 -0.07181657 -0.005069085 -0.10675673 0.027963623 0.056016266 -0.04190784 0.056181297 -0.037517298 -0.016765317 0.02772788 -0.06338268 0.17651367 -0.008799966 -0.04514335 -0.06414087 -0.10520384 -0.0065725297 -0.016542591 -0.029597685 -0.08512364 0.06280088 -0.067270264 -0.058188282 0.068347745 0.0016270324 0.03157166 -0.058490336 0.0032763595 -0.0063616093 0.0584225 0.015482892 0.014447045 -0.04637053 0.06471996 0.019561514 -0.03785142 -0.06124249 -0.056219395 0.033477847 0.040030647 -0.026807878 0.027741281 -0.043760214 0.0517612 -0.14964266 -0.012106856 0.01976851 0.16576818 0.03089178 -0.08787172 0.01963052 0.04381929 -0.09522391 -0.0050053606 0.02856194 -0.07793843 -0.020924471 -0.020527376 -0.031501062 0.062843435 -0.016832592 0.02699596 0.0012111135 0.036282375 0.038419347 -0.050570104 -0.012261831 0.0933021 0.028639032 0.07480841 -0.065343216 -0.044187985 0.0028798906 -0.05135678 0.0069315527 -0.04513112 -0.055278897 0.041819178 -0.006559548 -0.049674723 -0.039936338 -0.013477071 -0.0047839643 -0.060155224 -0.075404875 -0.052005112 0.09237044 0.08892279 0.050702795 -0.068258196 -0.13719599 0.0014785099 0.009629471 0.0036374368 0.045621242 -0.021023193 0.09000795 -0.023868585 -0.095463656 0.017548751 -0.0029123514 0.028537147 0.06327848 0.04038989 0.050387815 0.04681745 -0.023572933 -0.06967984 0.0592721 0.05311609 0.09250796 -0.08778872 -0.015466069 0.11474995 -0.0061951163 0.0141904885 -0.059541736 -0.08885865 0.02468044 0.07173019 0.0060354597 -0.0593773 0.04313839 0.016536236 0.029957805 -0.008385573 0.0023466737 -0.011238966 -0.0067035565 -0.04228987 -0.07634912 0.026407557 0.018748147 0.003527874 -0.0028949936 0.040435884 -0.046485543 0.007740107 -0.014924642 -0.02664548 0.011153523 0.002191344 -0.025517784 0.014066415 -0.014662483 0.049071647 0.017474947 0.030648442 -0.006148986 -0.015811186 -0.08411172 -0.008762517 0.018832805 0.026329888 0.008628111 -0.05288943 0.07540535 -0.02297215 -0.0018483826 0.089595415 0.06103125 0.02092776 0.0044881925 0.0128558865 0.008753631 0.037957013 0.023947831 0.07139884 0.022269739 -0.02655197 -0.041213527 0.020941338 -0.02132333 -0.07605291 0.048991647 0.10347574 -0.014014333 -0.012617895 0.024455007 -0.056196146 -0.055905275 -0.02619075 -0.007051518 -0.04090203 -0.049998194 0.00018068738 0.0005319477 -0.07102729 0.06724928 -0.04473831 -0.04357202 -0.11494241 0.0025532567 -0.041950542 -0.03649388 -0.13058837 -0.099441275 0.054104522 -0.006954601 -0.0575533 0.028079249 -0.017485863 0.031808972 -0.039296523 -0.03343169 0.07785026 -0.02259653 0.052829754 -0.068303555 0.040261384 0.03522488 -0.005190335 0.006116362 -0.08554789 0.0054034134 -0.047644395 -0.058096033 0.04906868 0.14403364 0.023094302 -0.07533885 -0.074159354 -0.013581159 0.042961057 -0.0049862307 0.03227338 -0.0559922 0.068058945 -0.032272305 0.012338153 -0.020596735 -0.034512743 0.00330169 -0.004611821 -0.022499194 0.01257946 0.02994635 0.018542927 0.016564084 0.036185887 0.034573086 0.046099484 -0.031170327 -0.07113456
21 -0.10716277 0.13194768 -0.0069819205 0.027897337 0.037379924 0.020664297 0.045414302 -0.007892018 0.040006362 -0.031263538 -0.0712752 0.050313585 -0.06495605 -0.018681055 -0.074002124 0.05116397 0.037236273 -0.032660738 0.08355192 -0.03153553 -0.005805901 0.016069928 -0.049993683 0.13525988 -0.010854263 -0.020133428 -0.075246364 -0.09308186 0.0073453085 -0.026372261 -0.01620446 -0.05753334 0.057012033 -0.07289767 -0.033664044 0.04543854 0.018784545 0.04779364 -0.081680864 -0.015592052 -0.0035556948 0.05597139 0.022931438 0.01700931 -0.06555391 0.059381373 0.010545749 -0.023349306 -0.079806864 -0.04247799 0.008070556 0.022016957 -0.034279294 0.049398717 -0.016192865 0.06541119 -0.13831945 -0.021644065 0.03831647 0.16565737 0.061690703 -0.09477648 0.026148029 0.05665639 -0.08941388 -0.0076613924 0.03955523 -0.08429067 -0.02996963 -0.026845798 -0.053985905 0.09902036 0.0009195724 0.028690763 0.02397343 0.05630049 0.053838115 -0.03184882 -0.013135552 0.102006815 0.04537219 0.11257355 -0.11049054 -0.06741195 0.0037427119 -0.054828532 0.01632514 -0.07644975 -0.063078985 0.036067102 -0.010853762 -0.0767401 -0.04063364 0.004135241 -0.0085685905 -0.06949123 -0.088601105 -0.052289438 0.10939126 0.1046058 0.041903954 -0.07110077 -0.14697243 0.004296509 0.019733986 0.022214705 0.06821242 -0.031676974 0.08034433 -0.023193646 -0.0690901 0.026868736 -0.038555212 0.029148726 0.007572293 0.025522105 0.020831553 0.052972693 -0.015232729 -0.05668541 0.067853324 0.029121893 0.06801692 -0.051431973 0.003259433 0.09926554 0.027766364 -0.0066723377 -0.058909163 -0.09130662 0.008493771 0.058033388 0.0018703985 -0.050573226 0.024668446 0.003292371 0.0356434 -0.024184173 0.0151515445 -0.00033788654 0.013768031 -0.029799944 -0.07695037 0.02020008 0.048137013 -0.0024373916 0.0012629941 0.05907407 -0.041785244 0.008911925 -0.012686927 -0.031686526 0.0083558895 0.018953318 -0.04408931 0.0014499505 -0.002167876 0.0444627 0.030778477 0.032178544 -0.008787719 0.001654491 -0.07238015 -0.03384326 0.011681362 0.021342546 0.010235728 -0.047627505 0.04251111 -0.014259808 0.012251668 0.05753027 0.043536443 0.01913326 0.019791555 0.025326239 0.0020332756 0.01434976 0.031262755 0.0710036 0.011226131 -0.014353265 -0.016584702 0.0076510306 -0.021967659 -0.04878127 0.038961314 0.0932038 -0.00016448031 -0.013093461 0.03693971 -0.07802557 -0.070394464 -0.045470864 -0.0006134692 -0.053668074 -0.082454264 -0.022518454 -0.014428766 -0.06475091 0.06727824 -0.07366356 -0.05399813 -0.13780215 -0.0075765746 -0.024066145 -0.027458219 -0.08246339 -0.09719763 0.028340925 -0.0066815056 -0.038705554 -0.013141243 -0.01338509 0.021546366 -0.020226799 -0.029988915 0.096813746 -0.025415713 0.033837657 -0.05103005 0.022466874 0.039196666 -0.02226405 -0.007844686 -0.05747487 0.009599691 -0.042579938 -0.021475088 0.03909142 0.111354925 0.029923905 -0.0772083 -0.08422211 0.007776287 0.019291399 -0.008661753 0.04606029 -0.04209076 0.09658929 -0.043544352 0.006272038 -0.024282068 -0.037200205 0.043058313 0.020352017 -0.052211355 0.024291072 0.02936087 0.027809577 0.034360815 0.050206624 0.05008863 0.048423238 -0.05616142 -0.07803288
8 -0.0883559 0.11570771 0.018332379 0.031650797 0.017316574 0.0133811515 0.030656671 -0.011405495 0.028424077 -0.013783443 -0.047151603 0.04069636 -0.035316873 -0.0035023119 -0.0667158 0.012251 0.02007151 -0.020174501 0.024061676 -0.02502009 0.0027408144 0.013852753 -0.014730096 0.08900009 0.002288657 -0.015911762 -0.042770673 -0.055132166 -0.00096703175 0.0039061971 -0.006526778 -0.06948221 0.03218123 -0.04965905 -0.035944782 0.048983626 0.01510111 0.029471098 -0.05830563 0.003327106 -0.015492065 0.03496526 0.0055119493 0.016620249 -0.039776884 0.04406853 0.01642193 -0.014555189 -0.026211731 -0.039123144 0.011557549 0.015049191 -0.009853926 0.0097897705 -0.020785639 0.012177682 -0.07173001 -0.020133233 0.008665667 0.08907433 0.018045174 -0.0663971 0.0177207 0.017248305 -0.06963346 0.0041154805 0.028386407 -0.061446518 -0.038913023 -0.04490175 -0.062160198 0.11121618 -0.017976275 0.01345261 0.03954609 0.062016524 0.08154825 -0.05005395 -0.020840239 0.10770622 0.057163235 0.1125866 -0.12458516 -0.061171185 0.017407674 -0.060371 0.015595046 -0.05971022 -0.08101712 0.050556533 0.001630067 -0.075779386 -0.03718796 -0.021867713 -0.0060608685 -0.05736005 -0.0769905 -0.04082735 0.098378345 0.08784267 0.054046314 -0.075658455 -0.14542755 0.031592224 0.026142944 -0.0048218863 0.051579215 -0.029213615 0.11658585 -0.033011746 -0.119014464 0.027529085 -0.0064937333 0.041583724 0.08027401 0.045110926 0.07158709 0.062666945 -0.040467504 -0.09041101 0.10813893 0.070761204 0.1415133 -0.111226484 -0.0071805567 0.15015526 0.01608132 -0.0034491543 -0.07830961 -0.11961201 0.029809939 0.07649619 0.0076393294 -0.06029505 0.049184453 0.011806853 0.04580476 -0.035778143 -0.00035196933 -0.035512395 0.0047155656 -0.03274457 -0.10102588 0.03018853 0.009510947 0.011118178 -0.0045363824 0.03195717 -0.062728666 0.023583386 -0.03131004 -0.035169706 0.0131258955 0.01428294 -0.04265875 0.021195725 0.010436716 0.038146287 0.018085001 0.039869495 -0.015917782 -0.026335878 -0.08054494 -0.021170648 0.0031102514 0.02337166 0.013671299 -0.074249595 0.08682926 -0.022532314 0.005939499 0.09845989 0.05340255 0.018446434 0.014036861 0.014857017 -0.004584466 0.04506605 0.025751634 0.075714566 0.03136471 -0.01860497 -0.040360335 0.018566756 -0.005827401 -0.07629435 0.061851196 0.10029362 -0.009581721 -0.020436274 0.04196846 -0.06885773 -0.08757875 -0.04238691 0.0025022654 -0.053424247 -0.049577184 -0.008496663 -0.010104471 -0.050682846 0.06833323 -0.060130637 -0.047025483 -0.11245709 -0.0026373323 -0.03509973 -0.04565505 -0.09507195 -0.07839482 0.04430263 -0.0025017196 -0.032980483 0.010010926 -0.025648598 0.026479155 -0.037287567 -0.01750588 0.0760952 -0.008645197 0.0451905 -0.07446357 0.053956274 0.015712759 -0.0055445856 0.0058501908 -0.063319735 0.0013919965 -0.045430526 -0.041154325 0.032849763 0.117615394 0.023653135 -0.05488502 -0.04872108 -0.013315423 0.024195347 -0.0052628154 0.025386127 -0.057115667 0.07431929 -0.033368748 0.019668585 -0.019427376 -0.02941999 0.012101582 0.0047573457 -0.023381904 0.013340692 0.031158578 0.020006496 0.0033550898 0.03695121 0.028466666 0.041398898 -0.031795036 -0.056030434
34 -0.091616 0.073386915 -0.008621343 0.017649306 0.010888744 0.01824056 -0.011180146 -0.009122188 0.009087238 0.005663791 -0.04038786 0.016402636 -0.015032605 -0.0060993726 -0.030331379 -0.0084179565 0.00818692 -0.00819658 0.009593239 -0.004270894 -0.014832779 0.011671585 -0.017157154 0.05116256 0.003091783 -0.0046076914 -0.0491584 -0.017224357 0.013073028 -0.0066304794 0.0034952029 -0.033973757 0.03496112 -0.0053557474 -0.02328116 0.013932275 0.018881766 0.017199494 -0.027142433 0.012797431 0.0050989687 0.035649754 -0.006776013 0.011933108 -0.0034137287 0.007912846 -0.014992879 -0.0046248906 -0.03866721 -0.027076375 0.017847924 0.024973782 -0.015969584 0.0124919815 0.003301185 0.03268907 -0.037602987 -0.0070135086 0.0038861532 0.03362881 0.029592315 -0.051004965 0.006879114 0.012386423 -0.03544709 0.003663192 0.031699426 -0.035772257 -0.021298952 -0.038716648 -0.035876527 0.051197365 -0.0053156205 -0.007525454 0.01295348 0.023981873 0.06009681 -0.031858947 -0.0255847 0.08652304 0.06173995 0.11675598 -0.11445606 -0.055677596 0.009884728 -0.037948333 0.019993477 -0.044347964 -0.0389142 0.05532307 0.0044735977 -0.05306073 -0.036903497 -0.034089334 -0.0063012317 -0.061205078 -0.065550745 -0.01918614 0.109952964 0.095945634 0.030157734 -0.06354843 -0.13140121 0.031633712 0.015883576 0.015176162 0.048391286 -0.02545967 0.068463296 -0.023192696 -0.06780513 0.017941933 -0.0067422213 0.025239192 0.053160463 0.013068736 0.033860754 0.04965714 -0.03863613 -0.04300251 0.084405944 0.040870372 0.10827896 -0.08478806 0.018795265 0.11370898 0.036897946 0.008546461 -0.04077375 -0.09552425 0.02740793 0.06009852 0.0022086916 -0.07118681 0.04761616 0.002820153 0.07097352 -0.05234909 0.0134334415 -0.018401694 0.003361955 -0.032211516 -0.09640534 0.012686129 0.014544577 0.0059085707 -0.02597832 0.03576133 -0.0597095 0.02286141 -0.026176581 -0.03289462 0.0071802614 0.02857228 -0.06367978 0.034393404 -0.0041389083 0.048167158 0.04899231 0.04341695 -0.016658206 -0.019719798 -0.099451795 -0.039556064 0.019001806 0.014014381 0.01830184 -0.12105961 0.08090653 -0.037513923 -4.29895e-05 0.13091677 0.060967475 -0.0039276886 0.018439852 0.016894618 0.007711616 0.04615553 0.039937075 0.109751195 0.040069886 -0.0136905685 -0.05476654 -0.013673707 -0.015700234 -0.13269837 0.08820062 0.14902355 -0.001377465 -0.016331423 0.04479319 -0.083977535 -0.12896292 -0.07726837 -0.020536887 -0.09747222 -0.079682395 -0.026470996 -0.027926723 -0.059582688 0.10883389 -0.0658387 -0.06061536 -0.14385204 -0.005440755 -0.042753942 -0.029570745 -0.1409452 -0.12244947 0.06617512 -0.027332105 -0.052284133 -0.0009735446 -0.061163716 0.033447333 -0.040024657 -0.007843222 0.108274624 -0.0032846197 0.056221943 -0.100379765 0.07688057 0.023241214 -0.009703351 0.0010348138 -0.0939544 -0.0101306075 -0.0672004 -0.042389054 0.03113811 0.15153764 0.051430278 -0.06379094 -0.09635281 0.011626286 0.008078799 -0.0030598014 0.06527824 -0.0668829 0.08165607 -0.0490268 0.01611061 -0.041109405 -0.052415263 0.04401668 0.020406637 -0.054435804 0.05766963 0.017954797 0.03269364 0.0009781412 0.065862566 0.033982582 0.062357206 -0.05113628 -0.07824623
22 -0.11052725 0.101196304 0.017609367 0.03466123 0.006619788 0.012682124 -0.00075012975 -0.011521048 0.0316482 0.00026454654 -0.05168382 0.014793143 -0.019249927 -0.007616855 -0.0831742 0.0012457776 0.032833993 -0.01887272 0.00782151 -0.032102272 -0.020188812 0.030778104 -0.023088112 0.106878735 -0.00025552243 -0.016833594 -0.066309616 -0.06437327 0.00541628 0.000627287 -0.010107897 -0.0970286 0.05554927 -0.037802987 -0.044022284 0.05346569 0.006737811 0.021038285 -0.058371183 0.021373268 -0.0043260846 0.047036234 -0.01129895 0.015662089 -0.027525356 0.047655724 -0.009978546 -0.019933809 -0.03786593 -0.05173823 0.024871062 0.043433763 -0.0087163 0.0011174212 -0.02572671 0.038274806 -0.10628918 -0.027175365 0.0076872893 0.106126696 0.027480612 -0.098281465 0.015874906 0.033493906 -0.09840266 0.014808992 0.055263862 -0.089938104 -0.035582565 -0.052562673 -0.060559433 0.071764864 -0.01642203 0.0007494728 0.02649578 0.023922373 0.07017806 -0.047141414 -0.026179694 0.09760365 0.060064513 0.11850501 -0.11643809 -0.04382888 0.015018837 -0.04905836 0.024323894 -0.042808026 -0.050551042 0.07321868 0.017321847 -0.054505948 -0.029563276 -0.032891918 -0.00028716022 -0.061418194 -0.06566327 -0.024631554 0.0916298 0.08070603 0.031324986 -0.05791181 -0.12469391 0.032129344 0.014512371 0.0061229113 0.058087997 -0.033849135 0.0508827 -0.012477536 -0.06213435 0.0053387545 0.017909283 0.015670385 0.048775807 0.012371014 0.046371933 0.032303616 -0.035202626 -0.04574515 0.086069465 0.047355924 0.10547283 -0.071339935 0.013399228 0.09040477 0.028588794 0.013621226 -0.049096104 -0.059598923 0.020551827 0.03981766 -0.0031438267 -0.077243045 0.061869882 0.025741322 0.069739245 -0.049390238 0.002366101 -0.027289731 0.0038904073 -0.025474126 -0.10563077 0.010961332 0.0027039556 0.013442812 -0.020462593 0.026460089 -0.066144355 0.027359499 -0.03275479 -0.032754492 0.015120218 0.023199027 -0.05460281 0.0313244 -0.006012326 0.053895477 0.052756514 0.041682076 -0.020259019 -0.023972454 -0.12351202 -0.03754618 0.006656215 0.019587046 0.021137426 -0.1337057 0.10144834 -0.04444325 0.000159349 0.1581082 0.051583227 0.010871 -0.00043257684 0.018416027 -0.0042451913 0.047405876 0.034411635 0.0814408 0.033656135 -0.003369107 -0.053984996 -0.0036376773 -0.018768005 -0.11659131 0.082494795 0.11698384 -0.009898509 -0.012727633 0.036783386 -0.052524697 -0.08247092 -0.05841135 -0.013482381 -0.059306964 -0.047238328 -0.011683222 -0.024031099 -0.05044173 0.077691406 -0.04694118 -0.043791696 -0.09331277 0.0071784514 -0.038494095 -0.02381028 -0.1035832 -0.077480376 0.05900297 -0.014079345 -0.041896123 0.017146887 -0.04759573 0.023865951 -0.03846991 -0.0030171617 0.08116137 0.0054105455 0.048360735 -0.06757733 0.052139197 0.008757226 0.003908863 0.013445561 -0.04984586 -0.0015227027 -0.04304228 -0.044104695 0.022771835 0.14124216 0.045353778 -0.038841814 -0.06756962 0.0069110515 0.008455977 0.0023340506 0.042369016 -0.0626427 0.072398424 -0.04411951 0.0141611025 -0.022867044 -0.051957175 0.006924076 0.009320448 -0.020088123 0.029185535 0.021398496 0.031583313 -0.004073704 0.058787424 0.006102574 0.04129008 -0.03279137 -0.043808628
23 -0.020014267 0.034918867 0.007024948 0.013177976 0.04322669 0.034171894 0.03994172 -0.0030320305 0.051879525 -0.038542863 -0.1113166 0.07814056 -0.045785185 -0.0032211284 -0.09539159 0.0028095546 0.048648387 -0.02692395 0.03437192 -0.035978265 -0.018013064 0.028054807 -0.04533288 0.14580464 -0.0007532162 -0.03465778 -0.06516714 -0.07273555 -0.0073226187 -0.0052855723 -0.021983325 -0.08548906 0.072351344 -0.048616048 -0.05508385 0.063898854 0.003489689 0.018664623 -0.044011153 0.017249618 -0.005342126 0.06368672 -0.001698681 0.016046152 -0.032483425 0.05109149 0.007352493 -0.024911696 -0.050823234 -0.05891818 0.040221795 0.058965307 -0.019411951 0.01479362 -0.032859344 0.05745195 -0.11801416 -0.008670773 0.0058319266 0.12492648 0.028089419 -0.0827952 0.019483987 0.023747718 -0.08397178 0.00062573847 0.035652522 -0.058682464 -0.01869819 -0.03092689 -0.020791464 0.04095283 -0.015559319 0.005502775 0.00032549328 0.006741318 0.039500225 -0.046220355 -0.026387008 0.07020879 0.030320387 0.07137836 -0.055725593 -0.02934654 0.00999171 -0.029743467 0.014640278 -0.02624323 -0.028559742 0.04478177 0.0059010223 -0.028986946 -0.029686896 -0.033532344 -0.0016015688 -0.046233937 -0.048737574 -0.021476993 0.08437932 0.061148636 0.03772712 -0.05446699 -0.10064073 0.011762411 -0.001411983 0.002929541 0.024988336 -0.016054172 0.07481333 -0.025535153 -0.08593202 0.011044468 0.008984357 0.024884606 0.07880158 0.026374478 0.054527104 0.045856975 -0.037025943 -0.06535655 0.0776791 0.050706387 0.10870229 -0.09639626 -0.0032554232 0.10738259 0.0006270166 0.019611755 -0.040461536 -0.08076261 0.034426287 0.062436894 0.0022504525 -0.05954041 0.051940788 0.012899947 0.048269346 -0.0340746 0.0046238443 -0.031683862 -0.013036042 -0.036935028 -0.08898602 0.02575767 0.012652993 0.018174035 -0.021162782 0.028069358 -0.062207647 0.020593686 -0.029244166 -0.02837423 0.014632574 0.019349301 -0.046031263 0.032346692 -0.01278543 0.060801696 0.038367957 0.033426326 -0.018996371 -0.02996019 -0.10908316 -0.023155052 0.018986862 0.023451759 0.015463674 -0.10142743 0.09384295 -0.044077862 -0.012844493 0.14099285 0.07265547 -0.0030294494 0.0030594182 0.010028539 0.016034279 0.053585995 0.029664071 0.09351211 0.040192336 -0.02587085 -0.06851331 0.01022168 -0.016708985 -0.12627223 0.08376828 0.12748636 -0.018783765 -0.01102256 0.024307044 -0.04564193 -0.082303695 -0.04880828 -0.01589999 -0.065413475 -0.039407466 -0.00243006 -0.009180997 -0.04867035 0.07360865 -0.03514736 -0.038401138 -0.08982704 0.0006794666 -0.040725626 -0.032194138 -0.1323719 -0.097424805 0.068975165 -0.0168206 -0.05280673 0.031848874 -0.043265473 0.035252783 -0.055219185 -0.013080435 0.0779897 -0.010552159 0.052878294 -0.09372719 0.072159424 0.022334028 -0.0015356371 0.013594288 -0.096888155 -0.0045999372 -0.068021104 -0.06450008 0.038703598 0.16686949 0.036405813 -0.061431505 -0.07500898 -0.0025455952 0.034342356 -0.005729563 0.03454672 -0.06285247 0.056039974 -0.032625124 0.016821586 -0.024876105 -0.04851222 0.00798805 0.0030402872 -0.016903387 0.031854693 0.023638528 0.023072686 -0.00060814526 0.04477627 0.015545081 0.038545787 -0.022925386 -0.048077635
