101 256
10 0.063196726 -0.02407537 -0.050419204 0.019425226 0.016941302 -0.004006958 -0.05067684 -0.013826873 -0.01907724 -0.0069975625 -0.06910491 0.037659448 0.019933932 0.008926955 -0.05559534 -0.042124014 -0.065804 -0.036416642 0.117628366 0.009242471 0.07434574 -0.039483216 0.026408823 -0.03957572 0.0031523744 0.010443769 -0.038628493 -0.08241308 -0.002493573 -0.051864993 0.02663351 0.032589693 -0.07183971 -0.03250301 0.06477052 0.032192536 -0.048050873 0.06247472 0.035206873 0.032113142 -0.08822026 0.09205754 0.0012469245 0.09803413 0.11099575 -0.08286828 0.22477661 0.049757253 -0.025812324 -0.09662666 -0.0586399 0.10582824 -0.024076892 -0.04862656 0.067457646 0.005321436 -0.046731334 0.09275829 0.078458026 0.051246706 0.030505314 -0.08152748 -0.06794076 -0.11078955 0.035077933 -0.0037591027 -0.022708299 -0.06950816 0.05127625 0.038539886 -0.024643937 0.005756165 -0.019661918 0.027544487 0.012688324 0.016290504 0.057481673 0.003048559 0.016967608 0.007209502 -0.027606957 -0.05461203 0.06568057 -0.020234048 -0.014925759 -0.044792563 0.004575328 -0.044274844 -0.07317476 -0.0031480535 0.012225699 0.03875382 0.060996417 0.013695754 -0.053804003 -0.057416085 0.0048561194 0.08374104 0.052212875 0.10904299 -0.06194281 -0.05957939 0.03427671 -0.054690175 0.15200433 -0.039612513 0.06721913 -0.04426643 -0.0026559455 -0.0114247985 0.0356628 -0.08051794 0.022407567 -0.081941836 0.021169111 0.030927464 -0.0652054 -0.11363642 -0.038186308 -0.12170783 -0.053078894 0.034712408 -0.007339951 -0.08953968 -0.061007004 -0.022412797 0.00070113153 0.08211281 0.07951267 0.0080417385 -0.040952723 0.02594624 0.14941046 -0.027276862 0.16985805 0.0014215293 0.047136176 -0.0042256964 -0.04769218 0.01659975 -0.0687329 0.13417332 0.0037732814 0.005322679 0.06900278 0.017425233 0.0251153 0.025293251 0.0028329247 -0.010427547 0.10137145 0.011667438 -0.0013664966 -0.052251022 0.013849197 0.026983779 -0.012519306 -0.08358157 -0.10112334 0.14976937 0.04207649 -0.00928872 -0.017838014 -0.117768876 -0.013851371 0.091540575 -0.021645693 0.054707434 0.0031433231 -0.09604591 -0.039255824 -0.074293606 0.11355989 -0.061737563 0.03532504 0.02757525 0.022075824 0.05832897 0.05045928 0.0856958 -0.024731174 0.024288092 -0.043937597 0.03427955 0.09595766 -0.016186649 -0.0058038794 0.020589767 -0.004321505 -0.0017075569 -0.035259444 -0.018493745 -0.023223262 -0.018919075 -0.10475164 -0.027757062 0.08300109 0.079720005 -0.05120351 -0.10012018 -0.04085749 -0.020317884 -0.00836964 0.046932057 -0.039451517 -0.011261714 0.01818861 -0.044541847 0.0038316147 -0.016985035 0.06445404 0.07565887 -0.0750155 -0.116440274 0.13942789 -0.006580362 -0.010128177 -0.08378858 0.08867814 -0.05296029 0.004774996 -0.02267019 -0.10497563 -0.042708516 0.032415316 0.03030373 0.038893875 0.17100933 0.09577907 -0.0437866 -0.01833545 -0.09080373 -0.028907634 0.021444324 -0.030704355 -0.038338996 -0.058991786 -0.03561403 -0.06405977 -0.03491035 0.052397512 -0.06804936 -0.082318306 0.015057627 0.10009025 -0.07850556 -0.01430329 0.025439361 0.04998919 -0.11660721 0.04914653 0.07764227 -0.027340285 -0.018270794 0.07559295 -0.07770572
6 0.07103204 -3.9142615e-05 -0.02478976 0.035627857 0.0034766374 0.0031560063 -0.06373307 -0.00413916 -0.024450805 -0.09710091 -0.029313639 -0.02247724 0.023090828 -0.016323509 -0.08013614 -0.044446807 -0.0718475 -0.011746078 0.046109837 0.0108156735 0.13341995 -0.03864738 0.010378528 -0.012030061 0.055841174 0.016119054 -0.04831737 -0.059891 0.017763473 -0.047323886 0.06830327 0.015646307 -0.023056552 -0.012829697 0.06859987 0.003955324 -0.052527327 0.060536064 -0.0064443247 -0.01524577 -0.046281733 0.03861024 -0.05338819 0.07178063 0.12629682 -0.069437906 0.21158642 0.007844356 -0.019332757 -0.043213047 -0.015422958 0.10654984 -0.065110475 -0.11247038 0.073682934 0.017145941 0.019420337 0.041929152 0.06852938 0.030430349 -0.037039418 -0.06958004 0.0037824393 -0.1358731 0.040384594 -0.025991617 0.012015415 -0.033813216 0.08577776 0.014198082 0.008383352 -0.0121450825 -0.0012963807 0.027844165 -0.0046053985 -0.01634576 -0.005314075 0.040720753 0.006651888 -0.0077939304 0.0015402526 -0.082771264 0.086876675 -0.032759625 -0.0152707305 0.008988813 0.040702756 -0.07928783 -0.03494213 -0.018539032 -0.006065654 0.050498955 0.054669835 -0.029658036 -0.10950416 -0.035525892 -0.032110028 0.102110125 0.09558417 0.11729701 -0.074310385 -0.10508938 -0.0117484415 -0.047904782 0.081530705 -0.019846885 0.10134792 -0.030140799 0.032173965 -0.002491312 -0.023445055 -0.089596614 0.10192462 -0.1276708 0.06266334 -0.006066156 -0.051957592 -0.09195907 -0.042297766 -0.14334391 -0.09306972 0.062448554 -0.008800097 -0.06941948 -0.019191053 0.014463955 -0.0007123987 0.0847438 0.05900728 0.024174873 -0.05673772 0.017821237 0.057426613 0.004915561 0.13836008 -0.025392685 0.055625036 0.044790767 -0.06746058 0.008572337 -0.023225456 0.08306099 0.024751216 0.03989455 0.07128484 0.080945194 -0.053557597 0.016871091 -0.036860913 0.03480408 0.08699355 0.05832812 -0.06266968 -0.046021614 -0.029851194 0.06759397 -0.048523977 -0.09955112 -0.103305385 0.16095461 0.01384015 -0.043950707 0.017453343 -0.08079308 -0.07351589 0.03783656 -0.04978871 0.06360346 -0.08202152 -0.12401179 0.0016289795 -0.09090622 0.100433804 -0.0033071393 0.016216805 0.022270383 0.039005708 0.016900608 0.042117987 0.05301121 -0.07160074 -0.0016712965 -0.055089727 -0.031690367 0.11613431 0.035645574 -0.08738033 0.051371187 -0.013527975 -0.05628158 -0.0071632736 -0.013866894 -0.07172822 0.03191081 -0.090450875 -0.084392674 0.122293085 0.07548058 -0.039718736 -0.07270189 0.042283952 -0.029372646 -0.0051986305 0.036527332 -0.0039400724 -0.0052230433 0.056640968 -0.029164791 -0.047991853 -0.034589726 0.089165345 0.09970323 -0.004877161 -0.10887983 0.14630699 -0.026978558 -0.005596248 -0.070434704 0.09031494 -0.015007628 0.008196451 0.091678634 -0.058971323 -0.05387179 0.016482567 0.04909892 0.0069141216 0.11441181 0.07885113 0.020403847 -0.009147854 -0.026421247 -0.061778456 0.0008982651 -0.021509927 -0.032426205 -0.048599217 -0.041162692 -0.059482247 0.013704373 0.027752267 -0.038114723 -0.04028921 -0.024802836 0.115944326 -0.084991984 -0.011851889 -0.048105486 0.043704387 -0.082961544 0.024985198 0.034823216 -0.026475858 0.05137324 0.11842028 -0.04283347
1 0.08748708 -0.031339753 -0.058012325 0.014707698 0.029595116 -0.0028703616 -0.062343255 -0.023669576 -0.042246964 -0.022862155 0.007628945 0.041420855 0.024581432 0.058884323 -0.13688852 -0.038327236 -0.026953623 0.0122133875 0.002394783 0.066743486 0.09699442 -0.07880087 0.012739545 -0.015843755 -0.0063588936 -0.108741336 -0.0050114864 -0.13877128 -0.035625238 -0.028215451 0.059668925 -0.028352113 -0.014369585 0.06091331 0.113047086 -0.00889195 -0.028205076 0.07087153 0.041575227 0.043576982 -0.1126926 0.007420106 -0.08881969 0.14567374 0.039704263 -0.075582206 0.14324212 -0.055942923 -0.055742025 -0.04722097 -0.030739417 0.02188723 -0.067675844 -0.044365674 0.0851285 -0.055058543 0.020788273 0.10248444 0.009169704 0.027879937 -0.09290902 -0.13097958 -0.06246396 -0.100743674 0.031401 0.008768914 0.03568712 -0.08782226 0.0867406 0.0071956376 -0.043900244 -0.027865939 0.037681844 0.0563444 0.016459202 0.019562595 0.034049697 0.040718213 0.073149055 0.07996368 -0.0566901 -0.14793397 0.009576995 -0.106948175 0.04294233 -0.070196606 -0.006591878 -0.08820925 -0.069258764 -0.13567574 -0.051876087 -0.006705739 0.1014182 0.046285182 -0.022137292 -0.08873761 -0.061504398 0.012761785 0.10735517 0.088679574 -0.08203785 -0.032078303 -0.05408414 0.04181146 0.109390184 -0.0009792793 0.058219448 0.006253132 -0.037803497 0.007945534 -0.0323695 -0.08040691 0.115826726 -0.04895671 0.080317765 -0.027023578 -0.043248545 -0.12155374 -0.006431346 -0.18657836 -0.046881825 0.046898782 -0.0037072725 -0.023063656 -0.041965995 -0.010385434 -0.011962817 0.028543817 -0.032290146 0.0603777 -0.05260626 -0.012752606 0.05605147 0.09743789 0.12863135 -0.030586423 0.042480405 0.020131525 -0.05319408 -0.04457656 0.018085245 0.10676291 0.029494112 -0.015995195 0.07201096 -0.011367861 0.011870217 0.05659393 -0.0486442 0.04992965 0.12747447 0.13265632 -0.047396816 -0.044603605 -0.039825864 0.057220712 0.025007037 -0.06501115 -0.08574062 0.14775921 0.018710025 -0.01856932 -0.00089794927 -0.19155115 -0.010461135 0.032601573 -0.025056679 0.115499616 -0.059218206 -0.048468776 -0.010176088 -0.09316185 0.049745258 0.0057617873 0.09559842 0.10929621 0.09045847 0.010204542 -0.007216413 0.052000985 -0.015301457 0.05314983 -0.03401354 -0.046553418 0.12889995 -0.059786174 -0.058896564 0.030253343 0.033116113 -0.017042156 -0.00790293 0.105565965 0.048128985 -0.013892118 -0.018257976 0.037025798 -0.005246255 0.09272355 -0.00034327147 -0.061066754 0.023458088 -0.03143452 -0.03421812 0.07538334 0.06522549 -0.12306453 0.15789257 -0.01962799 -0.08729037 0.04614948 0.05791916 0.088023655 -0.06139376 -0.13033189 0.09419178 0.015037521 -0.013169831 -0.120841146 -0.03684237 0.038036093 0.06005713 0.0782181 0.07234493 0.020117104 0.027777838 0.06988178 0.097699165 0.059191596 0.04476035 -0.03862951 -0.044117372 -0.033552095 -0.044193022 -0.03409487 -0.07992925 -0.04471939 -0.016670804 0.059104748 -0.04336924 0.038117673 0.09469806 -0.09776834 -0.025662292 -0.027482625 0.039782595 -0.053495385 0.08576606 0.015367936 0.002556416 -0.03479102 0.014540128 0.06608357 0.00930638 -0.03699102 0.1213507 -0.0046206545
20 0.08008961 0.07200255 0.014182524 0.039274 -0.06720127 -0.05551144 -0.06009588 -0.02890947 -0.046694048 0.001025733 0.0048293755 0.053645205 0.019691244 0.082902186 -0.09137546 0.0077164355 -0.027937112 0.010843638 0.13278045 -0.04076104 0.12853956 -0.009283415 0.0914692 -0.092117034 0.024117867 0.06971184 -0.0408163 -0.01190272 -0.032809205 -0.13274442 0.00058956933 0.052157205 -0.08844697 0.022794412 0.027226357 -0.020948494 -0.06972237 0.054029703 -0.0055775377 0.03513615 -0.042355612 0.11200332 -0.0168613 0.097780034 0.079857945 -0.11811613 0.1540984 0.041149102 0.030578991 -0.08479665 -0.035974294 0.070304625 0.014136727 -0.0542356 0.09231768 0.0041005337 -0.0054179723 0.06287657 0.044426493 0.026440829 0.023713544 -0.10378917 -0.1079712 -0.09596943 0.005436513 -0.039576653 -0.007891678 -0.046939526 0.08699434 -0.0066912984 0.035629563 -0.02584823 -0.0053242757 -0.037922878 0.036983807 -0.05899739 0.0024751911 -0.016953148 -0.007284676 0.064987965 0.031964738 -0.059976816 0.04930425 -0.053867977 -0.016420893 -0.06929562 -0.0055456716 -0.056062732 -0.034730528 -0.004275662 -0.0023805497 0.056570288 0.043052062 0.004783679 -0.053288028 -0.05173348 0.027420621 0.09733478 0.04869762 0.07338118 0.003530225 -0.0894206 -0.0023279567 0.02707261 0.071790814 -0.026182706 0.08912592 -0.025078151 0.031821005 -0.012807468 -0.055581115 -0.12209785 0.047853857 -0.065592065 -0.010433624 -0.06037931 -0.015757276 -0.043511525 -0.016246896 -0.091590635 -0.06506649 0.055504702 -0.030372247 -0.06048745 -0.017240966 -0.021026766 -0.010490332 0.05945847 0.12975852 0.05026319 -0.011144979 0.034537334 0.18488707 -0.039223045 0.13616207 -0.042836625 0.044369426 0.04908304 -0.013465745 -0.013096924 -0.04221839 0.12027441 0.014279205 -0.03209988 0.0017424973 0.027182994 -0.028524373 0.07577107 0.055124067 0.047327474 0.11313179 0.083233625 -0.012616536 -0.054930456 -0.0020913177 -0.0016095333 0.03333844 -0.03630239 -0.118108444 0.14363953 0.02571798 -0.05289245 -0.005314605 -0.056298055 -0.05946037 0.08809983 0.000319584 0.027787548 -0.03876379 -0.07044043 -0.04030302 -0.07673415 0.07460216 -0.036925428 0.05664499 -0.04327069 0.055802997 0.037821 0.059359536 -0.012803776 -0.045216125 0.03858116 -0.097904146 -0.0019196587 0.059200767 -0.049044427 -0.05971289 -0.0062985346 0.0025457086 -0.010755551 -0.07038697 -0.01586224 0.02294442 -0.042146634 -0.14803015 -0.06969078 0.0061716107 0.05887567 -0.060963135 -0.095108174 0.013380762 -0.013294077 -0.022606207 -0.046697553 0.026380884 -0.047360383 0.09732209 -0.035983745 -0.018274397 -0.03474961 0.07793806 0.12312108 -0.08084427 -0.07512832 0.023076272 -0.041394856 0.10213432 -0.05439464 0.027179124 -0.1174823 -0.07395818 0.022949165 -0.12500189 -0.050659157 -0.028357655 0.07889813 -0.022115078 0.15163761 0.014876355 0.009841545 0.0028368514 -0.10189285 -0.018107701 0.032736298 -0.039079733 0.026344428 -0.026204603 -0.025656695 -0.041698676 -0.041026622 0.033772405 -0.019812156 -0.08464848 -0.0038025146 0.030698579 -0.09354522 0.045521595 -0.011214338 0.0012430444 -0.15444271 0.013069595 0.17071168 -0.004626784 0.017414402 0.06903955 -0.08667314
4 0.1030788 0.023453278 -0.006924229 0.05250732 -0.07046768 -0.03317072 -0.07710381 -0.029652923 -0.0521315 -0.012027066 0.039941255 0.11281788 -0.011814459 0.07506269 -0.116945416 -0.021422079 -0.010337777 -6.729506e-05 0.020519227 -0.005837682 0.14053662 0.006754537 0.01133934 -0.061189376 0.016479619 -0.011963816 -0.033344585 -0.047002308 -0.027410863 -0.09565631 0.053212546 0.027909469 -0.04311446 0.050084494 0.02244601 -0.028230421 -0.033030268 0.091534324 0.038901735 0.0603246 -0.040974576 0.01205119 -0.010729709 0.06482681 0.09585594 -0.08679064 0.12264748 -0.04020233 0.007236493 -0.04451448 -0.0061760214 0.016315248 -0.05549557 -0.05563794 0.10060452 -0.0040674475 -0.048192848 0.053088117 0.02590683 0.0018655482 -0.040994957 -0.09136545 -0.0689764 -0.076916136 0.011864373 -0.029783776 0.017673416 -0.044032097 0.08213317 -0.0066496045 0.022037117 -0.011189919 0.01381379 -0.055551816 0.028927399 -0.024476591 0.056537647 -0.041348696 0.01696508 0.11011238 -0.03407616 -0.08739545 0.018339075 -0.047259167 0.019167218 -0.0715471 -0.0052546463 -0.018521124 -0.05581463 -0.07783747 -0.07006689 0.06384948 0.012263917 0.03306801 -0.027897239 -0.0426338 0.013515975 0.06351608 0.08958896 0.03293123 -0.046849262 -0.08512092 0.0028269098 0.035538677 0.086363085 -0.019592214 0.027446186 -0.010647126 -0.03259546 -0.010863942 -0.04958012 -0.15814295 0.080195054 -0.07312022 0.030826543 -0.055306613 0.024434868 -0.07401623 -0.028155448 -0.10289034 -0.0431936 0.050317608 -0.03656954 -0.02117717 -0.014912883 -0.026863547 -0.05226891 0.014408626 0.03688112 0.04414422 -0.03923806 0.0034582368 0.09875328 0.02952661 0.13497256 -0.034210473 0.04660851 0.054002892 -0.04683232 -0.014721663 -0.0117672235 0.12559442 0.012077199 -0.033817325 0.009681119 0.006486656 -0.039048173 0.09757649 0.014228126 0.039964706 0.08000606 0.10605384 -0.057848904 -0.05456556 0.012462705 -0.006949852 0.051540915 -0.07304747 -0.10275688 0.15469736 0.033947673 -0.027260019 0.0016952632 -0.07714735 -0.041167837 0.07101916 -0.0028750673 0.064769685 -0.055420484 -0.019670505 -0.018916106 -0.050396208 0.054553125 0.051216923 0.05620151 0.022227162 0.07263358 -0.00046600075 0.06149828 -0.05429186 -0.061761107 0.0167619 -0.0788919 -0.015466626 0.050077535 -0.08911563 -0.025697777 0.032165956 0.007892379 -0.016111609 -0.03665315 0.030875705 -0.007107535 -0.009913769 -0.034162793 -0.003854133 0.009838615 0.07147309 -0.002272552 -0.057124175 0.019411769 0.004814056 -0.02394975 0.01229007 0.070637435 -0.06618265 0.14512743 -0.009172715 -0.04345973 -0.011153373 0.044642657 0.13732241 -0.06067625 -0.048418436 0.01921926 -0.0018965737 0.037320968 -0.054951135 -0.015479518 -0.021571565 -0.0142229255 0.0507025 -0.024092488 -0.013872679 0.029176991 0.049745884 0.01623563 0.12743029 0.014325731 0.02580694 0.0011406584 -0.13486774 -0.022405813 -0.01795032 -0.06546037 0.0584892 -0.009583212 0.009638611 -0.051154796 -0.0052302084 0.056630965 -0.008681152 -0.057868216 -0.0752596 0.03391497 -0.04080011 0.052001715 -0.022059688 -0.002902393 -0.083236255 -0.002044891 0.14525253 0.0032708414 -0.010629453 0.13041188 -0.099564716
21 0.051774584 0.06743897 -0.053533245 0.07551866 0.0068685794 -0.039588526 -0.060250133 0.03288256 -0.004353131 -0.0755876 0.039007593 -0.03752838 0.031676494 0.04544347 -0.097702265 -0.022616949 -0.032984078 -0.02026454 0.027150584 -0.041296016 0.13875559 -0.080594525 -0.005696988 -0.009848293 0.00023385593 -0.0749879 -0.043152757 -0.01871397 -0.004629239 -0.0317308 0.07992961 -0.0443535 -0.03526504 -0.07719909 0.050690386 0.06731836 -0.028879464 0.04884377 -0.06540198 -0.0031675827 -0.13399045 0.030475792 -0.045570422 0.089334466 0.02164336 -0.028427674 0.1920225 -0.009724525 0.085107915 -0.044862807 -0.105330065 -0.013614179 -0.1106853 -0.07359299 0.015711823 -0.032951947 0.021142703 0.058856763 0.10858455 -0.0059784567 -0.019810697 -0.067345165 -0.03896474 -0.17016838 -0.04271947 0.013660835 0.1220364 -0.06663859 0.08351506 -0.007899836 0.00057112775 -0.050342556 -0.024621923 0.007858071 0.0625166 0.06186907 -0.015106325 0.029356495 0.023515794 0.029514436 -0.040236063 -0.15204585 0.07314525 -0.053148758 0.014466134 -0.06683898 -0.027396051 -0.050774872 -0.009309074 0.12207268 0.018622821 0.068556726 0.015888432 -0.03941782 -0.13113052 -0.05621264 -0.05745233 0.11655001 0.12468267 0.10165419 -0.031937532 -0.1042481 -0.012385766 -0.041734535 0.1176316 -0.031047 0.049647253 -0.04706368 -0.019505499 0.048029598 -0.083286874 -0.20584716 0.10329407 -0.09031992 0.00843305 -0.015565749 -0.105316244 -0.11790773 -0.025749262 -0.11488163 -0.09008495 0.014465584 0.000586518 -0.06797819 -0.054624174 -0.011839638 -0.03383181 0.01905253 0.07276259 -0.07627978 -0.00013385998 -0.04595196 0.01855236 -0.01668954 0.11412053 -0.015242121 0.03422984 -0.006710697 -0.05893909 -0.090418585 0.017056994 0.113231376 -0.043636955 -0.06042605 -0.008229899 0.07170392 0.022678806 0.0056524766 -0.085928045 0.012979014 0.13413745 0.067059904 -0.036058534 0.028833127 -0.07588991 0.070671394 -0.042695574 -0.074199 -0.12926802 0.120664366 0.06619462 0.025003761 0.05476912 -0.063985296 -0.055106297 0.090413034 -0.026795717 0.07325052 -0.0792812 -0.09789179 -0.08369202 -0.07683654 0.092610925 0.019100001 0.056353346 0.04873136 0.10773431 0.006753176 -0.01646542 0.073212944 -0.12522674 0.053216446 0.011248837 -0.010381945 0.1466187 -0.09887804 -0.08513655 0.034080524 -0.016628059 -0.025897637 0.009204003 -0.049957342 -0.026882885 -0.025965061 -0.049383085 -0.080309615 0.11938105 0.13863987 0.00033794707 -0.07793875 -0.046202503 0.105411075 0.052128624 0.09305594 0.038232457 -0.04657387 0.027231751 -0.10392454 -0.046907246 -0.0827152 0.041735113 0.13145082 -0.01508523 -0.08832553 0.14018108 -0.05778074 0.041435886 -0.11129411 0.080741316 -0.0018162811 0.06705626 0.11588338 -0.064944446 -0.061334115 -0.0142778065 0.057601538 0.03686175 0.17462745 0.086487256 0.03798366 -0.027339505 -0.07095493 -0.018627452 -0.015391609 -0.023407388 0.0018897187 -0.0757276 -0.04864214 -0.10589556 0.022144917 0.046109572 0.029906256 0.03933922 -0.03700007 0.030284818 -0.053691104 0.028421476 -0.07545178 0.030500002 -0.07385358 0.03569066 0.038349614 -0.01081889 0.06402635 0.055875856 -0.03769293
11 0.073411025 -0.064729065 -0.010078516 0.00930757 0.05688141 0.0115124555 -0.0060372436 -0.018486846 -0.046006363 0.0023749042 -0.031160748 0.062787995 -0.0034788982 0.033291392 -0.04464633 -0.07316948 -0.079014435 -0.019474441 0.07397265 0.030253353 0.004892267 -0.054795366 0.01623166 -0.020006584 0.062051132 -0.033139937 -0.0033165202 -0.095546804 0.03150221 -0.06702307 -0.008337734 -0.002659539 -0.057208188 -0.04537288 -0.010899568 0.013863754 0.03078803 0.048278805 0.019872064 0.009690299 -0.15522364 0.046938613 -0.004740743 0.055665772 0.096230775 -0.051157318 0.19883789 -0.026308242 0.0031308508 -0.0789794 -0.03021285 0.10378271 -0.037904292 -0.102712266 0.050768312 0.024891987 -0.043909498 0.09048211 0.15335147 0.05125341 -0.021233302 -0.058902312 -0.07147282 -0.029397966 -0.030262701 -0.07373855 0.0020062122 -0.039600786 0.02278095 0.10595588 0.013187136 -0.059748236 0.08060654 0.024886444 0.020449141 0.034833822 -0.0052523166 -0.043732632 0.08859022 0.009257244 -0.046524584 -0.068262964 0.005509459 -0.02586431 0.0069397995 -0.0394903 0.03724056 -0.036621608 -0.045838032 -0.06195869 -0.03821276 0.09930222 0.007410477 -0.012391289 -0.025295265 -0.06697868 0.072080225 0.07717273 0.017581038 0.11235357 -0.07008493 -0.064711824 -0.01577524 -0.03831059 0.13727759 -0.037028007 0.028255574 0.045998517 -0.014440055 0.019615538 0.04278759 -0.117141776 0.047427896 -0.15450563 0.016752323 -0.070240274 -0.012662881 -0.034451168 -0.03150076 -0.09837781 -0.047878798 0.023097815 0.07996814 -0.11888868 -0.033694725 0.039589703 0.0063507464 0.049448594 0.037645448 0.029135244 0.00318084 0.029663434 0.08501127 0.03519785 0.1640342 -0.037369974 0.100513935 -0.0001914997 -0.034169022 -0.007741164 -0.06905527 0.17975898 0.016718911 0.005109516 0.08979759 0.08311195 0.0493703 -0.059093006 -0.07467699 0.0020367987 0.048879124 0.024307953 -0.059204098 -0.030243795 0.017842768 0.0029349145 0.029118214 -0.020652682 -0.015710454 0.13684277 0.031312644 -0.015528728 0.013727721 -0.07311327 0.026639488 0.067430116 -0.090967365 0.048667453 3.120928e-05 -0.059822697 0.042164326 -0.07051204 0.07424729 -0.044398595 0.006436163 0.04116078 0.063033015 -0.009890225 0.05223841 0.07140821 -0.0042504366 0.017504463 -0.004808656 0.053843245 0.07905899 -0.028934378 -0.016447492 0.07753815 -0.004165545 -0.010640152 0.029751174 0.027516559 -0.07896744 -0.018615589 -0.054266587 0.021324862 0.036402356 0.08992467 -0.049761865 -0.0012822207 -0.0427733 -0.044684276 -0.03133951 0.091465995 -0.048757955 -0.026879845 0.10477585 -0.033309426 -0.038945902 0.041624714 0.08471183 0.044884123 -0.09367791 -0.068391055 0.083871484 0.027530046 0.03234051 -0.12219933 0.06627778 -0.014334699 0.090211295 0.06607463 -0.042288773 -0.04416836 0.04647655 0.03405179 0.042523406 0.15534677 0.06758285 -0.0755212 -0.013932676 -0.091626935 -0.023196334 0.024659518 0.026636353 -0.014713904 -0.041920185 0.0040366314 -0.0847637 0.023032352 0.07144963 -0.07886825 -0.038728945 -0.038131252 0.06029575 -0.033971928 -0.0038492444 -0.013304358 0.0065340954 -0.07851813 0.055530295 -0.055473562 -0.070636146 0.02956895 0.18534215 -0.10801347
30 0.041638713 0.07382157 -0.003112303 0.03380293 -0.045228783 0.028246554 -0.035319977 -0.007350816 -0.08775304 -0.0025989523 -0.0025658335 0.030509617 0.018689627 0.093746655 -0.12386697 0.045390625 -0.046488665 0.0016673167 0.034562778 0.009229589 0.12633204 -0.046410013 0.08485434 -0.043962244 -0.0061011137 -0.047468834 0.0003799101 -0.06923182 -0.022914192 -0.10761063 -0.006907193 -0.03281382 -0.04194577 0.06596012 0.03607001 -0.01298735 -0.059748568 0.06284557 0.015394384 0.010290945 -0.102275826 0.03318886 -0.023889415 0.09329 0.079613484 -0.10942548 0.13408417 -0.07652013 0.015500055 -0.009512516 -0.016840132 -0.022819616 -0.011281947 -0.07314858 0.03962615 0.022867698 -0.016111521 0.10113612 0.043251857 0.036627833 -0.017347535 -0.14748062 -0.061705764 -0.07544816 -0.010946432 -0.060206454 0.020325549 -0.020324951 0.123006046 0.09035541 -0.044188928 -0.022957327 0.059169047 -0.035321414 -0.0057592713 0.000574154 -0.010910677 -0.015491551 0.04955898 0.048651237 -0.029927447 -0.090503566 0.02451862 -0.06970977 0.005722907 -0.041422863 0.011443788 -0.110928446 -0.010387801 -0.14263254 -0.055755153 0.051942375 0.062738046 0.041528735 0.014493475 -0.06036975 0.041210636 0.014399937 0.105030306 0.09335261 0.045959435 -0.081754416 -0.07512502 0.04293649 0.089249894 -0.03834457 0.080961935 -0.011827497 0.03490012 0.034382135 0.011471718 -0.12349694 0.10508553 -0.07293449 0.007039231 -0.06835559 0.026295891 -0.053377952 0.016880421 -0.116303116 -0.077398494 0.059465516 0.05239696 -0.017392825 -0.0041205375 0.015620505 -0.030272964 0.05318158 0.037945803 0.027756518 -0.036294837 0.06910002 0.15411712 0.03994199 0.080644704 -0.07142145 -0.02342478 -0.009557062 -0.024817638 -0.02352339 0.017791959 0.086745575 0.015599923 -0.08179056 0.019369062 -0.020705624 0.012055186 0.041178882 -0.041092124 0.039010365 0.09081986 0.13018708 -0.022707745 -0.07804673 0.021138854 0.0447688 0.0025313855 -0.018752914 -0.10803092 0.12343155 0.0054691522 -0.06731812 -0.011577384 -0.075402394 -0.0094691105 0.05508533 -0.005015926 0.05094291 -0.04857829 -0.103144154 0.047391333 -0.04947539 0.07683235 0.024024984 0.07782587 0.030986281 0.0811905 0.02730311 -0.021232333 0.026670992 -0.017267859 0.018405179 -0.12771875 -0.02205935 0.08704753 -0.028731156 -0.08420072 0.02979727 -0.016086536 -0.04909002 -0.009653056 0.10071614 0.051688414 -0.019883791 -0.089639835 -0.0002697951 -0.055906657 0.029020052 -0.05388918 0.017773576 0.046623424 0.00061692606 -0.08062413 0.073435605 0.028619722 -0.05761519 0.14896728 -0.010087011 -0.08709145 0.059359223 0.09177823 0.1001703 -0.1060069 -0.09881066 0.07054876 -0.026033362 0.085514456 -0.08237442 0.013306642 -0.03798884 -0.07099839 -0.018897103 -0.00093141786 -0.04167922 0.059094474 0.12003954 0.05048963 0.12597938 0.028948167 0.039978437 -0.027283205 -0.06439838 -0.06262671 0.029561391 -0.054248262 -0.00037502384 0.015241197 0.07414119 -0.04130255 -0.004704711 0.044260845 -0.14274402 -0.069701515 -0.080730125 0.033424214 -0.017408833 0.103658974 0.022645008 -0.067111395 -0.07074287 -0.0366655 0.047800466 0.041802738 0.0006514647 0.18137263 -0.029213633
5 0.07733291 0.05499457 -0.0831741 0.08650968 -0.05524823 -0.024336334 -0.017946362 0.03393855 -0.05373389 -0.0023126865 0.018202027 0.07875232 0.00951665 -0.017629256 -0.11715248 -0.02933355 -0.014676421 0.003221579 -0.0072409124 0.008104329 0.11595354 0.005782015 -0.081178345 -0.07896143 -0.013000775 0.018410172 -0.055158667 -0.019521423 0.02291556 -0.032705538 0.06937057 0.026731139 -0.09488418 -0.016578807 0.032399945 -0.0017161851 0.002528126 0.060037527 -0.047239345 0.09799834 -0.0251481 0.06635202 -0.05516333 0.058089666 0.100647815 -0.06440457 0.15832669 -0.009962826 0.039310403 -0.041972432 0.027143806 0.015646882 -0.09121194 -0.027115326 0.0375919 -0.036234107 -0.03161044 0.05487291 0.02289902 -0.0077803233 0.0042908443 -0.11277044 -0.10985515 -0.14471154 0.0038622054 -0.01968124 -0.0047298507 -0.02694661 0.07207772 0.067241125 -0.060793117 0.013642138 0.040875647 0.0080579305 -0.019169254 -0.04692719 0.012518416 0.005411249 0.0608029 0.05866488 -0.10498862 -0.08949945 -0.013850765 0.07450691 0.091577284 -0.08834476 0.0051833238 -0.0014387144 -0.044188492 -0.020764671 -0.07253493 0.120944135 -0.02367639 0.022271825 -0.04722768 -0.08011925 0.04239101 0.042899344 0.005642809 0.041422337 0.023953093 -0.16189466 -0.072286606 -0.013846159 0.094438136 -0.07358399 -0.0016037626 -0.040924385 -0.03249068 -0.055060297 -0.03803381 -0.111197494 0.018222025 -0.061873574 0.05889946 -0.026599307 0.0034173173 -0.06685309 -0.07603617 -0.07369551 -0.039397743 0.056778736 0.01824525 -0.033441264 -0.051367626 0.02913557 -0.0730311 0.06150132 0.05275758 -0.022161294 -0.062103294 0.027445035 0.06745869 0.019869698 0.16721603 -0.0016053808 0.005168637 0.02814243 -0.02236347 -0.022940293 -0.0059061493 0.12973277 -0.023865972 -0.06494501 -0.020490546 -0.03840493 -0.05320952 0.058050532 -0.0035925996 -0.04703683 0.0888633 0.048135374 -0.053458024 -0.068123564 0.08356793 0.08113893 0.09532434 -0.09229166 -0.119715184 0.11795957 0.03211344 -0.022866052 -0.021108301 -0.054283578 0.03148422 0.09352489 0.0044595706 0.067249045 -0.04831339 -0.024950093 -0.037465204 -0.084994726 0.0408237 0.0054829903 0.05621601 0.06139302 -0.0014305481 0.058394838 0.05862818 0.011664552 -0.048890803 0.081206545 -0.07063856 0.04704104 0.11040393 -0.08672396 0.030383414 -0.0038886147 -0.06583587 0.009673901 -0.053243827 0.007431186 -0.07030495 -0.0381275 -0.04281727 -0.006129058 0.057728406 0.030534487 -0.049969133 0.009777418 -0.041765563 0.06836358 -0.08082838 -0.043003637 -0.018094476 -0.045066793 0.086318254 0.0571288 -0.0011458857 0.011790187 0.06830399 0.14776559 -0.04180417 -0.04340617 0.050160576 0.017424777 0.020296803 -0.02937386 0.0037804898 0.08221692 -0.007467483 -0.019054886 -0.07397184 -0.06770629 0.08750028 -0.0019972466 -0.058799237 0.16050445 -0.011908609 0.07434417 -0.013391167 -0.09858718 -0.018984718 -0.024104819 -0.056774054 0.02159078 -0.049327224 0.027563114 -0.036184784 -0.0066491556 0.018755184 0.020288128 -0.0482588 0.025187565 0.068311304 -0.020070754 0.024149928 0.006893932 0.096660994 -0.19378003 0.0078086844 0.0463258 -0.057000346 -0.014076247 0.07697044 -0.10163785
27 0.06571766 -0.011538856 0.036091037 0.058316182 -0.03061622 0.04310225 -0.017154533 -0.046634637 -0.026880413 -0.036356404 -0.09435658 0.086291015 0.03637564 -0.020564381 -0.03917703 0.0011463915 -0.046186484 -0.015661424 0.04129412 0.016890703 0.05568867 -0.07891304 -0.014423305 -0.057650715 0.041220266 0.052556336 -0.035469215 -0.015447546 0.0043797754 -0.11612371 0.054330137 0.06776084 -0.051359348 0.0015372736 0.023284372 0.0070188968 -0.0374111 0.06696406 0.026369058 0.014247036 -0.065111294 0.06625441 0.018683046 0.013192074 0.13464051 -0.13384001 0.16238146 0.012084402 -0.077184096 -0.06338848 0.0044406955 0.10666317 -0.04647904 -0.082937986 0.052024677 0.03586433 -0.06064521 0.07577648 0.11465846 0.00044445813 0.010059518 -0.026130753 -0.109699614 -0.13629776 -0.03096783 -0.033570822 -0.03187921 0.0035106149 0.073858045 0.11194455 0.015304468 -0.039203096 0.06548615 -0.0020605219 0.00095853413 -0.07101832 0.046538226 -0.07095935 0.071468696 0.0048600584 -0.04180955 -0.014278572 0.043808706 0.03260093 0.0022987472 -0.0022345076 0.072074205 -0.09771129 -0.07086064 -0.058795203 -0.1141205 0.050329495 0.08441787 -0.03894743 -0.067409724 0.03509308 0.061259244 0.0724718 0.010545303 0.101045854 -0.016527591 -0.15306301 -0.03980227 -0.07053519 0.044956677 -0.04291286 0.060943626 0.039639775 0.0069372123 -0.05113207 -0.028423978 -0.061568547 -0.008564292 -0.043808788 0.08478588 -0.025983237 0.072310485 -0.05832574 -0.010207928 -0.08526356 -0.078111775 -0.036709648 0.01976281 -0.03351903 0.021139253 0.03364805 -0.03786473 0.064044565 0.07349743 0.04092477 -0.08063951 0.0711358 0.11499024 -0.026338657 0.15762106 -0.040708695 0.02464164 0.006151768 -0.02656133 0.0050513316 -0.07641465 0.13680807 0.05570957 -0.054612685 -0.0014152654 0.028677097 -0.09024264 -0.0024127725 -0.008394388 -0.06618361 0.10493538 0.03409596 -0.07493233 -0.07187603 0.06521258 0.06750323 0.030220268 -0.087091856 -0.10201364 0.13346253 -0.01416234 -0.028394258 0.0027369703 -0.02425642 0.04832075 0.026149869 -0.010322129 0.013841222 -0.0691394 -0.096523955 -0.005011603 -0.034839932 0.079220936 0.031308357 -0.0074409624 0.032014888 0.028009327 0.094209395 0.16442873 -0.023443453 -0.060160443 -0.02799691 -0.07310087 -0.005239279 0.06855861 -0.03297112 -0.013158226 0.09765225 0.016759127 0.010883281 0.0044474187 -0.0011438662 -0.031238638 0.032787975 -0.12842624 0.03768369 0.054476906 0.025825374 -0.012669473 -0.035879266 0.015471326 -0.056326143 -0.045361865 -0.03747658 -0.02233363 -0.04059824 0.12487214 0.032771572 -0.049504675 -0.0073831365 0.05482546 0.1390127 -0.06696437 -0.014405574 0.09728074 0.046051346 0.052847587 -0.053862482 0.06656186 0.021217154 0.008809558 0.03628478 -0.03542945 -0.046946637 0.031983715 0.03614564 -0.048325375 0.15645258 0.038231667 0.105041236 -0.034247745 -0.10434889 0.02268036 0.018163338 0.00958086 0.012377521 -0.009233186 -0.011982755 -0.052113503 -0.032533754 -0.042608354 0.008802287 -0.056558352 -0.07132769 0.07954902 -0.054272886 0.0014401907 -0.054100584 0.060579933 -0.19056073 -0.0014702965 -0.0294134 -0.092237234 0.04536988 0.17329736 -0.089067936
12 0.049991176 0.07352882 -0.07275397 0.0823883 -0.022189243 -0.069858216 -0.1154748 0.0005050522 -0.078463964 -0.035654053 0.059986867 0.051903598 0.041375317 0.0107814 -0.07462085 -0.035211727 -0.032331023 -0.026693283 -0.008907307 0.031708684 0.11827266 -0.021057028 -0.06385337 -0.06888826 0.015857216 -0.073105134 -0.010522125 -0.040369328 0.04351377 -0.008410123 0.122537255 0.01228399 -0.08410544 0.024885686 0.022379136 -0.018357767 -0.0186946 0.011002687 -0.0755893 0.0964605 -0.092674576 0.045951627 -0.057291225 0.03557482 0.06677962 -0.017743332 0.16033891 0.022312656 0.0721735 0.006133178 -0.0041791215 -0.015297445 -0.12446035 -0.06433527 0.020193413 0.012770281 -0.041717075 0.058944013 -0.020787848 -0.0015598462 0.007661253 -0.09507637 -0.06675943 -0.16097692 0.041297328 -0.008855689 0.039016534 -0.028136162 0.031807248 0.0035512173 -0.0931635 0.033139195 -0.021980736 0.030622253 -0.0028413169 -0.0416335 -0.01610327 0.039259233 -0.0063216854 0.0465521 -0.080762155 -0.1321562 0.015706439 0.0272912 0.113777526 -0.06426402 0.010440482 0.024413109 -0.048711922 -0.0069371094 -0.031273983 0.109955676 -0.037381202 0.06337698 -0.039626177 -0.096889034 -0.005687282 0.07764571 0.09390162 0.09572352 -0.002155739 -0.08528308 -0.021014225 -0.012283881 0.13002303 -0.04430815 0.005175374 -0.029705865 -0.011738688 0.02845883 0.03393422 -0.12953672 0.09081187 -0.02526686 0.050313972 -0.053776544 -0.056861047 -0.09095157 -0.04250209 -0.087325305 -0.0635132 0.092497304 0.030083837 -0.06626836 -0.04761401 0.02092952 -0.023783375 0.043871265 0.03351589 -0.045087148 -0.058658928 -0.0059837163 0.019271342 0.010568202 0.15291187 0.014823065 0.031369474 -0.008504285 -0.0300788 -0.030880468 -0.03231283 0.1082419 -0.025538275 -0.014149183 -0.029272888 -0.036935724 0.004999983 0.10223136 -0.04649439 0.047905844 0.10231715 0.069658406 -0.027562324 -0.061239418 0.027891252 0.0760633 0.09247022 -0.11725079 -0.12736455 0.14452362 0.06310724 -0.039856005 0.034204096 -0.07754153 -0.021733297 0.08971801 -0.049154624 0.117825575 -0.092347875 -0.08798901 0.0023433447 -0.08653157 0.048486445 -0.0017961494 0.021941159 0.02505357 0.068826795 0.028802082 0.044076554 0.019016765 -0.078593984 0.09427033 -0.061949413 0.054112386 0.096594624 -0.04187969 -0.006503545 -0.028294418 -0.07038879 -0.008456324 -0.007484697 -0.016427672 -0.061101247 0.008427594 -0.057492796 -0.06149598 0.060725175 0.05537388 -0.0460365 -0.009335518 -0.031769473 0.09493064 -0.023252333 0.08957022 0.011280602 -0.07682297 0.100253284 -0.022401974 0.026425019 -0.03529287 0.043380298 0.13379352 -0.06891752 -0.08824496 0.07418136 -0.021857675 0.019626956 -0.056566138 0.02215867 0.031061223 -0.05472814 -0.019045558 -0.06193433 -0.028091593 0.08631905 0.018181136 -0.020235416 0.07940796 0.03058182 0.026324032 0.0014263883 -0.06492976 -0.02237099 -0.041359723 -0.053060576 0.013387578 -0.059400007 0.016226165 -0.056079186 0.011208754 0.03753164 0.0018369359 -0.050811175 0.049598895 0.01812577 -0.034278966 0.025002327 0.0031629726 0.08493306 -0.15225525 0.018772438 0.08362256 -0.014064224 -0.013809013 0.071891055 -0.09341919
19 0.05173116 0.044644903 -0.052758094 0.094705835 -0.075604334 -0.027597379 -0.071815014 0.0058575636 -0.02719144 -0.0794984 -0.0069477037 0.010955011 -0.017765963 -0.024249928 -0.11282759 -0.051696166 0.0019689172 0.025393637 0.025162393 -0.0127545465 0.13971509 0.013054302 -0.093556345 -0.06369682 0.0057896767 0.04956546 -0.14910686 -0.01880962 0.03395302 -0.006026518 0.13857645 0.028379668 -0.06749188 -0.05830922 0.001324495 -0.018805228 -0.03158742 0.06872284 -0.071837015 0.027943486 -0.010200791 0.027768625 -0.025363633 0.048677877 0.11896497 -0.06900694 0.2308093 0.042289466 -0.0039994656 -0.023807524 -0.037913665 0.069205806 -0.13778943 -0.07626285 -0.019582931 0.0038749492 0.005653953 -0.005484312 0.05279158 0.050400224 0.023319399 -0.09441717 -0.023979582 -0.11110065 -0.015483272 -0.011832122 -0.018738853 -0.064874955 0.04156414 0.06726063 0.016989216 -0.026154045 -0.011129107 -0.0003927055 -0.055547204 -0.0074024685 -0.034953475 -0.019300634 -0.037713155 0.0048498577 -0.020593394 -0.07143156 0.089635566 0.10502881 -0.02326535 -0.021132918 0.014989313 -0.02809361 0.0014209428 0.014414955 -0.029466433 0.099046834 -0.02439885 -0.03038703 -0.06475356 -0.0001765364 -0.0012251855 0.098735504 0.017324915 0.058208395 -0.03957717 -0.16691293 0.004744359 -0.005917096 0.09510659 -0.0072570858 0.03727489 -0.051433735 -0.040774535 -0.0467927 -0.085350834 -0.12992729 0.066030644 -0.10693381 -0.013462432 -0.026357783 -0.007836857 -0.023573078 -0.121383704 -0.1337994 -0.04657518 0.12461996 0.037826117 -0.04822471 -0.025684109 -0.0026561902 -0.032777913 0.100786686 0.11456993 0.004854713 -0.020362774 0.019192973 0.048003253 0.048165813 0.19061483 -0.027803335 0.06456586 0.07429442 -0.07620198 0.021295156 0.015969766 0.14532757 -0.0054230075 -0.050203726 0.018270174 0.06655819 -0.086522184 0.040920667 0.037600994 0.006043775 0.035227906 -0.002937651 -0.1305521 -0.065537825 0.05136698 0.05752041 0.027534883 -0.08459044 -0.11560909 0.13875636 0.004678452 -0.038852084 0.007508571 -0.03289923 -0.035549726 0.091884226 -0.045608718 0.076026954 -0.043543596 -0.053149942 -0.095846236 -0.05649867 0.09707909 0.049878623 0.04603278 0.06344134 0.009518001 -0.0057811183 0.05174418 0.026484936 -0.07587811 0.09361351 -0.102902256 0.06369021 0.079585604 -0.037710935 -0.04528943 0.067205496 -0.025545394 -0.035767082 -0.06363588 -0.010284749 -0.09900029 0.00554292 -0.015363623 -0.021069279 0.11521307 0.0033212698 -0.10708417 -0.03188268 -0.0150555 -0.0417424 -0.03677762 -0.094514914 -0.040524334 0.027825842 0.032305688 0.036307547 0.046656903 -0.054120254 0.08728153 0.16050924 0.051094808 -0.10190034 0.081222504 -0.04659029 -0.017136645 -0.015509959 0.08388785 -0.022069773 -0.018540643 0.046656433 -0.1299119 -0.0854893 0.06825875 -0.006547163 -0.038169153 0.1267613 -0.029386315 0.070959575 0.00269854 -0.055447634 -0.034109958 -0.0068847868 -0.020191003 -0.015725026 -0.12465291 -0.048441377 -0.08681709 0.042619396 -0.02364782 -0.0021901857 -0.048770633 -0.021071238 0.11411983 -0.10693692 -0.007041529 -0.02368518 0.07053839 -0.11311029 0.028999653 0.05145349 -0.03459897 0.04653883 0.094510905 -0.11704148
8 0.11398408 0.020135617 -0.09248801 0.060715456 0.01223647 -0.06961555 -0.09740376 0.03859733 -0.051089134 -0.057270307 0.07192412 0.089199975 -0.025332978 -0.0393762 -0.12865037 -0.14481433 -0.07918537 0.037638236 0.020284522 0.041225303 0.12178564 0.07856444 -0.06879233 -0.046229977 0.06527766 -0.033383034 -0.09115298 -0.06067274 0.038191512 -0.09560271 0.08275013 -0.04291251 -0.06435953 -0.002461126 0.0067109857 -0.025868328 -0.044609055 0.08184965 -0.0032256367 0.028678184 -0.0055455617 0.026472945 -0.13173014 0.08654851 0.07134685 -0.10360603 0.20169686 -0.00032530987 0.009435412 -0.010523311 -0.0005234506 0.09340329 -0.029158372 -0.035519686 0.1013006 0.0047833724 -0.033228766 0.053020213 -0.039428163 0.011806248 0.0022046126 -0.07562943 -0.027896972 -0.08531039 0.05998792 -0.0070700967 0.013907701 -0.01834411 0.09736148 0.008423917 -0.004706425 -0.034005787 0.014676918 -0.049102545 -0.024569085 -0.014359954 -0.015370473 0.044097837 -0.009583098 0.11464536 -0.058273934 -0.16360721 0.01600177 0.008179898 0.08275687 -0.06816312 -0.022252392 0.035042558 -0.094747 -0.1063668 -0.071174495 0.11099235 -0.027634265 0.01225991 -0.06833445 -0.12594523 0.04261297 0.034216776 0.102413505 0.032741353 -0.08901356 -0.12691237 -0.027382182 0.02062921 0.01705394 -0.116736375 0.03761939 -0.043275315 -0.050366923 0.025466418 -0.05065273 -0.08367533 0.059015937 -0.16165689 0.05172047 -0.050774626 -0.019676208 -0.0806175 -0.02566573 -0.06473439 -0.06947891 0.09878581 0.029273756 -0.04899019 -0.04805429 0.038060654 -0.045495704 -0.00019681273 0.039048616 0.07146768 -0.025759563 -0.012050156 0.025004715 0.08948164 0.11765906 -0.026852217 0.09188323 0.07419505 -0.0017719077 -0.0036080459 0.054935638 0.065208234 -0.04363674 0.05912005 0.031838674 0.03881396 -0.06652165 0.118529454 -0.020681014 0.056825753 0.0355227 0.08402809 -0.043885626 -0.0946444 0.032079 0.00024644096 0.040318307 -0.13859467 -0.12270682 0.13315086 0.036164925 -0.049003866 0.019895379 -0.10995814 -0.06427815 0.0034572193 -0.091509655 0.11412188 -0.11893148 -0.009940113 -0.022920419 -0.08328161 -0.019157337 0.025793625 0.043084692 0.065900825 0.013457712 0.019019442 -0.039319653 0.00858977 -0.0025428194 0.026332978 -0.005770987 0.021870524 0.067741446 -0.012357582 -0.07485909 0.04217793 -0.05314521 -0.0266278 -0.090325035 0.039651148 -0.09056618 0.0058228387 -0.08522472 -0.0623878 0.03148108 -0.0028889792 0.0071328003 -0.012983646 0.042134013 0.08360758 -0.06705276 0.059830472 0.074698225 -0.010493263 0.14571059 0.0011342635 -0.052249685 -0.003435156 0.042183563 0.05205823 -0.04439135 -0.13349815 0.09543811 -0.017809978 -0.016731948 -0.0586297 0.044342313 0.07881981 -0.051344737 0.084584035 0.023199176 -0.037726562 0.06433199 -0.03516932 -0.0085063465 0.105656356 0.046150845 0.004855579 -0.011790678 -0.09836398 -0.10384123 -0.12756167 -0.09083983 0.0043548564 -0.019565096 -0.02328739 -0.062040016 0.01788023 0.06193039 -0.02287532 -0.048300855 0.033480797 0.10543776 -0.083866835 0.00317457 0.027669528 0.06738461 -0.048529647 0.06784254 0.1291857 -0.05582445 -0.029948046 0.17951591 -0.07515007
36 0.07456834 0.03523333 -0.06216423 0.081515 -0.018348318 -0.01727523 -0.015521399 0.02553492 -0.042742644 -0.021979379 0.015570041 0.07222183 0.0068931053 -0.02579619 -0.070268415 -0.049491677 -0.06953679 0.008462952 0.030612348 0.005868215 0.100906976 -0.010054012 -0.034547936 -0.07592684 0.014566499 -0.014367566 -0.048391387 -0.031750165 0.02411566 -0.08146395 0.039300207 -0.005202842 -0.0856412 -0.026861941 -0.0008126905 -0.0036576586 -0.025404053 0.06974857 -0.04030072 0.057941347 -0.07433053 0.07073337 -0.028788544 0.04711636 0.07303177 -0.09103218 0.15932469 0.020691853 0.04048731 -0.046626672 9.578285e-05 0.050969563 -0.04354995 -0.044523146 0.028053178 -0.003614838 -0.04617822 0.094772935 0.047870938 0.013365095 0.031198272 -0.08179612 -0.090019815 -0.12046257 -0.021293623 -0.024428891 0.016514463 -0.031423613 0.072671324 0.074335165 -0.01583359 -0.012220323 0.029288841 -0.027040713 0.0051914193 -0.037238955 0.0025299855 -0.01464929 0.035014197 0.056998994 -0.06993281 -0.09582368 -0.010225541 0.025691714 0.06968697 -0.07583882 0.0050769225 -0.0018132755 -0.060936987 -0.02328978 -0.04728996 0.12933852 -0.00070591504 -0.00095810974 -0.055598658 -0.06958715 0.07058456 0.060374808 0.025818182 0.059756692 0.014524483 -0.13328955 -0.052183136 -0.002587868 0.10923768 -0.0965638 0.017890599 -0.032316066 -0.03268411 -0.010931303 -0.009345727 -0.118557185 0.010063751 -0.07739177 0.037441976 -0.035432227 0.0048393784 -0.07682478 -0.035380147 -0.08098179 -0.06865174 0.043488566 0.05096512 -0.044636425 -0.042982128 0.011157121 -0.05523487 0.031043913 0.06698981 -0.028986085 -0.03730782 0.015584705 0.09412549 -0.0043837302 0.12505397 -0.029669452 0.018525464 0.0066823703 -0.011151738 -0.013460097 -0.035729036 0.11812804 -0.019612497 -0.055270113 -0.013259518 0.017043378 -0.008682075 0.036386862 -0.026064772 -0.027179442 0.08875493 0.036483638 -0.0433409 -0.044637647 0.0796603 0.043084968 0.046969187 -0.07326557 -0.099323414 0.13682415 0.03825628 -0.0174882 0.007453311 -0.06423927 0.01729517 0.09341664 -0.01825268 0.0687166 -0.088468105 -0.045431077 -0.024818875 -0.059634075 0.03547972 -0.016949723 0.038863365 0.038509365 0.023149284 0.08285792 0.05455903 0.013658865 -0.04751685 0.025376258 -0.05272472 0.03212651 0.08388135 -0.068769075 -0.011197794 0.016503464 -0.032649238 0.0074707614 -0.042527933 -0.0051718457 -0.0404765 -0.03893406 -0.09252468 -0.023607448 0.044840958 0.05196739 -0.021449264 -0.01233135 -0.027239943 0.06571784 -0.062295754 0.029630918 0.0032984326 -0.060479548 0.104856685 -0.013072897 -0.047257844 0.025118329 0.0567865 0.105137095 -0.07727726 -0.050348364 0.07954203 0.0073862257 0.051039923 -0.06445641 0.05384852 0.05911484 -0.0124397315 0.016425772 -0.059892897 -0.06545757 0.059630815 0.001619795 -0.0056819227 0.16678374 0.036561396 0.055179857 -0.013938281 -0.10430377 -0.010656948 -0.016828462 -0.04230804 0.009153363 -0.01981384 0.007979358 -0.061041806 0.00039318448 0.019375402 0.012871434 -0.03514322 0.011362695 0.07014477 -0.034908902 0.012398662 -0.01797766 0.05437736 -0.14446503 0.028300114 0.04165627 -0.051642384 0.015875367 0.111734346 -0.10515443
9 0.06090779 -0.047420222 -0.046756532 0.019968199 0.041576166 0.019251062 -0.0533217 -0.00968768 -0.060185634 -0.023425143 -0.04191616 0.08022809 0.018740183 -0.031391546 -0.04338953 -0.088507436 -0.08269815 0.020457305 0.13396765 0.030983604 0.049589343 -0.015717318 0.0010216167 -0.046041783 0.020657228 0.01111061 -0.061781473 -0.12496046 0.022041086 -0.06313991 0.018569376 -0.013699166 -0.09800805 -0.068383366 -0.016439144 0.010133799 -0.022025503 0.10641228 0.009434818 0.046612266 -0.110025555 0.049817596 -0.018156674 0.07692825 0.073598534 -0.11676282 0.20867546 0.035460606 -0.058455303 -0.07153834 -0.04258865 0.116143316 0.0039832643 -0.06305069 0.023006914 -0.009771732 -0.0800919 0.11555364 0.06761129 0.03299757 0.0034076949 -0.040917218 -0.09601081 -0.08871615 -0.01785411 -0.0077572837 -0.021348743 -0.052418154 0.056384217 0.076401405 -0.015511963 -0.018921783 0.025495306 -0.041980777 -0.0201083 -0.0015726871 0.0246571 -0.014725228 0.022824477 0.057528056 -0.07174041 -0.073474064 0.0066871005 -0.004537873 0.01714046 -0.037798777 0.015394145 -0.016221918 -0.10786197 -0.098401934 -0.08409502 0.07640533 0.03795374 0.009436164 -0.030427445 -0.08861701 0.078870595 0.0053417077 0.03076655 0.038183086 -0.04563524 -0.081871875 -0.0066118296 0.0024691706 0.053505484 -0.085648425 0.063204415 0.004056669 -0.028773552 0.02191419 -0.020288378 -0.05160977 -0.010239194 -0.11878094 0.038585953 -0.035331197 0.052079685 -0.066464014 -0.039680887 -0.08389638 -0.046302743 0.059911553 0.06517586 -0.07119386 -0.041081484 0.006633286 -0.029729823 0.056651883 0.04582697 0.030362254 -0.06825599 -0.007068258 0.107573554 0.043770418 0.13782087 -0.04653443 0.12830584 -0.0063719284 -0.004192346 -0.0036110857 -0.040395178 0.13677403 -0.008101943 0.01619304 0.06219012 0.044551954 -0.0034445787 0.013293653 -0.02610604 -0.009668085 0.05934768 0.025410581 -0.02097718 -0.076051705 0.08568335 -0.014451943 0.04929293 -0.052387077 -0.046314307 0.123118944 0.011421322 -0.022400655 0.015973657 -0.10804844 -0.0065694656 0.06194304 -0.060737018 0.08437165 -0.03715726 -0.045678794 -0.04084393 -0.069630966 0.05404682 -0.023404265 0.037113648 0.08047407 0.016662188 0.09527056 0.06966751 0.07989968 0.030439502 -0.0016084721 0.022537991 0.065464534 0.047799625 -0.034147397 0.0023207252 0.07635024 -0.0065896586 0.022772634 -0.051658455 0.041484058 -0.05263184 -0.004174305 -0.1022346 0.000453068 0.021434426 0.01168536 -0.013788405 -0.04536015 0.008593806 -0.009141449 -0.05773773 0.053569857 0.0047479733 0.0038432232 0.13058712 -0.021506589 -0.019095097 0.03057901 0.030548586 0.056868862 -0.10161132 -0.114832565 0.118199356 0.034431975 -0.0033241508 -0.06988459 0.08974397 0.02436493 0.040066473 0.02791617 -0.025993997 -0.05026103 0.0766221 -0.041691203 0.035158332 0.14790754 0.06600648 -0.016024254 -0.02155046 -0.12868148 -0.027287308 -0.0033582356 -0.019843752 -0.029695509 -0.028664308 -0.051628277 -0.07371825 -0.020813692 0.03328123 -0.0815779 -0.05872843 -0.0023023519 0.0876906 -0.082597435 0.011235155 0.006619268 0.056013376 -0.07543275 0.04883056 0.049978197 -0.071544535 -0.006981662 0.13888288 -0.08420568
31 0.04784585 -0.023223042 -0.025852095 0.03374718 -0.0035839567 -0.009938324 -0.045295235 -0.052598618 -0.049153116 0.07737024 -0.06824018 0.07678276 0.023567325 0.02785863 -0.026049703 0.020612992 -0.040376402 -0.07402619 0.073066585 0.048423935 0.08425873 -0.07326409 0.0014524303 -0.06187505 -0.012024159 -0.038608875 0.01989081 -0.06588843 0.03700073 -0.02378748 0.021873439 0.04880763 -0.09696741 0.028997129 0.042517565 -0.010032812 -0.008872598 0.021690296 0.051536564 0.060227316 -0.09088887 0.06695023 0.041278202 0.055797115 0.12210241 -0.045326576 0.18203907 0.0053538056 -0.0405965 -0.059648544 -0.01761968 0.055759855 -0.058678675 -0.05996177 0.060564008 0.034504984 -0.09520628 0.11068072 0.031484 0.06201815 0.023154235 -0.09063832 -0.12149709 -0.103998765 0.032143738 -0.04180142 -0.024968939 -0.085637204 0.05097319 0.07973284 -0.08680453 0.041500155 -0.0031351754 0.08090996 0.020781135 -0.02503722 0.07153486 -0.014936309 0.03035524 0.017663406 -0.049670614 -0.052595496 0.018254234 -0.008289686 0.01782026 -0.054708447 0.00075834844 -0.032939028 -0.061089493 -0.08266171 -0.034663375 0.048773732 0.061714504 0.08783408 0.03280968 -0.056146614 0.01273237 0.067807384 0.06362127 0.11551909 -0.026486779 -0.0009969486 0.043217152 -0.047161132 0.17609477 -0.017862085 0.035674572 0.010020756 0.023829164 -0.0009061524 0.06287071 -0.07899987 0.011026044 0.009344739 0.05070697 -0.026192814 -0.05403464 -0.08798258 -0.03037413 -0.10192683 -0.039546777 0.03387198 0.002282672 -0.057463657 -0.061597668 0.0056501846 -0.0013561274 0.05042306 0.03671228 0.014716935 -0.06932378 0.07038537 0.1571445 -0.015301897 0.17863967 -0.040688545 0.028790565 -0.03337341 -0.048454642 0.014591447 -0.1045111 0.14360371 0.054931592 -0.0007708731 0.038291514 -0.02793691 0.060725674 0.03320693 -0.012895055 -0.010603497 0.12810758 0.041953657 -0.01765374 -0.027715493 0.040952004 0.031324293 0.054455664 -0.076226294 -0.070618205 0.16376032 0.04093718 -0.024837445 -0.042562816 -0.08956329 0.046867177 0.0766559 0.012149887 0.04351292 0.009335424 -0.10571886 0.03189315 -0.06636436 0.13317354 -0.032623537 0.03787543 0.0034001847 0.023199389 0.074349895 0.10482332 0.05094644 -0.010280912 0.049091596 -0.08623872 0.049491916 0.07988643 -0.00499658 0.032334615 0.044728406 0.024235198 -0.012973991 0.007673786 0.004349847 -0.015587086 0.0131216105 -0.06466328 0.059320584 0.010194699 0.07341558 -0.09285737 -0.054520003 -0.049106166 -0.048664067 -0.020793062 0.025075836 -0.045608252 -0.07372578 0.065135896 -0.0139653385 0.016152842 0.011260488 0.049224194 0.1004254 -0.13207492 -0.10404715 0.06700774 0.006937366 -0.018571837 -0.076700345 0.026880665 -0.02569437 -0.0017424925 -0.068799615 -0.09486435 -0.011129363 0.0778739 0.07185934 0.05063357 0.12468615 0.012510604 -0.015591536 -0.013990362 -0.09517225 0.025831724 0.063958876 -0.025771476 -0.0054426184 -0.064801715 0.01560364 -0.059457865 -0.054028153 0.041977018 -0.081229284 -0.08098621 -0.05343483 0.06117068 -0.012107804 0.007980528 0.036515348 0.028259974 -0.13089427 -0.025085853 0.0029028752 -0.019567696 -0.03522153 0.099002436 -0.11556409
48 0.047707397 0.06009905 0.03587029 0.041931685 -0.06395236 -0.00042456939 -0.05736892 -0.015450072 -0.05547236 -0.010967433 -0.028823584 0.07920278 -0.009056503 0.052508123 -0.11077632 0.03646128 -0.03650984 0.0061219996 0.08851703 0.016856963 0.1524036 -0.041183226 0.022385102 -0.047983855 0.0004858356 0.029642029 -0.059874184 -0.04582063 -0.004291792 -0.09141842 0.012984223 -0.0152634075 -0.04574815 0.014702845 -0.01245056 -0.023061091 -0.05062375 0.1308042 0.06259873 0.031618733 -0.07822322 -0.03844701 0.06066284 0.0826088 0.07452086 -0.09635811 0.108128406 -0.03857594 -0.01434091 -0.026230263 -0.02544369 -0.010578749 -0.029760338 -0.062943876 0.032311246 -0.00032170175 -0.09587537 0.09531034 0.056265317 0.0355994 -0.06720161 -0.09503888 -0.09109849 -0.043412607 -0.038746256 -0.035151143 0.012585319 -0.08634037 0.106945686 0.05200631 0.03752517 -0.04886679 0.058252435 -0.099216804 -0.0022551205 0.012485563 0.02493208 -0.07429834 -0.009279065 0.105601475 0.0016285116 -0.036069598 0.02525888 -0.08031222 -0.039684568 -0.045975666 -0.01809854 -0.051769532 -0.044819366 -0.082400285 -0.087787785 0.031790935 0.06315007 0.03293462 -0.0074463584 -0.011052337 0.021883016 0.047132596 0.10497889 0.01818371 -0.01912165 -0.067998014 0.0006935665 0.048892632 0.06262221 -0.0017083341 0.06370432 -0.007874573 0.018771807 0.04881199 -0.056249898 -0.16388243 0.060367294 -0.08303246 0.00044350274 -0.080600575 0.089589246 -0.04523222 -0.03767565 -0.08001798 -0.04034653 0.036520813 -0.041106936 0.0007313951 -0.024654746 -0.034823578 -0.04641125 0.017465856 0.083885215 0.031009912 -0.061913155 0.003435231 0.14788851 0.025698354 0.13417119 -0.08361635 0.06720965 0.021579312 -0.048072092 -0.044383083 -0.006520804 0.09289008 0.05028828 -0.043455843 -0.015630864 0.052629888 -0.03494934 0.056499373 0.017238028 0.02959942 0.0463791 0.11736129 -0.09095975 -0.046235994 -0.004652228 -0.008659332 0.033176027 -0.01076184 -0.091057256 0.13935533 0.02590235 -0.016878687 0.030281367 -0.06966083 -0.007046284 0.08623561 0.027738767 0.054646164 -0.019471567 -0.021929083 -0.032585934 -0.0129604 0.10975507 0.0345412 0.10347927 0.07241698 0.06466931 0.048639476 0.08705354 -0.014025142 -0.018526195 0.015234438 -0.047068104 -0.030137299 0.04000371 -0.09680539 -0.07717156 0.12355108 0.078621805 -0.011447915 -0.046980117 0.041228242 0.031144077 0.0055750483 -0.035308328 -0.0063347043 -0.040642906 0.048034664 -0.009192577 -0.062452752 0.045460023 -0.035186175 -0.05068408 0.007842201 0.053648308 -0.017868102 0.17332266 -0.023370137 -0.04108555 -0.0020631521 0.01806945 0.12554064 -0.06565696 -0.09388307 0.029504495 -0.024582196 0.026292253 -0.044229675 0.025949461 -0.057792857 0.010618105 0.05314088 -0.039031763 -0.03059177 0.024215342 0.058746405 0.058696587 0.15934312 -0.005575335 0.059992366 -0.05943543 -0.15008976 -0.009455849 0.028987678 -0.04331942 0.024319723 -0.043529607 -0.027718393 -0.05419224 -0.02185478 0.033019602 -0.069792084 -0.055687528 -0.11630273 0.06390225 -0.016298901 0.05975113 -0.0012421703 -0.040631387 -0.061915923 -0.040677607 0.09151228 0.05457274 0.025513057 0.10001896 -0.060909446
23 0.05910992 0.027666673 0.04585508 0.015512377 -0.038975023 -0.0101129785 -0.055888712 -0.04268307 -0.0022283872 -0.046399996 -0.02359418 0.0059066904 -0.018945267 0.023960862 -0.11991342 0.03882856 -0.027843835 0.01794482 0.03929462 0.07755406 0.13168992 -0.06964643 -0.05245196 -0.025502518 0.05972349 -0.09855683 -0.032541912 -0.0784855 0.029323153 -0.085260466 0.07165857 -0.051307164 -0.010953891 0.019098166 -0.013372421 -0.019194929 -0.041623585 0.059544746 0.040370654 -0.04582508 -0.12784627 -0.044121876 0.012365199 0.06725523 0.088690035 -0.06729023 0.106083706 -0.06786752 -0.03720515 -0.020852525 -0.06261829 0.044575833 -0.10095979 -0.12731224 0.07941626 0.02290639 -0.05001378 0.11291562 0.057212543 0.050880585 -0.06274498 -0.074191354 -0.03113568 -0.09091832 -0.0553961 -0.046272147 0.08230543 -0.09489651 0.11273546 0.061731905 0.002788661 -0.048942707 0.062183835 0.03618858 -0.025274364 -0.016469972 -0.048857637 -0.026490258 0.060817916 0.05970187 0.03288871 -0.08472316 0.049719993 -0.095880084 0.028391408 0.009717827 0.0245472 -0.08214624 -0.02630721 -0.08261431 -0.07782875 0.051266167 0.037211906 0.00012096289 -0.032149788 -0.04237233 -0.032624632 0.089126766 0.13721675 0.09089731 -0.09627805 -0.03265427 0.025999429 0.041918684 0.08684971 -0.0012460493 0.06665244 0.07763928 0.038366534 0.07005532 -0.07914295 -0.13931242 0.11273608 -0.062909424 0.011388842 -0.12126287 0.021555766 -0.012354611 -0.0877425 -0.12997323 -0.090149835 0.005564328 -0.026729202 -0.0070432574 -0.021851411 0.023315337 0.008086278 -0.013737648 0.079717614 0.09433652 -0.053972747 -0.01523172 0.010984673 0.061860714 0.15503775 -0.098886944 0.09517329 -0.0063946336 -0.03686077 -0.024650356 0.017790673 0.05895266 0.06286251 -0.03789859 0.031451076 0.09520437 -0.023035152 0.014498627 -0.046321705 0.03855372 0.055104654 0.13320261 -0.14633477 0.006777649 -0.096243344 0.034870647 0.056462284 -0.07909877 -0.07708385 0.13549675 0.009458303 0.007411529 0.012025328 -0.088191 0.009438223 0.026846686 -0.029511932 0.022385811 -0.080092244 -0.037620045 0.0031032371 -0.06789324 0.09238549 0.04667222 0.056466695 0.08726726 0.08427799 -0.00269847 0.088433936 -0.008805976 -0.059316292 0.043269403 0.002991914 -0.034141377 0.0862653 -0.021174967 -0.13766894 0.18716878 0.0811193 -0.019988328 -0.0065272325 0.021566182 -0.033372086 0.075648494 0.025563221 -0.0140435705 0.001902782 0.076790206 -0.014550163 -0.021529367 0.031394184 -0.02477252 -0.0031598639 0.048148163 0.02464829 -0.08733785 0.15064426 0.012099433 -0.026173284 0.019481078 0.020111185 0.121001445 -0.056048084 -0.09027657 0.071442604 -0.053648867 -0.034422617 -0.0766659 0.060940955 -0.031236347 0.016415376 0.13010016 0.013427396 0.00068019045 -0.014827205 0.0681883 0.058946427 0.110445276 -0.04932094 0.07633484 -0.0682864 -0.085652135 -0.0027041635 0.011946481 -0.0055899587 -0.039153513 -0.07373574 -0.054109756 -0.006297804 0.011049203 -0.002605252 -0.05559333 -0.028911643 -0.105550654 0.10275801 -0.021327648 0.044436228 -0.040777743 -0.02318522 -0.040890377 -0.065747045 0.004883402 0.004606841 0.044095274 0.12620418 -0.032691568
44 0.08558108 0.07528076 -0.037685253 0.057368517 -0.10737451 -0.02718955 -0.053907573 0.015597315 -0.090002745 -0.022901261 0.10185339 0.017876258 0.014996895 0.035392657 -0.11432846 -0.007993092 -0.004707453 0.02562654 0.034385253 -0.051060036 0.15540248 0.013509753 0.020727187 -0.06790298 0.039721336 -0.021032475 -0.0031616802 -0.03173236 -0.0068019177 -0.07079588 0.061797917 0.053196635 -0.12623146 0.01676764 0.04111063 -0.046441212 -0.026097765 0.012792437 -0.06269787 0.052045297 -0.017742567 0.05316039 -0.08393955 0.028448554 0.12735502 -0.059947718 0.141825 -0.04416753 0.05456859 -0.0214187 -0.014738769 0.06530565 -0.07039544 -0.086447306 0.10651719 -0.010050682 0.05889357 0.021949368 -0.002235477 0.03378145 0.05257079 -0.13926944 -0.045245457 -0.14315006 0.031088306 -0.115914255 0.06064429 -0.021396417 0.11526483 -0.006412056 -0.01642798 0.033401217 -0.045769926 0.020765804 0.01623624 -0.099271 -0.039667506 0.054125857 0.05216043 0.058713477 -0.043673825 -0.13175105 0.02710657 -0.012242487 0.09869506 -0.057001922 -0.027519463 -0.020624341 -0.0019473231 -0.045600884 -0.039252814 0.133486 -0.06804661 0.033961132 -0.062317144 -0.123709045 0.052664593 0.08900376 0.102586 0.060402114 0.032876395 -0.10296219 -0.013157646 0.027726764 0.054877374 -0.07859524 0.028517403 0.0048223087 0.01580205 -0.014175697 -0.089644596 -0.107758425 0.118475005 -0.06605284 0.06425843 -0.061893348 -0.043426096 0.013069203 -0.06964353 -0.1244229 -0.10310779 0.09418998 0.015495373 -0.07246662 -0.049173974 0.0023686967 -0.016731698 0.06940265 0.04795666 0.015712457 -0.010605746 0.025820268 0.051187314 -0.005843132 0.10985018 -0.03278181 0.04180871 0.04077451 -0.032294005 -0.0013292569 -0.031110683 0.1035393 -0.042949762 -0.034027 0.041282598 -0.003953429 -0.04008434 0.06568398 -0.032984 0.019260379 0.121479854 0.11981939 -0.029336685 -0.07153111 0.042714123 0.01448887 0.108406454 -0.10320047 -0.09240734 0.14015861 0.011534334 -0.05978782 -0.032116998 -0.018977612 -0.1092659 0.058748934 0.012756253 -0.0040422045 -0.09799897 -0.039368577 0.009399039 -0.13156682 0.04008402 -0.01124054 0.029216938 -0.06678088 0.055650644 -0.0007445512 0.05046739 -0.049078472 -0.093797825 0.072863445 -0.12017914 0.015466787 0.08920718 0.011568017 -0.046987128 -0.014604938 -0.0967052 0.009837556 -0.0731856 -0.0073095337 -0.07925907 -0.011230316 -0.073454395 -0.076106295 0.049656663 0.0336632 -0.10757156 0.005563152 -0.024088502 0.050155923 -0.008247859 -0.048262652 0.058192812 -0.071089074 0.054701876 0.05623905 0.02091326 0.011390157 0.11667093 0.15437096 -0.088678464 -0.053229004 0.043476973 -0.029803596 0.070071146 -0.03392226 0.011333071 0.00067096704 -0.07004372 0.0043481495 -0.06170232 -0.065279774 0.03807024 0.0407777 -0.03433954 0.12579255 -0.033297893 0.044290133 0.052430566 -0.07335682 -0.043965373 -0.014488154 -0.04160609 0.05397584 -0.008640676 -0.019260237 -0.02190357 0.0007443588 0.01206713 0.011985549 -0.08234048 -0.02192691 0.06634305 -0.066130884 0.06309435 -0.04783635 0.018480195 -0.12579112 -0.044827208 0.15711655 -0.07650135 0.015233914 0.11681927 -0.119651936
47 0.08987451 0.049444713 0.07646322 0.018565385 -0.04870039 -0.014515505 -0.03149601 -0.03873779 -0.016160263 -0.01816822 -0.011475263 0.06440233 0.020210404 0.086693995 -0.1465098 0.02846932 0.0072558424 0.0038384264 0.09284526 0.022533655 0.122980185 -0.1008481 0.036065355 -0.058564752 0.026200654 0.025415678 0.0065873917 -0.033554778 -0.05392214 -0.16360575 0.03610642 0.026246289 -0.020930123 0.012051277 0.060903937 -0.026693344 -0.06429846 0.046931487 0.0134867625 0.007553223 -0.1009448 0.002806401 0.0044884975 0.04439956 0.086870536 -0.104503304 0.0933135 -0.04189633 0.017177692 -0.09241967 -0.043759156 0.010773102 -0.04692977 -0.09621881 0.07869481 0.05412555 -0.03933423 0.10587646 0.036469173 0.04071408 -0.014869355 -0.09910014 -0.111857794 -0.08620938 -0.061135534 -0.025548851 0.019739496 -0.05419637 0.067189574 0.024883956 0.030971741 -0.05823132 0.04927954 -0.024374895 0.013106131 -0.059508234 0.0035875996 -0.080411986 0.04639406 0.06647457 -0.0015220486 -0.025371904 0.03782543 -0.10391819 -0.0054980484 -0.028542517 0.02782916 -0.11370847 -0.023269653 -0.0413436 -0.032455366 0.07966643 0.025973098 -0.042337082 -0.05609316 -0.031922728 0.0028993306 0.092832 0.06909123 0.06569888 -0.0028356018 -0.075333856 -0.037508365 0.045354545 0.10058948 -0.02877357 0.07187941 0.005572038 0.044206858 0.013088048 -0.04888669 -0.14864223 0.047741793 -0.07114461 -0.037014246 -0.09752338 0.046980932 -0.031599347 -0.04629689 -0.0473282 -0.09932186 0.007989548 -0.044808835 -0.048058826 -0.0009969829 -0.030561913 -0.010542523 0.0074487496 0.112481534 0.040304475 -0.009596635 0.02013445 0.10125104 -0.030595051 0.10978244 -0.014945151 0.021159582 0.044104964 0.038047276 -0.033154044 0.0028409725 0.10825684 0.057583965 -0.054657176 -0.06166697 0.023583781 -0.02993407 0.06195336 -0.00926729 0.04565521 0.08143259 0.08367657 -0.062380075 -0.030663261 -0.035028476 0.02516912 0.073449895 -0.0087138405 -0.13759962 0.113968775 0.013794987 -0.010909595 0.021986147 -0.044870686 -0.0050706645 0.09502127 -0.04794058 -0.0045697237 -0.06509616 -0.016573632 0.013801115 -0.0484863 0.07458426 -0.0041608107 0.028563742 0.017707545 0.082407676 0.0074611986 0.12321257 -0.053858705 -0.049521726 -0.014089342 -0.0171556 -0.07718674 0.09360399 -0.09084935 -0.11189097 0.095463045 0.041380286 -0.027067345 -0.013580199 -0.0022017607 0.012454052 0.0065536234 -0.06398008 -0.03896283 -0.0006802421 0.09189099 -0.014622968 -0.06805819 0.01584003 0.002858778 -0.035656787 0.013565456 0.04604349 -0.0828527 0.11850107 -0.032785587 -0.06642586 0.031785406 0.023810301 0.10522421 -0.07153216 -0.078648984 0.011918478 0.0062721116 0.110519305 -0.058329258 -0.02365856 -0.07114024 -0.02947078 0.072116144 -0.059125293 -0.02808695 -0.03000056 0.06339692 -0.010997464 0.1766512 -0.057168435 0.053872436 -0.036368754 -0.11924467 -0.02136709 0.028692966 -0.011191218 0.039175812 -0.02991319 -0.022646703 -0.011792983 -0.034012128 0.018536108 -0.020770064 -0.016992772 -0.054887734 0.04382208 -0.03021617 0.025669903 -0.02812249 -0.026640888 -0.18495466 -0.041023348 0.1082888 0.0060691657 0.074123316 0.09902776 -0.063820586
2 0.05866515 0.0672744 -0.0026156928 0.024295999 -0.029832363 -0.061258327 -0.0549094 0.013596142 -0.07902767 -0.014353875 0.04916176 0.0025179652 0.025405886 0.03510594 -0.10995803 -0.0019502646 -0.047248993 -0.024158841 0.0176923 0.062238965 0.16112751 -0.031939633 -0.009783928 -0.0332548 0.04332968 -0.07331251 0.028169775 -0.067856394 0.03535175 -0.033253178 0.0493087 -0.027668836 -0.08439353 0.033968993 0.01669681 -0.029306544 -0.03636691 -0.019301647 -0.0449271 0.003974365 -0.09661053 0.020514753 -0.058580007 0.036633793 0.107945174 0.0005985136 0.14882405 -0.037200097 0.06751496 -0.003407061 -0.021145573 0.019648338 -0.09577967 -0.13673459 0.06463142 0.039919928 -0.003816345 0.09151174 0.004825091 0.03890443 -0.0009437629 -0.11620783 -0.03965998 -0.09274426 0.0016951028 -0.08004513 0.056483302 -0.04548599 0.06113728 0.022302786 -0.06935629 0.038017936 0.0074880677 0.076966554 -0.010427188 -0.040668864 -0.051011015 0.04429312 0.040487554 0.025075654 -0.04510273 -0.12773766 0.0109061925 -0.04647787 0.07947395 -0.015956799 0.026662156 -0.05603774 0.0075899847 -0.06606482 -0.018100481 0.115852416 -0.023997806 0.041334596 -0.04950574 -0.14249219 0.0062350165 0.07352011 0.135458 0.10041369 -0.0053319274 -0.035770215 -0.01564688 -0.009399001 0.117440216 -0.04399805 0.03554833 0.037786745 0.053008914 0.07257952 0.033723388 -0.14359818 0.14257693 -0.076010026 0.014636141 -0.113898665 -0.052001014 -0.020091368 -0.062101692 -0.08442331 -0.08505506 0.081592254 0.021061886 -0.07614693 -0.0391205 0.034532778 0.029043242 0.03665704 0.037663374 0.017016483 -0.021527505 -0.00041772216 0.008772189 0.0057122535 0.10574135 -0.020062795 0.053131185 -0.004352809 -0.01667802 -0.00097444275 -0.022516295 0.071025886 0.008038266 0.0121283075 0.028368158 0.020504436 0.037065715 0.073939815 -0.057601456 0.08625582 0.074298024 0.12164888 -0.05897483 -0.02012872 -0.04616395 0.05079384 0.07649349 -0.080038115 -0.0757802 0.14795455 0.03442276 -0.0614187 0.004685128 -0.0718224 -0.035111375 0.058495324 -0.038305182 0.04069828 -0.0697091 -0.06738596 0.08814084 -0.10173051 0.054772176 -0.033960294 0.030775823 0.0015679924 0.06815966 -0.0018289379 0.027052997 0.014837724 -0.04272037 0.04870513 -0.06751676 -0.0024432102 0.11597417 0.032330617 -0.07668184 0.049320467 -0.050692644 -0.07839622 0.0019748786 0.0019253991 -0.073895 0.0376774 -0.022556689 -0.069319844 0.019406443 0.08385112 -0.083395965 0.021195 -0.007305907 0.03754436 -0.03975768 0.07703491 0.012729557 -0.0876088 0.09631916 -0.010092923 -0.019697595 0.0200957 0.07648425 0.0856501 -0.09627125 -0.1061637 0.06274885 -0.028899739 0.041840147 -0.07115831 0.009948098 -0.015407863 -0.062144835 0.018243566 -0.04032129 -0.018601323 0.033621136 0.0611583 -0.0014738244 0.07874715 -0.016854107 -0.011351971 -0.011872299 -0.050802916 -0.061802674 -0.01631575 -0.013188416 0.0048687453 -0.0330661 0.0101235 -0.004717238 0.030795168 0.032464135 -0.07512851 -0.04434094 0.012793924 0.07593887 -0.011877298 0.02621245 -0.0061663417 0.010057219 -0.09823964 -0.0071835676 0.03914708 -0.012708822 0.0174897 0.118418 -0.08272987
18 0.048100863 0.0004299306 -0.068198 0.105908446 -0.07606062 0.03852381 -0.11939589 -0.049253654 -0.065094054 -0.03678253 0.041563857 0.05606209 -0.009394946 0.034097526 -0.06864534 -0.045528647 0.002520995 0.0053591966 0.014196345 -0.033592712 0.057954125 -0.0025283215 -0.040689647 -0.054405227 0.0022774797 -0.01857221 -0.093858846 -0.06387991 -0.007005138 0.0016638183 0.13419603 0.07176971 -0.059888747 -0.0031880888 0.047362823 -0.03103742 -0.0013239837 0.07787786 -0.008403518 0.09567262 -0.04370505 0.019316658 -0.02543931 0.051602356 0.11230388 -0.07974313 0.1892898 -0.02257026 -0.040069338 -0.019479193 0.0035523877 0.030436844 -0.12077766 -0.061525807 0.04541102 -0.021240005 -0.03318026 0.00270694 0.027269332 -0.024158824 -0.0638597 -0.10572013 -0.03263583 -0.14756398 0.056416776 -0.028987357 0.011311925 -0.030302037 0.062622316 0.0057547204 -0.0038665284 -0.0003763043 -0.007314837 -0.025137875 0.013421877 -0.019725047 0.019661123 0.0033010168 -0.0013080019 0.050521653 -0.032452796 -0.106445335 0.06570747 0.04414422 0.020527463 -0.03138791 0.015504178 -0.026029965 -0.034284547 -0.055914883 -0.06591012 0.037780847 -0.016291488 0.04843786 -0.022452848 -0.020792408 -0.022203077 0.05872753 0.066847906 0.07580392 -0.04237906 -0.12178148 -0.007869203 0.012140059 0.085085206 0.011707909 0.028673898 -0.028008653 -0.05741588 -0.040620685 -0.079357944 -0.08331444 0.08169376 -0.06489086 0.096184365 -0.027837696 0.013208332 -0.0642361 -0.047000393 -0.15916245 -0.052242406 0.09734681 0.04183414 -0.037755616 -0.014193455 -0.009508442 -0.038368534 0.09431146 0.03622321 0.020026352 -0.08078382 0.0414221 0.07101409 0.05420629 0.20172772 -0.015143774 0.0689997 0.039421976 -0.118464045 -0.021408485 -0.013494357 0.15909137 -0.013099472 -0.035059758 0.07022209 0.0069010723 -0.0756197 0.026388355 0.009229581 0.0047068717 0.08272892 0.0474758 -0.061698552 -0.12401803 0.04137797 0.05264546 0.058741618 -0.101030506 -0.09184009 0.14397362 0.02018588 -0.011000482 0.0011087896 -0.06332599 -0.061545875 0.07379119 -0.046423748 0.090365544 -0.04095785 -0.11015051 -0.04599698 -0.056831572 0.13019937 0.085751124 0.04321692 0.052204013 0.07231912 -0.017737055 0.066871144 -0.0066555594 -0.073178664 0.112612896 -0.10376006 0.024575932 0.03822077 -0.049137853 0.010650076 0.00060227845 -0.032300655 0.028560327 -0.030091267 0.026361765 -0.050285753 -0.007438029 -0.054330956 -0.015651487 0.09432448 0.024694782 -0.071477346 -0.038612135 0.023789952 0.0042085918 0.01242901 -0.011914567 0.018897332 -0.012689285 0.08140775 0.06884102 0.05825194 -0.045114942 0.08103028 0.17139412 -0.0019287142 -0.040535863 0.09096882 -0.0066778874 -0.057840858 -0.017591901 0.061903346 -0.0039186026 0.014524544 0.030673558 -0.05226421 -0.044579953 0.09086393 -0.0007525701 0.015671266 0.07958067 0.038441733 0.048459046 0.04168865 -0.08111572 -0.027284821 -0.015981644 -0.03818815 -0.0024254655 -0.054063965 0.005136765 -0.09185697 0.011368311 0.034756884 -0.013654182 -0.110378414 -0.07277666 0.009295252 -0.07320368 0.07678182 -0.025019865 0.0472104 -0.095743775 -0.0065969042 0.0950913 -0.021041576 -0.0048936103 0.10046395 -0.10199746
49 0.04755952 0.034096073 -0.019158974 0.030625874 -0.079794705 -0.008643446 -0.02176776 0.0022198912 -0.037766755 -0.034760673 -0.04073101 0.012465831 0.0042870305 0.053480238 -0.065740205 -0.008868048 -0.021138027 0.013002941 0.10101252 -0.012869984 0.1045112 -0.013062605 -0.00046391587 -0.068310015 -0.020496778 0.039942108 -0.10421717 -0.025007512 0.011284244 -0.068306476 0.03836173 -0.015567382 -0.10696152 -0.039746247 -0.022277422 0.017757764 -0.04711528 0.06389864 -0.056610037 -0.023828575 -0.11636948 0.105206735 -0.011224674 0.06942934 0.0846331 -0.14176498 0.20338148 0.030552348 -0.0009816902 -0.08169996 -0.07693267 0.08712962 -0.05199083 -0.07333337 -0.02441927 0.0090142805 0.0041164854 0.064159244 0.13541271 0.0440356 0.1015623 -0.08429003 -0.09658018 -0.10526258 -0.08563852 -0.01779275 -0.019436779 -0.06231735 0.054915283 0.108954355 0.020691356 -0.08294272 0.016142083 0.0044381497 -0.0098569915 0.017727526 -0.012302958 -0.041637443 0.014075606 0.025193632 -0.03402598 -0.07048995 0.057728425 0.061068337 -0.021934675 -0.031300932 0.012897834 -0.069426656 -0.0042964765 0.011904816 -0.038208142 0.087613486 0.058869235 -0.042115048 -0.05056655 -0.023808707 0.08556523 0.0647487 0.031467848 0.06634901 -0.01752481 -0.17756024 -0.0103175165 -0.01607286 0.051679216 -0.03496109 0.04646353 0.036675107 -0.016563298 -0.006541071 -0.08149207 -0.0958378 0.034940574 -0.081677645 -0.065538734 -0.07739682 0.0073033688 -0.002653111 -0.055363458 -0.1154396 -0.047027804 0.059970114 0.081067614 -0.03977566 0.014680051 -0.0055286563 -0.000550511 0.07496085 0.13363124 0.033835027 0.014324509 0.011124635 0.121927515 0.014408763 0.14416474 -0.05446556 0.056605585 0.00308334 -0.00954261 0.030159088 -0.023785235 0.17463149 -0.004479335 -0.10901757 0.007294698 0.05540014 -0.010621 0.017139174 0.027548915 -0.004165024 0.07026578 0.045603726 -0.08791598 -0.019274963 0.056942992 0.0041279676 0.025250422 -0.033813942 -0.08116795 0.10295598 -0.0046486654 -0.04732127 -0.015395987 -0.02672877 0.013029265 0.064307936 -0.0027736034 0.03488816 -0.009854971 -0.0145504335 -0.08794981 -0.03699246 0.04120349 0.02603913 0.057657003 0.062119327 0.046686154 0.016051037 0.05948772 0.053307194 -0.031074382 0.03196071 -0.09990636 0.055870634 0.07731421 -0.076856434 -0.0348199 0.08804058 -0.03004765 -0.01486706 -0.053906683 0.017874321 0.0025614789 -0.0035709278 -0.086849876 0.003987676 0.018247606 0.025027119 -0.07195869 -0.023472866 -0.023052957 -0.045756243 -0.046773084 -0.08395359 -0.04381438 -0.009653643 0.09717511 0.021348504 -0.014037557 -0.026267633 0.07444574 0.13586712 -0.027258674 -0.05732696 0.09778157 -0.036836207 0.07213015 -0.062174223 0.10001308 -0.04777462 -0.023104278 0.0048448853 -0.082991004 -0.051536508 0.032310266 0.037174154 -0.061002895 0.18188699 0.010286614 0.04632153 -0.010117025 -0.12467341 0.014310234 -0.010376307 0.012079166 0.0016166735 -0.040414933 -0.040752206 -0.062355552 0.018991023 -0.015978754 -0.053193443 -0.058186036 -0.03233352 0.079187065 -0.08822304 0.017001655 -0.02996517 0.0350235 -0.13111389 0.06360374 0.014043302 -0.068609186 0.05046917 0.1602523 -0.10888366
29 -0.00033092612 0.02733941 -0.049362484 0.015682146 -0.027038014 0.052325483 0.046601966 0.011327221 -0.06940178 0.022717355 -0.019602103 0.025558123 0.005747574 0.03219141 -0.07304604 0.033746075 -0.041332476 0.00791294 0.09630497 0.059076384 0.08915474 -0.06834604 0.027076172 -0.02041345 -0.055933937 -0.062723234 0.0013767459 -0.09333704 -0.023739904 -0.09010813 -0.020317918 -0.106544636 -0.09019699 -0.008847119 0.01915958 -0.0031753753 -0.050545078 0.052538518 -0.0287131 -0.016852656 -0.17699356 0.066588074 -0.015810965 0.055866163 0.06376795 -0.14825736 0.12100779 -0.048382223 0.011410109 -0.0707539 -0.05785807 0.0026299972 -0.028289268 -0.09574881 -0.024545832 0.042099115 -0.025192112 0.17821166 0.07130833 0.07143121 0.09388944 -0.14655878 -0.11509242 -0.0986368 -0.113879144 -0.03943547 0.02549086 -0.0750172 0.06419313 0.15104082 -0.07392178 -0.062115587 0.04154521 0.012181783 -0.058825217 0.0035406712 -0.0044886335 -0.03729556 0.05930276 0.01889816 -0.06752435 -0.10012079 -0.00081342447 -0.031266782 0.024391048 -0.018312374 0.018548192 -0.12885155 -0.0026304526 -0.08460063 -0.041967858 0.10739108 0.052097313 -0.0048632906 -0.00026373618 -0.08995071 0.08409426 0.005122306 0.071281314 0.08246671 0.057938278 -0.10143416 -0.09266072 0.047100104 0.13147216 -0.10438103 0.03714898 0.019802604 0.014653407 0.04868551 0.012393376 -0.075827196 0.019908236 -0.047654472 -0.08257253 -0.08194507 0.04883674 -0.028255327 -0.010902659 -0.10919364 -0.08827582 0.06207735 0.1307551 -0.013417554 -0.025393587 -0.024762208 0.0006817724 0.061181273 0.10017537 0.00510094 -0.008025652 0.045443997 0.1462048 0.0048495606 0.07736116 -0.060998328 -0.022155503 -0.09705778 0.043224253 0.016047893 -0.01999701 0.108342886 0.004550923 -0.13073264 0.0015485471 0.0009267247 0.10705215 -0.004531775 -0.035801783 0.029476378 0.09336249 0.07395488 -0.013240993 -0.023067215 0.0527986 0.012790314 0.03532762 0.013206177 -0.055598628 0.08633691 -0.014881519 -0.04722492 -0.06629872 -0.07687883 0.067852594 0.10264379 -0.014580104 0.05211496 -0.0196773 -0.040088907 0.045064095 -0.038785387 0.05711527 -0.01212948 0.09412487 0.06735936 0.079207875 0.045418546 0.049395394 0.06430376 0.043639354 -0.010862282 -0.09997104 -0.00024941267 0.090904474 -0.068654805 -0.092088826 0.091711216 -0.012281701 -0.030545436 -0.026214153 0.07557464 0.08193364 -0.018160438 -0.08142681 0.015774503 -0.06297112 0.07485192 -0.07297355 0.052655227 -0.0151054 0.0411726 -0.10367755 0.059540287 -0.0068149636 -0.09949603 0.14087744 0.038304638 -0.071104296 0.12569693 0.06436249 0.043449238 -0.10815109 -0.07826719 0.11547558 0.015514589 0.08321396 -0.0917109 0.07725601 -0.007397814 -0.03785003 -0.07148414 0.010056749 -0.022684945 0.04900913 0.053112004 0.034369133 0.1876998 -0.0052897446 0.021390948 -0.024420766 -0.108835526 -0.028557392 -0.0031390071 0.01388283 -0.02577463 0.049839232 0.058047753 -0.00227417 0.03789044 0.020992357 -0.15643041 -0.036402475 -0.037149753 0.07304003 0.016346933 0.07621219 -0.0036102845 -0.05413853 -0.10911909 0.025153466 -0.028064156 -0.0039941813 0.016092919 0.17566755 -0.07458172
43 0.07101985 0.095365345 -0.020947803 0.0149146775 -0.020127665 0.012448557 -0.06566927 0.02469277 -0.0755824 -0.012076894 0.011471599 0.022908026 0.02718336 0.041771907 -0.11804057 -0.020074194 -0.052874442 0.01932689 0.08662478 -0.0012146713 0.101417676 -0.01934546 0.023108471 -0.07474224 0.019993395 0.019371087 -0.031423233 -0.033236116 0.028885718 -0.06350258 -0.012620842 0.02874409 -0.08425873 -0.0347622 0.009431472 -0.0021499798 -0.026061106 0.048043266 -0.06061969 0.05633277 -0.06778384 0.071209915 -0.05311489 0.08918848 0.06760036 -0.051986318 0.20839788 -0.01949709 0.07047747 -0.038322523 0.010030747 0.006853805 -0.011864029 -0.053001866 0.019566815 -0.0063363947 0.0024656118 0.06484993 0.03529228 0.020050032 -0.0013589461 -0.11367197 -0.07984593 -0.098806776 0.01829176 -0.058641024 -0.016625501 0.0008422874 0.099293485 0.07009464 -0.049808826 0.004236999 0.04994964 -0.019716216 -0.016111266 7.992135e-05 -0.06746552 -0.0018647553 0.01912945 0.027003901 -0.06444122 -0.08204693 0.0114175035 -0.022492621 0.042439207 -0.07945777 0.0034918515 -0.024553234 -0.024404515 -0.04229774 -0.023894263 0.12688863 -0.010316104 0.047110662 0.010517824 -0.09866593 0.07216746 0.03604082 0.031150915 0.0835553 0.056639004 -0.12258313 -0.032462887 0.00034494113 0.09927282 -0.08792623 0.080687545 -0.0718242 0.03614187 0.031924754 0.034827095 -0.13524601 0.07707342 -0.12302988 0.0052203494 -0.040409394 -0.023733282 -0.03727521 -0.052510843 -0.052935228 -0.049600914 0.07478193 0.050200697 -0.08633835 -0.052746378 0.053599276 -0.024905456 0.08320911 0.07471637 -0.02103223 -0.045397997 0.041116867 0.12823857 0.01766191 0.1192152 -0.036477473 0.030440124 0.03134903 -0.016330322 -0.028008595 0.013730059 0.10447608 -0.012125425 -0.029489147 -0.0015369037 -0.03223563 -0.0108125275 0.048823316 -0.037931845 0.012606142 0.060686607 0.067141615 -0.008960859 -0.08536154 0.05179712 0.06079006 0.052409183 -0.013193238 -0.11863347 0.11963756 0.043661267 -0.031625275 -0.006252439 -0.04939602 -0.028185831 0.08586235 -0.045289285 0.047179308 -0.016719071 -0.07978743 -0.0024179278 -0.095047705 0.07046728 -0.03774445 0.057168663 0.018611113 0.015839249 0.02236998 -0.051016252 0.07926806 -0.008650148 0.07575976 -0.061610293 0.049011674 0.10345954 -0.01771408 -0.0026327132 -0.03488743 -0.06847718 -0.043770947 -0.05131051 0.03365824 -0.054998364 -0.06208503 -0.08813134 -0.06482725 0.03136581 -0.006174207 -0.09115082 0.017288247 -0.015714152 0.051151603 -0.0815104 0.020463102 -0.030687496 0.01656829 0.050403696 -0.03818452 0.01589061 0.030194586 0.093244515 0.09794845 -0.07542965 -0.14059679 0.04139177 -0.05610489 0.07388851 -0.03612244 -0.00065440143 -0.029208632 -0.043221124 -0.023088295 -0.1046182 -0.1169062 0.09095261 0.06713357 -0.005882566 0.15071717 0.013127331 0.0014273326 -0.017590206 -0.06616926 -0.0822912 0.048246477 -0.05089563 -0.031163236 -0.07639524 0.010746814 -0.04039717 -0.037908334 0.04574173 -0.07140645 -0.06877205 0.014526092 0.052688897 -0.049881123 0.03167052 0.073266186 0.034229193 -0.129716 -0.01636379 0.071320385 -0.005508503 0.007854745 0.074001536 -0.0648394
26 0.04225297 0.07391872 -0.07657359 0.058197748 -0.098775424 0.053354103 -0.100558706 -0.01229134 -0.08846008 0.014011331 0.08681058 0.06364468 -0.023127258 0.012244011 -0.1089236 -0.04316766 -0.035276838 0.04589073 0.018572098 0.02194226 0.09167297 0.053551793 -0.04629193 -0.068590835 0.023470689 -0.0713352 -0.046021733 -0.088734135 -0.0055120434 -0.058565017 0.06573853 0.042375453 -0.076288365 0.049408846 0.014575828 -0.07803215 -0.045372095 0.08524187 0.0006294502 0.12446512 -0.020079419 0.022436889 -0.055050682 0.07002548 0.10394197 -0.11296672 0.11082058 -0.05637449 -0.0020595128 -0.00028726985 0.06817457 0.02492472 -0.038641065 -0.042386953 0.09934255 -0.03917994 -0.031431742 0.04822191 -0.05467299 0.016743524 -0.033994924 -0.17450355 -0.044429358 -0.118280426 0.08882906 -0.085145794 0.02210172 -0.011723445 0.121485315 0.018309208 -0.050528776 0.05546025 0.010385558 -0.040908683 -0.03316434 -0.0735266 -0.040709626 0.014152285 0.03184543 0.07565241 -0.038779344 -0.13533531 0.017354382 -0.0542507 0.11267917 -0.064675905 -0.017141694 0.015590232 -0.038321484 -0.1159371 -0.061464623 0.08676189 -0.050235007 0.11535803 0.027683813 -0.09699471 0.032003965 0.039513834 0.09033136 0.057113938 0.005247735 -0.10427359 -0.032123085 0.08069231 0.09433887 -0.061888177 0.04619251 -0.03173373 -0.03683941 -0.03813049 -0.02904565 -0.06881354 0.11464115 -0.06227488 0.11122389 -0.03726422 0.02227112 -0.023951625 -0.028693343 -0.1665551 -0.07562163 0.092798375 0.045967806 -0.028344784 -0.049667936 -0.0026380713 -0.026006384 0.08256148 0.03735108 0.023175811 -0.106130145 0.057080645 0.08436204 0.055174466 0.15424949 -0.037935708 0.048265785 0.011132964 -0.09257783 -0.01574014 -0.0017834981 0.08145115 -0.019369557 -0.025578089 0.059753004 -0.035110302 -0.056770626 0.07559381 0.005523532 0.014701675 0.09202938 0.11958091 -0.042679 -0.16728793 0.049620487 0.043486156 0.1248749 -0.10510485 -0.10412557 0.16319132 0.020881556 -0.028703587 -0.056108866 -0.061391983 -0.0761757 0.061571095 0.003767586 0.07473972 -0.07475314 -0.07114378 0.0101014795 -0.08366559 0.08782455 0.0078724455 0.04836598 0.0037738204 0.032259233 -0.0182602 0.034490045 -0.040236115 -0.031761672 0.112686515 -0.122081734 -0.005893664 0.014607719 0.002794832 -0.018585458 -0.038486253 -0.03513165 0.031191656 -0.09973706 0.04479449 -0.030890541 -0.034507487 -0.07319382 -0.06868217 0.04336948 0.020819254 -0.094831474 0.03694111 0.03060841 0.055083968 -0.054665763 0.020080036 0.06480916 -0.044131014 0.09265928 0.10010747 0.07703557 0.06783056 0.091441445 0.14702189 -0.07960379 -0.057208735 0.052363798 -0.020367812 -0.0594011 0.0025787666 0.037283372 0.006524764 -0.060860295 -0.045659676 -0.0072085466 -0.048895255 0.09341584 0.02497754 0.061393525 0.050916906 0.010578128 0.029514406 0.0382859 -0.07337449 -0.0639716 -0.02962123 -0.057044614 -0.03326246 -0.00015911667 0.057995778 -0.008073951 0.0012965024 0.028840706 -0.032907337 -0.15853561 -0.032735772 0.022821218 -0.026237864 0.11640513 0.03413894 0.003137102 -0.08074927 -0.04737558 0.16343142 0.033896953 -0.06423511 0.08247402 -0.091757916
7 0.1564985 0.021163968 -0.09237999 0.061359417 -0.033030942 -0.104921676 -0.122478284 0.07479469 -0.059379395 -0.07808234 0.09755255 0.04067989 -0.0040374924 -0.022584677 -0.10344912 -0.15710665 -0.056575954 0.016051346 0.0090263 0.0064098253 0.13418102 0.073132396 -0.09934683 -0.019502431 0.09704561 -0.051211093 -0.04824664 -0.06367456 0.06365276 -0.037912045 0.10600862 -0.002699461 -0.07498588 -0.017391946 -0.0056080334 -0.046288364 -0.006333341 0.056044333 -0.046138864 0.049886506 -0.03166776 0.018256322 -0.14437611 0.042827956 0.12459249 -0.032413583 0.18630426 -0.00985737 0.057783272 -0.017896028 0.0042233197 0.108045615 -0.08776432 -0.057501856 0.14772247 0.0029856095 0.022506153 0.00022289448 -0.01248677 0.029321136 0.037614096 -0.06503611 -0.00024528257 -0.110345274 0.087035075 -0.060515665 0.050468527 -0.0011034867 0.06178135 -0.046743967 0.015193984 -0.0064329235 -0.049712863 0.018659119 0.016379436 -0.042111333 -0.015095693 0.05084612 0.021334838 0.09757152 -0.051830783 -0.14868827 0.050158244 0.015842007 0.12342265 -0.07107362 -0.02664336 0.10700225 -0.050158277 -0.030665264 -0.038854323 0.15663461 -0.07933528 0.015561278 -0.112479106 -0.13710584 0.034243423 0.13570377 0.11260537 0.06617271 -0.1413456 -0.106232814 0.054805327 -0.028367998 0.07827887 -0.09912227 0.024746345 -0.02385428 -0.038877126 0.026926644 -0.03249006 -0.102185264 0.13969298 -0.15126385 0.07922975 -0.034664184 -0.10143522 -0.03771014 -0.06685039 -0.09406679 -0.09131294 0.10113214 -0.0045024627 -0.1038236 -0.06646436 0.043177877 0.0004954651 0.02806747 0.008731995 0.022262897 -0.013610217 -0.062694676 -0.036260873 0.056149896 0.16606338 0.005334244 0.11150818 0.072575115 -0.02540976 0.026872361 -0.026919184 0.089149445 -0.054967057 0.05747786 0.066397116 0.050197653 -0.04123538 0.12678267 -0.057832774 0.032200254 0.03282777 0.11699999 -0.08303778 -0.081263445 0.009695092 -0.008381276 0.07984844 -0.18165523 -0.090706006 0.15273026 0.07107549 -0.041206226 0.026254293 -0.093079 -0.12364362 0.010610377 -0.06213863 0.08852357 -0.14301194 0.020387692 0.0011753272 -0.14323847 -0.037891246 -0.040966313 0.0005148539 -0.010701835 0.02159243 -0.07752696 0.0039059953 -0.00020878049 -0.10001054 0.04074514 -0.017985202 0.029839948 0.10254521 0.016410425 -0.043982364 0.0016610626 -0.10184963 -0.009882521 -0.07174911 -0.047098834 -0.1492821 0.01270508 -0.03129001 -0.1038467 0.12634927 0.042780172 0.0074246684 -0.027975826 -0.011796808 0.07293236 0.0036270758 0.054674298 0.048435494 -0.015021 0.05941437 -0.0064030127 0.016969638 -0.03989119 0.046572756 0.097657524 -0.0272877 -0.10179546 0.10794659 -0.010978065 -0.024379175 -0.061242454 0.06355545 0.052641362 -0.02031405 0.084268734 0.0050404146 -0.048098873 0.05328896 -0.008768539 -0.046450097 0.1138525 0.06552452 -0.0206878 0.046480753 -0.08695871 -0.07854996 -0.12820384 -0.062046286 0.017543525 -0.028343607 -0.0555495 -0.047349475 0.03488304 0.06468215 0.048204713 -0.06727806 0.046404637 0.12086969 -0.074254334 -0.03885709 -0.018528305 0.091391176 -0.06496516 0.07888874 0.1462188 -0.08396496 -0.01937055 0.14171505 -0.11405544
22 0.10610209 -0.028890807 -0.019180853 0.05750414 0.007847028 -0.035739888 -0.016650995 -0.0011557513 -0.034504093 -0.031249302 -0.008685126 0.10169 0.0160459 -0.005057316 -0.07858146 -0.07947725 -0.04824091 0.020949515 0.0350754 0.03393663 0.06519183 -0.05146968 -0.049012255 -0.026615215 0.08757967 0.026463898 -0.021985548 -0.06652422 0.027564239 -0.08048342 0.04137885 0.012211848 -0.04854506 -0.01733419 0.0034355563 -0.003543576 0.018704519 0.08560926 -0.0016798045 0.04205397 -0.110105656 0.0067148074 -0.028394245 0.04433324 0.116604835 -0.08545891 0.1350493 -0.014125174 0.021325642 -0.06449605 0.017941225 0.08722488 -0.057367664 -0.080084495 0.08296849 0.026655454 -0.048309892 0.06733627 0.100180216 0.010417841 -0.04965669 -0.03525651 -0.103558026 -0.066136554 -0.01806159 -0.02255318 0.004278448 -0.009722574 0.03134086 0.05552968 0.027897837 -0.06342678 0.068067335 -0.003615031 0.017137159 -0.06313639 0.020598143 -0.058129165 0.07259719 0.045526475 -0.0491572 -0.04452676 0.014269631 -0.025284648 0.03905235 -0.034369364 0.044196114 -0.0025702876 -0.04006978 -0.05130182 -0.09384077 0.09044526 5.4284996e-05 -0.053796344 -0.089244165 -0.052901946 0.02499162 0.09831307 0.007990249 0.086229265 -0.06893726 -0.10642953 -0.045931585 -0.0038659233 0.083780624 -0.035714984 0.040260453 0.02171553 -0.010198229 -0.025917768 -0.02807033 -0.09792284 0.045793444 -0.1142936 0.07869326 -0.083719626 0.01738976 -0.039979808 -0.03860713 -0.072497204 -0.071244724 0.017832292 0.015816737 -0.056997247 -0.009863858 0.03670129 -0.03947149 0.036914963 0.022549145 0.022770723 -0.0489007 0.0010186177 0.035561223 0.03464243 0.18133026 -0.013769744 0.08377624 0.026463944 -0.021767758 -0.018736782 -0.046554662 0.13361502 0.026042277 0.0011256397 0.020078164 0.08728676 -0.056794893 0.0076526883 -0.0347121 -0.002232079 0.06394484 0.073670514 -0.08490963 -0.07118389 0.018912759 0.03477667 0.08054711 -0.060626168 -0.049343895 0.14265144 0.015115082 -0.02275248 0.044402808 -0.07897327 0.019519553 0.0694782 -0.054739345 0.06504051 -0.0915992 -0.035719294 0.01449879 -0.09207489 0.0196542 -0.02171003 -0.0044205887 0.040150873 0.05242826 0.007409262 0.11858828 -0.018980857 -0.029880347 -0.0060084006 0.010416616 -0.004157479 0.07596497 -0.063835755 -0.058982212 0.0727254 -0.006539594 0.030478379 0.015287786 -0.0065074167 -0.08131526 -0.0023104108 -0.07968778 -0.018606337 0.06466018 0.092899345 0.017764712 -0.017968923 0.0210951 -0.012135716 -0.06913038 0.04497692 0.019229691 -0.042776026 0.15302522 0.0025117027 -0.053414945 0.045507066 0.05378896 0.10716648 -0.06641041 -0.027463678 0.06604257 0.05985696 0.035159893 -0.0974189 0.056514543 0.043279566 0.065728374 0.105565555 -0.015325774 -0.048306428 0.018970957 0.012151086 -0.01917703 0.14616154 0.056748435 0.015200702 -0.01923287 -0.09177566 0.015146976 -0.0014274021 0.0064253993 0.023984564 -0.0028176003 -0.009857514 -0.0541267 -0.008061098 0.034500904 -0.004954437 -0.018442018 -0.013183365 0.0543914 -0.021879956 -0.021098193 -0.043730736 0.05460491 -0.1413632 0.058524493 0.021459363 -0.06559623 0.03744471 0.16676416 -0.09426384
35 0.0677783 0.018257344 -0.11692906 0.07261775 0.0032641767 -0.073911205 -0.13123769 0.02669994 -0.04947237 -0.093382284 0.07664687 0.043334305 -0.002471894 -0.0052380343 -0.120817706 -0.06807838 -0.043066427 -0.008819234 -0.021578653 0.023891674 0.106269665 0.022558184 -0.052886765 -0.028340288 0.002605823 -0.04982976 -0.102753595 -0.058909465 0.013745519 -0.04454195 0.15641613 -0.040555976 -0.039664935 0.013569011 0.08060484 0.002995403 -0.035943914 0.05977192 -0.004448925 0.053780984 -0.041753292 0.033964533 -0.114360616 0.09785454 0.02810952 -0.06982826 0.19561993 0.025499273 0.016967123 -0.022425072 -0.035975624 0.017582461 -0.11064027 -0.01701466 0.0332582 -0.0521193 -0.013730859 0.04997638 -0.02875821 -0.03341352 -0.051379528 -0.10232448 -0.019049851 -0.15123199 0.03740624 0.03704936 0.056152564 -0.063723624 0.06784904 -0.04894589 -0.045719843 -0.05479754 6.995279e-05 -0.028357062 -0.03610707 0.026469668 -0.008044384 0.0903577 -0.034643523 0.11731084 -0.06717867 -0.17337154 0.025542308 0.021298423 0.052246634 -0.05591646 -0.012486968 -0.02263269 -0.09299084 -0.019942712 -0.035117254 0.056540657 0.013848359 0.038953636 -0.098836385 -0.08124723 -0.049694233 0.02411103 0.13696672 0.04431265 -0.07532456 -0.14408962 -0.0660598 0.020912126 0.069714636 -0.061989635 0.012449718 -0.054664135 -0.064011 0.040356446 -0.062476046 -0.105178356 0.093409635 -0.10384294 0.029370384 -0.014109819 -0.036150437 -0.14177836 -0.02110581 -0.12652066 -0.049955387 0.11070394 0.0076004937 -0.053331528 -0.05471081 -0.020283414 -0.048001993 0.0031350392 0.07834937 0.03594014 -0.028634587 -0.05140442 0.013505127 0.088725485 0.16862214 0.024747383 0.07159307 0.058831744 -0.02403198 -0.04682666 0.047834154 0.08231374 -0.036996156 0.015891315 0.004282183 -0.01053948 -0.053466048 0.10178137 -0.008866761 0.08745948 0.06482923 0.08087933 -0.04311765 -0.06331768 -0.02534821 0.039092194 -0.0010672748 -0.1026812 -0.15766948 0.1132047 0.06145896 -0.056366686 0.035454452 -0.12241203 -0.0717112 0.046168394 -0.09829068 0.17781515 -0.06859495 -0.045471888 -0.07337722 -0.06799497 0.061164867 0.037743334 0.090451255 0.12039288 0.0817501 0.011635195 -0.002301274 0.056424208 -0.048987646 0.1003036 -0.034338083 0.012420341 0.11905381 -0.08070024 -0.074635126 0.016917301 -0.059516612 -0.022131437 -0.059721638 0.023671443 -0.030656416 0.01185013 -0.05960434 -0.07717447 0.05373853 0.027054206 -0.0052232617 -0.06413836 0.0015957624 0.0873687 -0.022227239 0.058039274 0.05897853 -0.04410295 0.16311105 -0.0064424435 -0.030274523 -0.07863108 0.026544757 0.07474087 0.000161393 -0.11721087 0.124523744 -0.062735856 -0.03630358 -0.058723435 0.036766384 0.04442723 -0.015091607 0.075067855 0.0111604445 -0.001832275 0.04607217 -0.015138742 0.00043263694 0.07684398 0.08372213 0.014641076 -0.02797719 -0.07819585 -0.12624882 -0.14075434 -0.10070714 -0.0031489474 -0.053792536 -0.02904346 -0.07322912 0.081039846 0.07146553 -0.0068329335 -0.04946541 0.05827313 0.07737997 -0.0841248 0.043479245 -0.0025956118 0.06954944 -0.084559634 0.06272633 0.13331683 -0.024424193 -0.017695809 0.08464425 -0.027974175
33 0.010776793 0.08372285 0.005088466 0.014526189 -0.07747196 0.0057317005 -0.020379562 -0.034350898 -0.02673052 -0.022485446 -0.059163276 0.004974842 0.033133894 0.035136454 -0.11516387 0.0566259 0.00059864175 -0.0013037542 0.13565566 0.014572012 0.14591587 -0.049989827 0.025031127 -0.09579691 -0.039818387 0.100850135 -0.06471845 -0.006441233 -0.040589865 -0.09328299 0.045501653 0.027943574 -0.094913706 -0.0067841737 0.063451424 0.008712857 -0.09834149 0.056723867 -0.054030366 0.004953983 -0.0775534 0.10295564 0.01847214 0.07950876 0.085990295 -0.15830968 0.15833898 0.06124588 0.030360702 -0.1140096 -0.058587898 0.034621935 -0.03375747 -0.07764388 -0.031931806 0.020788148 -0.013149659 0.10582655 0.07333632 0.06224659 0.0648304 -0.13741745 -0.13336831 -0.15772727 -0.074646346 0.03063102 -0.05910037 -0.075961515 0.05522874 0.07570361 -0.029681958 -0.031693928 0.015748858 0.01170832 -0.058665313 -0.03638475 -0.0024313421 -0.057760015 -0.023521796 -0.010670488 -0.01215181 -0.024001475 0.061286867 0.0013656612 -0.020026611 -0.034029827 0.03939226 -0.12099365 -0.01445371 0.06713222 0.01656019 0.07602423 0.074368656 -0.044958457 -0.056002542 -0.021292934 0.01649964 0.06426731 0.008676801 0.05744555 0.0686911 -0.15645741 -0.05920381 0.018261718 0.109726034 -0.016076118 0.07342415 -0.032571353 0.034970403 -0.045745898 -0.0444487 -0.09685631 0.00092441787 -0.03623861 -0.09709108 -0.04591699 0.023555253 -0.039691262 -0.07135205 -0.103412524 -0.049309194 0.054137714 -0.005511613 -0.03754205 0.0022347062 -0.06335533 -0.009265304 0.11211654 0.18430424 -0.001346818 -0.027660184 0.049301565 0.15412496 -0.07361368 0.12131042 0.0013420521 -0.015213683 -0.0075682695 0.007096058 0.016547075 -0.025047362 0.12791133 0.017460821 -0.09291638 -0.061837986 0.007935028 -0.027191704 0.046512555 0.06361895 0.019269299 0.115024716 0.009803583 -0.035509095 -0.04050439 0.026272755 0.07235723 0.027960168 -0.008456534 -0.15994655 0.11445376 -0.02139867 -0.041955467 -0.02368387 -0.04499794 0.030961277 0.13334234 0.014751599 0.028551808 0.0009841791 -0.061704684 -0.070870474 -0.038399328 0.09114763 -0.024400663 0.054394513 0.039509658 0.028127883 0.07858981 0.11009366 0.019740751 -0.024701355 0.015641125 -0.10331001 0.0033318028 0.098178595 -0.08820761 -0.06607092 0.04367591 0.012817753 -0.027021183 -0.06729639 -0.007916282 0.046871945 -0.027412042 -0.10769994 -0.05114919 0.032140404 0.07879883 -0.10460311 -0.06312864 -0.025341762 -0.013954519 -0.08401263 -0.08030629 -0.019575031 -0.03708414 0.056354165 0.01860378 -0.014331854 0.0024266785 0.06061757 0.138245 -0.032053813 -0.077569775 0.07422729 -0.03176567 0.09576585 -0.03666127 0.047406785 -0.10044597 -0.071836546 -0.060174327 -0.15692183 -0.04994979 0.0033642855 0.058100313 -0.04830769 0.18286504 -0.040734295 0.0664962 -0.029800022 -0.10298454 0.013453952 0.054734427 0.012991075 -0.0029460154 -0.058478203 -0.027308084 -0.015413452 -0.035040047 -0.030547768 -0.057433728 -0.052016217 0.014961148 0.070022054 -0.06899788 0.02685674 0.0061616483 0.03416451 -0.2265982 0.0067742816 0.0899545 0.036056977 0.059460785 0.05450613 -0.09119777
25 0.10244523 0.046713255 -0.04772172 -0.0021665574 -0.07175242 0.01532077 -0.12728131 0.017833803 -0.07644533 -0.01688498 0.10046715 0.06167162 -0.02593676 0.07391734 -0.16725245 -0.07511365 -0.046795025 0.03141592 0.0382141 0.017078828 0.118071906 0.08010209 -0.0052093524 -0.053978857 0.049444113 -0.029938305 -0.048979092 -0.072352454 -0.020407688 -0.09033697 0.05500805 0.034646276 -0.08068142 0.042824693 0.04329144 -0.039721094 -0.05478222 0.082857735 0.048922516 0.07107147 -0.0061270087 -0.0019278856 -0.08516003 0.0877144 0.08703131 -0.09240762 0.136605 -0.06778942 0.024669 -0.035665046 0.040380627 0.04025742 -0.008954708 -0.02012129 0.13201994 -0.06561066 -0.016132774 0.03571597 -0.03647485 0.0019670944 -0.059719067 -0.15595418 -0.029405363 -0.089709215 0.09161211 -0.083705105 -0.000558749 -0.020606305 0.13747014 -0.039793503 -0.009735004 -0.0021432654 0.023030419 -0.039269727 -0.0029850258 -0.017932873 -0.026598632 0.02251168 0.028817644 0.1417212 -0.048621714 -0.14601189 0.017790927 -0.09403286 0.08956786 -0.0854014 -0.0495775 0.01678407 -0.054970205 -0.11429632 -0.037297484 0.088317886 -0.03393651 0.09801089 -0.009983663 -0.1287735 0.034119 0.027770327 0.12674427 0.01595024 -0.04255458 -0.09427206 -0.0032005985 0.059833266 0.03666806 -0.06522151 0.042144578 -0.029627606 -0.03329761 0.02137312 -0.038475715 -0.094569884 0.14216246 -0.14264914 0.095829405 -0.053965405 -0.02325302 -0.023641352 -0.03420702 -0.10104215 -0.06112302 0.063224204 -0.020284157 -0.06530536 -0.04221161 0.0027429715 -0.021118399 0.03502932 0.031713884 0.06015555 -0.061285384 -0.0022960461 0.06724255 0.06926186 0.115574464 -0.0031054004 0.084745094 0.08571669 -0.068698995 -0.018819612 0.03088521 0.08927909 -0.03717151 0.026068753 0.07232952 -0.023227794 -0.083310924 0.10264707 -0.009614455 0.044632353 0.058754727 0.14341423 -0.02637566 -0.14339322 -0.0004777116 -0.0003731439 0.09563926 -0.08855883 -0.10810622 0.13678572 0.032239724 -0.028504424 -0.018918477 -0.07606015 -0.118594065 0.03226011 -0.01864239 0.03591608 -0.03850909 0.00823303 -0.010514844 -0.08855654 0.06230145 -0.00446341 0.048814755 0.02587316 0.026934382 -0.04815042 -0.019744083 -0.034273267 -0.010349272 0.07687087 -0.045296304 -0.03248433 0.05873392 -0.017405437 -0.035658803 -0.0166369 -0.054911055 -0.00636419 -0.11429595 0.04503411 -0.048082728 -0.03771084 -0.04669391 -0.10676445 0.032833822 0.021165593 -0.05027087 0.0021069979 0.0346375 0.050063066 -0.029699555 0.011525018 0.11686292 -0.009250362 0.099927016 0.053998202 0.041100495 0.016486969 0.08484481 0.10744514 -0.072437175 -0.08805068 0.036960237 -0.057062194 -0.035381623 -0.016494775 -0.03630742 0.0070430804 -0.045590192 0.018683858 0.0034221087 -0.05203159 0.059373904 0.025699362 0.044843342 0.06791609 0.018728347 -0.037449952 0.0054601273 -0.12342858 -0.10575722 -0.06168433 -0.088077284 -0.0015474447 -0.017562736 -0.008770956 -0.010801469 -0.019046023 0.06349439 -0.037506253 -0.14451429 -0.012894942 0.04934389 -0.04156907 0.08127054 0.07462218 0.0027337773 -0.058129515 -0.024504893 0.21319239 0.01738851 -0.052477065 0.100590736 -0.0873316
16 0.10703581 0.029908666 0.075310886 0.012888738 -0.105469555 -0.062282067 -0.073132195 -0.043220207 -0.012757705 0.032718472 0.02025133 0.116810955 -0.022824006 0.07573243 -0.14457835 0.01187438 0.0091337925 -0.007431121 0.0036018612 0.058057517 0.13094881 -0.036679387 -0.04194913 -0.06526387 0.018043414 -0.0878934 -0.003501698 -0.05769354 -0.01607388 -0.12003433 0.08738336 0.032454357 -0.043521248 0.07835448 0.0076484624 -0.049013272 -0.069597356 0.018551426 0.070090234 0.038734574 -0.061155498 0.01138859 0.0037110746 0.031146305 0.09416521 -0.08142841 0.0770447 -0.04875132 -0.03452025 -0.06254213 -0.051224858 0.056005724 -0.09648107 -0.08246162 0.15848567 0.013092988 -0.05106859 0.064997956 0.0059733503 0.035900973 0.0009456723 -0.088792205 -0.075512834 -0.07539566 -0.0038057002 -0.07283197 0.056023285 -0.08174223 0.08616878 -0.012501995 0.002998247 -0.015917944 0.012715242 0.04988922 0.038587276 -0.049619485 0.032462664 -0.048174735 0.07963821 0.119079284 -0.010587859 -0.10578861 0.024174921 -0.10154012 0.06790947 -0.057142213 -0.0119522875 -0.056550477 -0.03291528 -0.07414496 -0.07520413 0.057261046 0.023094105 0.04058749 -0.033431824 -0.05044164 -0.013410798 0.10503117 0.11053126 0.066080905 -0.0954326 -0.035581715 0.049848255 0.028960925 0.08415237 0.0017838443 0.014779494 0.10210499 -0.024897302 -0.0035315673 -0.052092716 -0.159433 0.11409731 -0.019626489 0.040506385 -0.100590974 -0.009020178 -0.004572139 -0.053238623 -0.13048984 -0.06940935 -0.045700733 -0.076156296 -0.033992454 -0.019855034 -0.002599937 -0.00081106473 -0.03975306 0.08318955 0.08452682 -0.030331252 -0.011508041 0.026197191 0.034793217 0.165458 -0.031409405 0.067785785 0.028400816 -0.051728122 -0.011526184 -0.041086152 0.11941399 0.06591296 -0.035900824 0.008431134 0.018176515 -0.04740216 0.117495984 0.02450891 0.039654072 0.109722264 0.12652262 -0.11034907 -0.020025121 -0.056112796 0.0065136636 0.12198893 -0.11640573 -0.10456972 0.15038206 0.015201145 0.011475083 -0.036909353 -0.06363039 -0.005641614 0.019273473 0.0061813304 0.002534275 -0.076443195 0.013412171 -0.008657794 -0.06544301 0.075950526 0.03858542 0.028227113 -0.00840383 0.06736788 -0.020082202 0.12498736 -0.1137197 -0.062115733 0.029020408 -0.07291892 -0.039481327 0.070627026 -0.058692273 -0.056829598 0.106932595 0.047113534 -0.018931702 -0.043706786 0.0023790293 -0.03811168 0.051449742 0.011184103 0.016353412 -0.0013794191 0.08252493 -0.04489269 -0.04155514 -0.018930059 -0.032069176 0.0031385117 -0.04767803 0.06296663 -0.11974175 0.14471808 0.034546047 0.01654544 0.00047956867 0.027391702 0.15764235 -0.114108704 -0.041395586 -0.013707778 -0.039261486 -0.0043212348 -0.070232995 -0.029236536 -0.04577853 -0.022471476 0.05663252 -0.005522208 0.03238685 -0.01787238 0.084398955 0.030660788 0.07653915 -0.051740218 0.03191955 -0.020262154 -0.12249941 0.01151864 -0.028944753 -0.014142331 0.026765684 -0.0538889 0.0075063678 0.012829174 -0.00060956564 0.006117599 0.0323918 -0.06948152 -0.08026063 0.060815945 -0.041427065 0.03916286 -0.025444942 -0.023121027 -0.10638472 -0.038528148 0.12086791 -0.023891784 -0.02781186 0.11525424 -0.104861505
